digraph Tree {
node [shape=box, style="filled, rounded", color="black", fontname=helvetica] ;
edge [fontname=helvetica] ;
0 [label="X[4] <= 22615.5\nmse = 13.903\nsamples = 6985251\nvalue = 1.317", fillcolor="#fffdfc"] ;
1 [label="X[3] <= 21854.5\nmse = 44.801\nsamples = 931622\nvalue = 3.459", fillcolor="#fefaf7"] ;
0 -> 1 [labeldistance=2.5, labelangle=45, headlabel="True"] ;
2 [label="X[6] <= 23102.0\nmse = 131.407\nsamples = 105551\nvalue = 6.559", fillcolor="#fdf5f0"] ;
1 -> 2 ;
3 [label="X[3] <= 19340.5\nmse = 144.252\nsamples = 91572\nvalue = 7.534", fillcolor="#fdf4ee"] ;
2 -> 3 ;
4 [label="X[2] <= 19131.5\nmse = 264.592\nsamples = 20340\nvalue = 11.428", fillcolor="#fceee5"] ;
3 -> 4 ;
5 [label="X[2] <= 18844.5\nmse = 387.186\nsamples = 1389\nvalue = 18.146", fillcolor="#fae5d6"] ;
4 -> 5 ;
6 [label="X[2] <= 17574.0\nmse = 358.229\nsamples = 1184\nvalue = 15.773", fillcolor="#fae8db"] ;
5 -> 6 ;
7 [label="X[2] <= 17476.0\nmse = 434.007\nsamples = 808\nvalue = 19.938", fillcolor="#f9e2d1"] ;
6 -> 7 ;
8 [label="X[3] <= 19098.0\nmse = 381.042\nsamples = 779\nvalue = 18.834", fillcolor="#f9e4d4"] ;
7 -> 8 ;
9 [label="X[7] <= 13762.5\nmse = 397.409\nsamples = 684\nvalue = 20.694", fillcolor="#f9e1d0"] ;
8 -> 9 ;
10 [label="mse = 102.285\nsamples = 113\nvalue = 7.536", fillcolor="#fdf4ee"] ;
9 -> 10 ;
11 [label="mse = 415.708\nsamples = 571\nvalue = 23.544", fillcolor="#f8ddc9"] ;
9 -> 11 ;
12 [label="X[4] <= 16216.5\nmse = 53.016\nsamples = 95\nvalue = 5.283", fillcolor="#fdf7f3"] ;
8 -> 12 ;
13 [label="mse = 1.815\nsamples = 74\nvalue = 1.23", fillcolor="#fffdfc"] ;
12 -> 13 ;
14 [label="mse = 0.0\nsamples = 21\nvalue = 18.023", fillcolor="#fae5d6"] ;
12 -> 14 ;
15 [label="X[5] <= 14614.5\nmse = 965.42\nsamples = 29\nvalue = 47.566", fillcolor="#f1ba92"] ;
7 -> 15 ;
16 [label="mse = 0.0\nsamples = 6\nvalue = 8.576", fillcolor="#fcf3eb"] ;
15 -> 16 ;
17 [label="X[4] <= 14206.0\nmse = 666.122\nsamples = 23\nvalue = 59.157", fillcolor="#eda978"] ;
15 -> 17 ;
18 [label="mse = 987.876\nsamples = 13\nvalue = 45.163", fillcolor="#f1bd98"] ;
17 -> 18 ;
19 [label="mse = 0.0\nsamples = 10\nvalue = 72.415", fillcolor="#e99659"] ;
17 -> 19 ;
20 [label="X[0] <= 25533.5\nmse = 70.229\nsamples = 376\nvalue = 6.63", fillcolor="#fdf5f0"] ;
6 -> 20 ;
21 [label="X[3] <= 14929.5\nmse = 81.238\nsamples = 80\nvalue = 13.384", fillcolor="#fbece0"] ;
20 -> 21 ;
22 [label="X[5] <= 17593.0\nmse = 15.919\nsamples = 26\nvalue = 24.068", fillcolor="#f8dcc8"] ;
21 -> 22 ;
23 [label="mse = 2.417\nsamples = 19\nvalue = 21.552", fillcolor="#f9e0ce"] ;
22 -> 23 ;
24 [label="mse = 0.0\nsamples = 7\nvalue = 29.729", fillcolor="#f6d4bb"] ;
22 -> 24 ;
25 [label="X[4] <= 14597.5\nmse = 32.2\nsamples = 54\nvalue = 8.303", fillcolor="#fdf3ec"] ;
21 -> 25 ;
26 [label="mse = 23.904\nsamples = 33\nvalue = 10.934", fillcolor="#fcefe6"] ;
25 -> 26 ;
27 [label="mse = 6.272\nsamples = 21\nvalue = 2.943", fillcolor="#fefbf8"] ;
25 -> 27 ;
28 [label="X[7] <= 15110.5\nmse = 51.608\nsamples = 296\nvalue = 4.806", fillcolor="#fef8f4"] ;
20 -> 28 ;
29 [label="X[3] <= 16274.5\nmse = 21.615\nsamples = 228\nvalue = 3.025", fillcolor="#fefbf8"] ;
28 -> 29 ;
30 [label="mse = 3.209\nsamples = 121\nvalue = 1.41", fillcolor="#fffdfc"] ;
29 -> 30 ;
31 [label="mse = 36.32\nsamples = 107\nvalue = 4.882", fillcolor="#fef8f4"] ;
29 -> 31 ;
32 [label="X[6] <= 16930.5\nmse = 106.11\nsamples = 68\nvalue = 10.846", fillcolor="#fcefe6"] ;
28 -> 32 ;
33 [label="mse = 0.0\nsamples = 10\nvalue = 27.062", fillcolor="#f7d8c1"] ;
32 -> 33 ;
34 [label="mse = 71.25\nsamples = 58\nvalue = 8.05", fillcolor="#fdf3ed"] ;
32 -> 34 ;
35 [label="X[6] <= 17098.0\nmse = 320.78\nsamples = 205\nvalue = 32.576", fillcolor="#f5d0b5"] ;
5 -> 35 ;
36 [label="X[6] <= 17091.5\nmse = 248.438\nsamples = 156\nvalue = 39.018", fillcolor="#f3c6a6"] ;
35 -> 36 ;
37 [label="X[6] <= 16747.5\nmse = 129.915\nsamples = 131\nvalue = 33.675", fillcolor="#f5ceb2"] ;
36 -> 37 ;
38 [label="X[7] <= 14959.5\nmse = 8.849\nsamples = 95\nvalue = 39.906", fillcolor="#f3c5a4"] ;
37 -> 38 ;
39 [label="mse = 3.388\nsamples = 71\nvalue = 38.409", fillcolor="#f3c7a7"] ;
38 -> 39 ;
40 [label="mse = 0.0\nsamples = 24\nvalue = 44.143", fillcolor="#f2bf9a"] ;
38 -> 40 ;
41 [label="X[4] <= 14593.5\nmse = 89.66\nsamples = 36\nvalue = 17.922", fillcolor="#fae5d6"] ;
37 -> 41 ;
42 [label="mse = 2.905\nsamples = 7\nvalue = 3.735", fillcolor="#fefaf6"] ;
41 -> 42 ;
43 [label="mse = 2.508\nsamples = 29\nvalue = 24.056", fillcolor="#f8dcc8"] ;
41 -> 43 ;
44 [label="mse = 0.0\nsamples = 25\nvalue = 65.309", fillcolor="#eba06a"] ;
36 -> 44 ;
45 [label="X[5] <= 19955.0\nmse = 30.891\nsamples = 49\nvalue = 12.989", fillcolor="#fbece1"] ;
35 -> 45 ;
46 [label="X[0] <= 26644.0\nmse = 7.392\nsamples = 28\nvalue = 8.066", fillcolor="#fdf3ed"] ;
45 -> 46 ;
47 [label="mse = 0.0\nsamples = 25\nvalue = 8.986", fillcolor="#fcf2ea"] ;
46 -> 47 ;
48 [label="mse = 0.0\nsamples = 3\nvalue = 0.024", fillcolor="#ffffff"] ;
46 -> 48 ;
49 [label="mse = 0.0\nsamples = 21\nvalue = 18.473", fillcolor="#f9e4d5"] ;
45 -> 49 ;
50 [label="X[0] <= 26535.0\nmse = 252.488\nsamples = 18951\nvalue = 10.952", fillcolor="#fcefe6"] ;
4 -> 50 ;
51 [label="X[3] <= 14002.5\nmse = 203.912\nsamples = 8232\nvalue = 8.636", fillcolor="#fcf2eb"] ;
50 -> 51 ;
52 [label="X[7] <= 13558.5\nmse = 765.146\nsamples = 261\nvalue = 21.493", fillcolor="#f9e0ce"] ;
51 -> 52 ;
53 [label="X[0] <= 25824.0\nmse = 275.74\nsamples = 226\nvalue = 13.223", fillcolor="#fbece1"] ;
52 -> 53 ;
54 [label="X[6] <= 14177.5\nmse = 338.995\nsamples = 128\nvalue = 19.617", fillcolor="#f9e2d2"] ;
53 -> 54 ;
55 [label="mse = 301.295\nsamples = 100\nvalue = 25.108", fillcolor="#f7dac6"] ;
54 -> 55 ;
56 [label="mse = 0.38\nsamples = 28\nvalue = 0.515", fillcolor="#fffefe"] ;
54 -> 56 ;
57 [label="X[6] <= 14129.0\nmse = 29.098\nsamples = 98\nvalue = 3.676", fillcolor="#fefaf7"] ;
53 -> 57 ;
58 [label="mse = 0.01\nsamples = 60\nvalue = 0.048", fillcolor="#ffffff"] ;
57 -> 58 ;
59 [label="mse = 19.099\nsamples = 38\nvalue = 9.721", fillcolor="#fcf1e9"] ;
57 -> 59 ;
60 [label="X[4] <= 12255.5\nmse = 599.199\nsamples = 35\nvalue = 75.475", fillcolor="#e89152"] ;
52 -> 60 ;
61 [label="mse = 0.0\nsamples = 3\nvalue = 0.0", fillcolor="#ffffff"] ;
60 -> 61 ;
62 [label="X[5] <= 17686.0\nmse = 32.512\nsamples = 32\nvalue = 83.022", fillcolor="#e68641"] ;
60 -> 62 ;
63 [label="mse = 0.0\nsamples = 9\nvalue = 73.879", fillcolor="#e99356"] ;
62 -> 63 ;
64 [label="mse = 0.0\nsamples = 23\nvalue = 86.578", fillcolor="#e58139"] ;
62 -> 64 ;
65 [label="X[7] <= 18628.0\nmse = 179.666\nsamples = 7971\nvalue = 8.21", fillcolor="#fdf3ec"] ;
51 -> 65 ;
66 [label="X[3] <= 19223.5\nmse = 172.029\nsamples = 7885\nvalue = 8.003", fillcolor="#fdf3ed"] ;
65 -> 66 ;
67 [label="X[2] <= 20253.0\nmse = 162.711\nsamples = 7243\nvalue = 7.611", fillcolor="#fdf4ee"] ;
66 -> 67 ;
68 [label="mse = 292.417\nsamples = 965\nvalue = 11.466", fillcolor="#fceee5"] ;
67 -> 68 ;
69 [label="mse = 140.161\nsamples = 6278\nvalue = 7.019", fillcolor="#fdf5ef"] ;
67 -> 69 ;
70 [label="X[7] <= 16537.5\nmse = 256.044\nsamples = 642\nvalue = 12.437", fillcolor="#fbede3"] ;
66 -> 70 ;
71 [label="mse = 60.795\nsamples = 306\nvalue = 5.66", fillcolor="#fdf7f2"] ;
70 -> 71 ;
72 [label="mse = 354.029\nsamples = 336\nvalue = 18.621", fillcolor="#f9e4d4"] ;
70 -> 72 ;
73 [label="X[6] <= 20439.0\nmse = 517.368\nsamples = 86\nvalue = 26.851", fillcolor="#f7d8c2"] ;
65 -> 73 ;
74 [label="mse = 0.0\nsamples = 11\nvalue = 79.41", fillcolor="#e78b49"] ;
73 -> 74 ;
75 [label="X[6] <= 21506.5\nmse = 172.195\nsamples = 75\nvalue = 19.901", fillcolor="#f9e2d1"] ;
73 -> 75 ;
76 [label="mse = 71.204\nsamples = 36\nvalue = 8.554", fillcolor="#fcf3eb"] ;
75 -> 76 ;
77 [label="mse = 66.184\nsamples = 39\nvalue = 29.046", fillcolor="#f6d5bd"] ;
75 -> 77 ;
78 [label="X[1] <= 26000.0\nmse = 282.244\nsamples = 10719\nvalue = 12.713", fillcolor="#fbece2"] ;
50 -> 78 ;
79 [label="X[0] <= 26750.5\nmse = 321.759\nsamples = 1644\nvalue = 18.838", fillcolor="#f9e4d4"] ;
78 -> 79 ;
80 [label="X[1] <= 25936.5\nmse = 247.692\nsamples = 1047\nvalue = 12.593", fillcolor="#fbede2"] ;
79 -> 80 ;
81 [label="X[0] <= 26617.5\nmse = 202.801\nsamples = 921\nvalue = 10.829", fillcolor="#fcefe6"] ;
80 -> 81 ;
82 [label="mse = 246.388\nsamples = 540\nvalue = 15.591", fillcolor="#fae8db"] ;
81 -> 82 ;
83 [label="mse = 58.357\nsamples = 381\nvalue = 3.9", fillcolor="#fef9f6"] ;
81 -> 83 ;
84 [label="X[7] <= 15595.0\nmse = 387.774\nsamples = 126\nvalue = 24.937", fillcolor="#f8dbc6"] ;
80 -> 84 ;
85 [label="mse = 92.846\nsamples = 53\nvalue = 5.363", fillcolor="#fdf7f3"] ;
84 -> 85 ;
86 [label="mse = 76.799\nsamples = 73\nvalue = 40.462", fillcolor="#f3c4a2"] ;
84 -> 86 ;
87 [label="X[0] <= 26850.5\nmse = 266.246\nsamples = 597\nvalue = 29.607", fillcolor="#f6d4bb"] ;
79 -> 87 ;
88 [label="X[7] <= 14508.0\nmse = 226.503\nsamples = 555\nvalue = 31.603", fillcolor="#f6d1b7"] ;
87 -> 88 ;
89 [label="mse = 81.016\nsamples = 167\nvalue = 44.229", fillcolor="#f2bf9a"] ;
88 -> 89 ;
90 [label="mse = 195.605\nsamples = 388\nvalue = 26.569", fillcolor="#f7d8c2"] ;
88 -> 90 ;
91 [label="X[3] <= 18104.0\nmse = 29.806\nsamples = 42\nvalue = 2.854", fillcolor="#fefbf8"] ;
87 -> 91 ;
92 [label="mse = 12.138\nsamples = 35\nvalue = 0.931", fillcolor="#fffefd"] ;
91 -> 92 ;
93 [label="mse = 5.081\nsamples = 7\nvalue = 12.645", fillcolor="#fbede2"] ;
91 -> 93 ;
94 [label="X[7] <= 17749.0\nmse = 266.875\nsamples = 9075\nvalue = 11.591", fillcolor="#fceee4"] ;
78 -> 94 ;
95 [label="X[3] <= 19338.0\nmse = 253.004\nsamples = 8845\nvalue = 11.081", fillcolor="#fcefe6"] ;
94 -> 95 ;
96 [label="X[5] <= 20771.5\nmse = 247.215\nsamples = 8823\nvalue = 10.95", fillcolor="#fcefe6"] ;
95 -> 96 ;
97 [label="mse = 255.947\nsamples = 8109\nvalue = 11.613", fillcolor="#fceee4"] ;
96 -> 97 ;
98 [label="mse = 88.714\nsamples = 714\nvalue = 3.505", fillcolor="#fefaf7"] ;
96 -> 98 ;
99 [label="mse = -0.0\nsamples = 22\nvalue = 60.352", fillcolor="#eda775"] ;
95 -> 99 ;
100 [label="X[0] <= 27997.0\nmse = 412.964\nsamples = 230\nvalue = 30.598", fillcolor="#f6d2b9"] ;
94 -> 100 ;
101 [label="X[6] <= 19804.5\nmse = 255.972\nsamples = 206\nvalue = 25.833", fillcolor="#f7d9c4"] ;
100 -> 101 ;
102 [label="mse = 189.282\nsamples = 171\nvalue = 30.102", fillcolor="#f6d3ba"] ;
101 -> 102 ;
103 [label="mse = 47.241\nsamples = 35\nvalue = 4.636", fillcolor="#fef8f4"] ;
101 -> 103 ;
104 [label="mse = 0.0\nsamples = 24\nvalue = 69.417", fillcolor="#ea9a60"] ;
100 -> 104 ;
105 [label="X[4] <= 17688.5\nmse = 104.48\nsamples = 71232\nvalue = 6.427", fillcolor="#fdf6f0"] ;
3 -> 105 ;
106 [label="X[3] <= 20598.5\nmse = 89.788\nsamples = 50322\nvalue = 5.799", fillcolor="#fdf7f2"] ;
105 -> 106 ;
107 [label="X[4] <= 16386.5\nmse = 114.62\nsamples = 20214\nvalue = 6.97", fillcolor="#fdf5ef"] ;
106 -> 107 ;
108 [label="X[0] <= 23933.0\nmse = 80.589\nsamples = 9998\nvalue = 5.619", fillcolor="#fdf7f2"] ;
107 -> 108 ;
109 [label="X[3] <= 20343.5\nmse = 13.183\nsamples = 1077\nvalue = 2.083", fillcolor="#fefcfa"] ;
108 -> 109 ;
110 [label="X[4] <= 15760.0\nmse = 9.871\nsamples = 886\nvalue = 1.633", fillcolor="#fffdfb"] ;
109 -> 110 ;
111 [label="mse = 2.653\nsamples = 240\nvalue = 0.492", fillcolor="#fffefe"] ;
110 -> 111 ;
112 [label="mse = 11.942\nsamples = 646\nvalue = 2.068", fillcolor="#fefcfa"] ;
110 -> 112 ;
113 [label="X[3] <= 20466.0\nmse = 22.938\nsamples = 191\nvalue = 4.066", fillcolor="#fef9f6"] ;
109 -> 113 ;
114 [label="mse = 15.044\nsamples = 67\nvalue = 7.15", fillcolor="#fdf5ef"] ;
113 -> 114 ;
115 [label="mse = 18.708\nsamples = 124\nvalue = 2.255", fillcolor="#fefcfa"] ;
113 -> 115 ;
116 [label="X[5] <= 20256.0\nmse = 87.092\nsamples = 8921\nvalue = 6.05", fillcolor="#fdf6f1"] ;
108 -> 116 ;
117 [label="X[6] <= 18364.0\nmse = 110.336\nsamples = 4872\nvalue = 7.026", fillcolor="#fdf5ef"] ;
116 -> 117 ;
118 [label="mse = 98.222\nsamples = 4786\nvalue = 6.618", fillcolor="#fdf5f0"] ;
117 -> 118 ;
119 [label="mse = 292.215\nsamples = 86\nvalue = 27.373", fillcolor="#f7d7c0"] ;
117 -> 119 ;
120 [label="X[0] <= 27418.5\nmse = 56.975\nsamples = 4049\nvalue = 4.889", fillcolor="#fef8f4"] ;
116 -> 120 ;
121 [label="mse = 61.67\nsamples = 3208\nvalue = 5.374", fillcolor="#fdf7f3"] ;
120 -> 121 ;
122 [label="mse = 34.179\nsamples = 841\nvalue = 2.999", fillcolor="#fefbf8"] ;
120 -> 122 ;
123 [label="X[1] <= 27045.0\nmse = 144.562\nsamples = 10216\nvalue = 8.3", fillcolor="#fdf3ec"] ;
107 -> 123 ;
124 [label="X[4] <= 17664.5\nmse = 129.021\nsamples = 7995\nvalue = 7.379", fillcolor="#fdf4ee"] ;
123 -> 124 ;
125 [label="X[6] <= 19485.5\nmse = 126.837\nsamples = 7962\nvalue = 7.281", fillcolor="#fdf4ee"] ;
124 -> 125 ;
126 [label="mse = 132.399\nsamples = 5034\nvalue = 8.398", fillcolor="#fcf3ec"] ;
125 -> 126 ;
127 [label="mse = 111.312\nsamples = 2928\nvalue = 5.348", fillcolor="#fdf7f3"] ;
125 -> 127 ;
128 [label="X[2] <= 22988.5\nmse = 95.472\nsamples = 33\nvalue = 31.017", fillcolor="#f6d2b8"] ;
124 -> 128 ;
129 [label="mse = 19.979\nsamples = 16\nvalue = 39.336", fillcolor="#f3c6a5"] ;
128 -> 129 ;
130 [label="mse = 21.522\nsamples = 17\nvalue = 22.032", fillcolor="#f8dfcd"] ;
128 -> 130 ;
131 [label="X[5] <= 19691.5\nmse = 186.445\nsamples = 2221\nvalue = 11.612", fillcolor="#fceee4"] ;
123 -> 131 ;
132 [label="X[7] <= 17744.5\nmse = 76.313\nsamples = 470\nvalue = 5.25", fillcolor="#fdf7f3"] ;
131 -> 132 ;
133 [label="mse = 45.74\nsamples = 449\nvalue = 4.34", fillcolor="#fef9f5"] ;
132 -> 133 ;
134 [label="mse = 329.966\nsamples = 21\nvalue = 25.221", fillcolor="#f7dac5"] ;
132 -> 134 ;
135 [label="X[7] <= 16756.0\nmse = 202.054\nsamples = 1751\nvalue = 13.298", fillcolor="#fbece1"] ;
131 -> 135 ;
136 [label="mse = 204.939\nsamples = 48\nvalue = 38.558", fillcolor="#f3c7a7"] ;
135 -> 136 ;
137 [label="mse = 185.27\nsamples = 1703\nvalue = 12.653", fillcolor="#fbede2"] ;
135 -> 137 ;
138 [label="X[0] <= 24112.0\nmse = 71.57\nsamples = 30108\nvalue = 5.012", fillcolor="#fdf8f4"] ;
106 -> 138 ;
139 [label="X[6] <= 18938.5\nmse = 28.84\nsamples = 2894\nvalue = 3.0", fillcolor="#fefbf8"] ;
138 -> 139 ;
140 [label="X[5] <= 20344.5\nmse = 35.374\nsamples = 1082\nvalue = 4.156", fillcolor="#fef9f5"] ;
139 -> 140 ;
141 [label="X[6] <= 18122.5\nmse = 26.077\nsamples = 543\nvalue = 2.348", fillcolor="#fefcfa"] ;
140 -> 141 ;
142 [label="mse = 6.729\nsamples = 341\nvalue = 1.331", fillcolor="#fffdfc"] ;
141 -> 142 ;
143 [label="mse = 53.142\nsamples = 202\nvalue = 4.004", fillcolor="#fef9f6"] ;
141 -> 143 ;
144 [label="X[5] <= 20352.0\nmse = 38.115\nsamples = 539\nvalue = 6.015", fillcolor="#fdf6f1"] ;
140 -> 144 ;
145 [label="mse = 0.0\nsamples = 23\nvalue = 25.437", fillcolor="#f7dac5"] ;
144 -> 145 ;
146 [label="mse = 22.962\nsamples = 516\nvalue = 5.186", fillcolor="#fdf7f3"] ;
144 -> 146 ;
147 [label="X[2] <= 22030.0\nmse = 23.745\nsamples = 1812\nvalue = 2.32", fillcolor="#fefcfa"] ;
139 -> 147 ;
148 [label="X[1] <= 23317.0\nmse = 52.448\nsamples = 125\nvalue = 5.626", fillcolor="#fdf7f2"] ;
147 -> 148 ;
149 [label="mse = 23.354\nsamples = 109\nvalue = 3.442", fillcolor="#fefaf7"] ;
148 -> 149 ;
150 [label="mse = 0.0\nsamples = 16\nvalue = 20.329", fillcolor="#f9e1d1"] ;
148 -> 150 ;
151 [label="X[2] <= 23897.5\nmse = 20.69\nsamples = 1687\nvalue = 2.071", fillcolor="#fefcfa"] ;
147 -> 151 ;
152 [label="mse = 10.78\nsamples = 881\nvalue = 1.426", fillcolor="#fffdfc"] ;
151 -> 152 ;
153 [label="mse = 30.783\nsamples = 806\nvalue = 2.791", fillcolor="#fefbf9"] ;
151 -> 153 ;
154 [label="X[0] <= 24212.0\nmse = 75.61\nsamples = 27214\nvalue = 5.225", fillcolor="#fdf7f3"] ;
138 -> 154 ;
155 [label="X[2] <= 22650.0\nmse = 162.193\nsamples = 263\nvalue = 13.74", fillcolor="#fbebe0"] ;
154 -> 155 ;
156 [label="X[6] <= 18975.5\nmse = 95.898\nsamples = 134\nvalue = 21.174", fillcolor="#f9e0cf"] ;
155 -> 156 ;
157 [label="mse = 0.0\nsamples = 8\nvalue = 0.0", fillcolor="#ffffff"] ;
156 -> 157 ;
158 [label="mse = 66.312\nsamples = 126\nvalue = 22.794", fillcolor="#f8decb"] ;
156 -> 158 ;
159 [label="X[3] <= 20679.0\nmse = 121.308\nsamples = 129\nvalue = 6.561", fillcolor="#fdf5f0"] ;
155 -> 159 ;
160 [label="mse = 0.0\nsamples = 10\nvalue = 42.912", fillcolor="#f2c19d"] ;
159 -> 160 ;
161 [label="mse = 25.709\nsamples = 119\nvalue = 3.883", fillcolor="#fef9f6"] ;
159 -> 161 ;
162 [label="X[6] <= 18243.0\nmse = 74.108\nsamples = 26951\nvalue = 5.145", fillcolor="#fdf8f3"] ;
154 -> 162 ;
163 [label="X[3] <= 21348.5\nmse = 42.411\nsamples = 4468\nvalue = 3.848", fillcolor="#fef9f6"] ;
162 -> 163 ;
164 [label="mse = 56.004\nsamples = 3004\nvalue = 4.422", fillcolor="#fef9f5"] ;
163 -> 164 ;
165 [label="mse = 12.825\nsamples = 1464\nvalue = 2.684", fillcolor="#fefbf9"] ;
163 -> 165 ;
166 [label="X[2] <= 21831.5\nmse = 79.991\nsamples = 22483\nvalue = 5.402", fillcolor="#fdf7f3"] ;
162 -> 166 ;
167 [label="mse = 92.823\nsamples = 4217\nvalue = 6.593", fillcolor="#fdf5f0"] ;
166 -> 167 ;
168 [label="mse = 76.669\nsamples = 18266\nvalue = 5.13", fillcolor="#fdf8f3"] ;
166 -> 168 ;
169 [label="X[1] <= 25729.0\nmse = 136.731\nsamples = 20910\nvalue = 7.945", fillcolor="#fdf3ed"] ;
105 -> 169 ;
170 [label="X[3] <= 20034.5\nmse = 84.906\nsamples = 7918\nvalue = 5.72", fillcolor="#fdf7f2"] ;
169 -> 170 ;
171 [label="X[3] <= 20000.0\nmse = 268.631\nsamples = 75\nvalue = 21.127", fillcolor="#f9e0cf"] ;
170 -> 171 ;
172 [label="X[2] <= 25915.0\nmse = 142.643\nsamples = 57\nvalue = 14.182", fillcolor="#fbeadf"] ;
171 -> 172 ;
173 [label="X[2] <= 23646.5\nmse = 76.124\nsamples = 46\nvalue = 10.538", fillcolor="#fcf0e7"] ;
172 -> 173 ;
174 [label="mse = 41.815\nsamples = 31\nvalue = 15.014", fillcolor="#fae9dd"] ;
173 -> 174 ;
175 [label="mse = 21.883\nsamples = 15\nvalue = 1.407", fillcolor="#fffdfc"] ;
173 -> 175 ;
176 [label="mse = -0.0\nsamples = 11\nvalue = 35.487", fillcolor="#f4cbae"] ;
172 -> 176 ;
177 [label="X[0] <= 24130.0\nmse = 0.898\nsamples = 18\nvalue = 44.019", fillcolor="#f2bf9a"] ;
171 -> 177 ;
178 [label="mse = 0.0\nsamples = 10\nvalue = 43.106", fillcolor="#f2c09c"] ;
177 -> 178 ;
179 [label="mse = 0.0\nsamples = 8\nvalue = 45.002", fillcolor="#f1be98"] ;
177 -> 179 ;
180 [label="X[6] <= 23009.0\nmse = 80.938\nsamples = 7843\nvalue = 5.575", fillcolor="#fdf7f2"] ;
170 -> 180 ;
181 [label="X[1] <= 25501.0\nmse = 77.955\nsamples = 7718\nvalue = 5.42", fillcolor="#fdf7f3"] ;
180 -> 181 ;
182 [label="X[6] <= 21465.0\nmse = 82.798\nsamples = 7109\nvalue = 5.692", fillcolor="#fdf7f2"] ;
181 -> 182 ;
183 [label="mse = 83.919\nsamples = 5590\nvalue = 6.229", fillcolor="#fdf6f1"] ;
182 -> 183 ;
184 [label="mse = 73.799\nsamples = 1519\nvalue = 3.729", fillcolor="#fefaf6"] ;
182 -> 184 ;
185 [label="X[6] <= 22894.0\nmse = 10.995\nsamples = 609\nvalue = 2.264", fillcolor="#fefcfa"] ;
181 -> 185 ;
186 [label="mse = 7.694\nsamples = 588\nvalue = 1.909", fillcolor="#fefcfb"] ;
185 -> 186 ;
187 [label="mse = -0.0\nsamples = 21\nvalue = 12.303", fillcolor="#fbede3"] ;
185 -> 187 ;
188 [label="X[3] <= 21766.0\nmse = 171.111\nsamples = 125\nvalue = 14.542", fillcolor="#fbeade"] ;
180 -> 188 ;
189 [label="X[0] <= 25860.5\nmse = 58.194\nsamples = 102\nvalue = 9.336", fillcolor="#fcf1ea"] ;
188 -> 189 ;
190 [label="mse = 1.69\nsamples = 45\nvalue = 0.973", fillcolor="#fffefd"] ;
189 -> 190 ;
191 [label="mse = 6.945\nsamples = 57\nvalue = 15.737", fillcolor="#fae8db"] ;
189 -> 191 ;
192 [label="mse = -0.0\nsamples = 23\nvalue = 38.244", fillcolor="#f4c7a8"] ;
188 -> 192 ;
193 [label="X[3] <= 21229.0\nmse = 163.524\nsamples = 12992\nvalue = 9.305", fillcolor="#fcf1ea"] ;
169 -> 193 ;
194 [label="X[0] <= 26191.5\nmse = 233.942\nsamples = 4169\nvalue = 12.397", fillcolor="#fbede3"] ;
193 -> 194 ;
195 [label="X[7] <= 19151.5\nmse = 430.051\nsamples = 114\nvalue = 31.618", fillcolor="#f6d1b7"] ;
194 -> 195 ;
196 [label="X[3] <= 20353.0\nmse = 253.234\nsamples = 70\nvalue = 19.918", fillcolor="#f9e2d1"] ;
195 -> 196 ;
197 [label="mse = 0.0\nsamples = 21\nvalue = 35.333", fillcolor="#f4ccae"] ;
196 -> 197 ;
198 [label="mse = 203.159\nsamples = 49\nvalue = 12.317", fillcolor="#fbede3"] ;
196 -> 198 ;
199 [label="X[0] <= 26135.0\nmse = 77.136\nsamples = 44\nvalue = 52.188", fillcolor="#efb388"] ;
195 -> 199 ;
200 [label="mse = 0.0\nsamples = 19\nvalue = 61.557", fillcolor="#eda572"] ;
199 -> 200 ;
201 [label="mse = -0.0\nsamples = 25\nvalue = 43.955", fillcolor="#f2bf9a"] ;
199 -> 201 ;
202 [label="X[4] <= 18131.0\nmse = 218.298\nsamples = 4055\nvalue = 11.874", fillcolor="#fbeee4"] ;
194 -> 202 ;
203 [label="X[6] <= 20097.5\nmse = 175.021\nsamples = 2341\nvalue = 9.503", fillcolor="#fcf1e9"] ;
202 -> 203 ;
204 [label="mse = 217.019\nsamples = 1348\nvalue = 13.052", fillcolor="#fbece1"] ;
203 -> 204 ;
205 [label="mse = 78.1\nsamples = 993\nvalue = 4.701", fillcolor="#fef8f4"] ;
203 -> 205 ;
206 [label="X[7] <= 18229.0\nmse = 259.243\nsamples = 1714\nvalue = 15.115", fillcolor="#fae9dc"] ;
202 -> 206 ;
207 [label="mse = 1.739\nsamples = 109\nvalue = 1.285", fillcolor="#fffdfc"] ;
206 -> 207 ;
208 [label="mse = 262.91\nsamples = 1605\nvalue = 16.071", fillcolor="#fae8da"] ;
206 -> 208 ;
209 [label="X[7] <= 20293.5\nmse = 124.504\nsamples = 8823\nvalue = 7.875", fillcolor="#fdf4ed"] ;
193 -> 209 ;
210 [label="X[0] <= 28625.0\nmse = 106.544\nsamples = 8120\nvalue = 7.31", fillcolor="#fdf4ee"] ;
209 -> 210 ;
211 [label="X[2] <= 25553.5\nmse = 101.572\nsamples = 7935\nvalue = 7.104", fillcolor="#fdf5ef"] ;
210 -> 211 ;
212 [label="mse = 89.08\nsamples = 5231\nvalue = 6.384", fillcolor="#fdf6f0"] ;
211 -> 212 ;
213 [label="mse = 122.739\nsamples = 2704\nvalue = 8.493", fillcolor="#fcf3ec"] ;
211 -> 213 ;
214 [label="X[6] <= 20885.5\nmse = 241.779\nsamples = 185\nvalue = 16.472", fillcolor="#fae7d9"] ;
210 -> 214 ;
215 [label="mse = 112.892\nsamples = 157\nvalue = 11.702", fillcolor="#fbeee4"] ;
214 -> 215 ;
216 [label="mse = 97.919\nsamples = 28\nvalue = 43.957", fillcolor="#f2bf9a"] ;
214 -> 216 ;
217 [label="X[4] <= 19208.5\nmse = 291.366\nsamples = 703\nvalue = 14.719", fillcolor="#fbeadd"] ;
209 -> 217 ;
218 [label="X[2] <= 27027.0\nmse = 61.699\nsamples = 364\nvalue = 6.461", fillcolor="#fdf6f0"] ;
217 -> 218 ;
219 [label="mse = 46.623\nsamples = 314\nvalue = 4.734", fillcolor="#fef8f4"] ;
218 -> 219 ;
220 [label="mse = 5.108\nsamples = 50\nvalue = 18.261", fillcolor="#fae4d5"] ;
218 -> 220 ;
221 [label="X[4] <= 19246.5\nmse = 386.722\nsamples = 339\nvalue = 23.996", fillcolor="#f8dcc8"] ;
217 -> 221 ;
222 [label="mse = 0.0\nsamples = 22\nvalue = 58.186", fillcolor="#eeaa7a"] ;
221 -> 222 ;
223 [label="mse = 317.08\nsamples = 317\nvalue = 21.275", fillcolor="#f9e0ce"] ;
221 -> 223 ;
224 [label="X[0] <= 25710.5\nmse = 1.024\nsamples = 13979\nvalue = 0.201", fillcolor="#ffffff"] ;
2 -> 224 ;
225 [label="X[5] <= 23551.0\nmse = 0.089\nsamples = 13374\nvalue = 0.066", fillcolor="#ffffff"] ;
224 -> 225 ;
226 [label="X[1] <= 24986.5\nmse = 0.71\nsamples = 472\nvalue = 0.736", fillcolor="#fffefd"] ;
225 -> 226 ;
227 [label="X[2] <= 22512.5\nmse = 0.421\nsamples = 322\nvalue = 0.442", fillcolor="#fffefe"] ;
226 -> 227 ;
228 [label="X[6] <= 23284.0\nmse = 0.159\nsamples = 158\nvalue = 0.189", fillcolor="#ffffff"] ;
227 -> 228 ;
229 [label="mse = 0.151\nsamples = 15\nvalue = 1.198", fillcolor="#fffdfc"] ;
228 -> 229 ;
230 [label="X[0] <= 25327.0\nmse = 0.055\nsamples = 143\nvalue = 0.094", fillcolor="#ffffff"] ;
228 -> 230 ;
231 [label="X[2] <= 21690.0\nmse = 0.011\nsamples = 129\nvalue = 0.024", fillcolor="#ffffff"] ;
230 -> 231 ;
232 [label="mse = 0.043\nsamples = 25\nvalue = 0.101", fillcolor="#ffffff"] ;
231 -> 232 ;
233 [label="mse = 0.001\nsamples = 104\nvalue = 0.004", fillcolor="#ffffff"] ;
231 -> 233 ;
234 [label="mse = 0.042\nsamples = 14\nvalue = 0.677", fillcolor="#fffefd"] ;
230 -> 234 ;
235 [label="X[0] <= 24641.0\nmse = 0.552\nsamples = 164\nvalue = 0.684", fillcolor="#fffefd"] ;
227 -> 235 ;
236 [label="X[2] <= 24812.5\nmse = 0.258\nsamples = 133\nvalue = 0.537", fillcolor="#fffefe"] ;
235 -> 236 ;
237 [label="X[5] <= 23471.5\nmse = 0.211\nsamples = 112\nvalue = 0.399", fillcolor="#fffefe"] ;
236 -> 237 ;
238 [label="mse = 0.077\nsamples = 52\nvalue = 0.17", fillcolor="#ffffff"] ;
237 -> 238 ;
239 [label="mse = 0.243\nsamples = 60\nvalue = 0.597", fillcolor="#fffefe"] ;
237 -> 239 ;
240 [label="X[3] <= 21745.5\nmse = 0.001\nsamples = 21\nvalue = 1.156", fillcolor="#fffdfc"] ;
236 -> 240 ;
241 [label="mse = 0.001\nsamples = 12\nvalue = 1.173", fillcolor="#fffdfc"] ;
240 -> 241 ;
242 [label="mse = 0.0\nsamples = 9\nvalue = 1.126", fillcolor="#fffdfc"] ;
240 -> 242 ;
243 [label="X[6] <= 23859.0\nmse = 1.282\nsamples = 31\nvalue = 1.26", fillcolor="#fffdfc"] ;
235 -> 243 ;
244 [label="X[7] <= 20410.5\nmse = 1.104\nsamples = 21\nvalue = 1.702", fillcolor="#fefdfb"] ;
243 -> 244 ;
245 [label="mse = 0.0\nsamples = 2\nvalue = 3.895", fillcolor="#fef9f6"] ;
244 -> 245 ;
246 [label="mse = 0.74\nsamples = 19\nvalue = 1.508", fillcolor="#fffdfc"] ;
244 -> 246 ;
247 [label="X[7] <= 22935.0\nmse = 0.046\nsamples = 10\nvalue = 0.169", fillcolor="#ffffff"] ;
243 -> 247 ;
248 [label="mse = 0.081\nsamples = 6\nvalue = 0.22", fillcolor="#fffffe"] ;
247 -> 248 ;
249 [label="mse = -0.0\nsamples = 4\nvalue = 0.11", fillcolor="#ffffff"] ;
247 -> 249 ;
250 [label="X[2] <= 22798.0\nmse = 0.761\nsamples = 150\nvalue = 1.341", fillcolor="#fffdfc"] ;
226 -> 250 ;
251 [label="X[5] <= 23308.5\nmse = 0.46\nsamples = 87\nvalue = 1.86", fillcolor="#fefcfb"] ;
250 -> 251 ;
252 [label="X[7] <= 21620.0\nmse = 0.115\nsamples = 46\nvalue = 2.319", fillcolor="#fefcfa"] ;
251 -> 252 ;
253 [label="X[4] <= 18163.0\nmse = 0.063\nsamples = 32\nvalue = 2.144", fillcolor="#fefcfa"] ;
252 -> 253 ;
254 [label="mse = 0.015\nsamples = 23\nvalue = 2.254", fillcolor="#fefcfa"] ;
253 -> 254 ;
255 [label="mse = 0.018\nsamples = 9\nvalue = 1.717", fillcolor="#fefdfb"] ;
253 -> 255 ;
256 [label="X[4] <= 18751.0\nmse = 0.024\nsamples = 14\nvalue = 2.692", fillcolor="#fefbf9"] ;
252 -> 256 ;
257 [label="mse = 0.003\nsamples = 11\nvalue = 2.758", fillcolor="#fefbf9"] ;
256 -> 257 ;
258 [label="mse = 0.0\nsamples = 3\nvalue = 2.374", fillcolor="#fefcfa"] ;
256 -> 258 ;
259 [label="X[3] <= 21405.0\nmse = 0.343\nsamples = 41\nvalue = 1.344", fillcolor="#fffdfc"] ;
251 -> 259 ;
260 [label="X[2] <= 22611.0\nmse = 0.075\nsamples = 10\nvalue = 2.111", fillcolor="#fefcfa"] ;
259 -> 260 ;
261 [label="mse = 0.0\nsamples = 4\nvalue = 2.439", fillcolor="#fefbf9"] ;
260 -> 261 ;
262 [label="mse = 0.0\nsamples = 6\nvalue = 1.881", fillcolor="#fefcfb"] ;
260 -> 262 ;
263 [label="X[3] <= 21443.0\nmse = 0.15\nsamples = 31\nvalue = 1.066", fillcolor="#fffdfd"] ;
259 -> 263 ;
264 [label="mse = 0.0\nsamples = 1\nvalue = 0.0", fillcolor="#ffffff"] ;
263 -> 264 ;
265 [label="mse = 0.078\nsamples = 30\nvalue = 1.139", fillcolor="#fffdfc"] ;
263 -> 265 ;
266 [label="X[4] <= 17287.5\nmse = 0.368\nsamples = 63\nvalue = 0.682", fillcolor="#fffefd"] ;
250 -> 266 ;
267 [label="X[7] <= 20318.0\nmse = 0.101\nsamples = 10\nvalue = 1.572", fillcolor="#fffdfb"] ;
266 -> 267 ;
268 [label="mse = 0.0\nsamples = 6\nvalue = 1.357", fillcolor="#fffdfc"] ;
267 -> 268 ;
269 [label="mse = 0.0\nsamples = 4\nvalue = 2.044", fillcolor="#fefcfa"] ;
267 -> 269 ;
270 [label="X[2] <= 23096.5\nmse = 0.251\nsamples = 53\nvalue = 0.526", fillcolor="#fffefe"] ;
266 -> 270 ;
271 [label="X[6] <= 23602.0\nmse = 0.143\nsamples = 30\nvalue = 0.874", fillcolor="#fffefd"] ;
270 -> 271 ;
272 [label="mse = 0.077\nsamples = 23\nvalue = 0.736", fillcolor="#fffefd"] ;
271 -> 272 ;
273 [label="mse = 0.0\nsamples = 7\nvalue = 1.455", fillcolor="#fffdfc"] ;
271 -> 273 ;
274 [label="X[7] <= 20920.0\nmse = 0.017\nsamples = 23\nvalue = 0.06", fillcolor="#ffffff"] ;
270 -> 274 ;
275 [label="mse = 0.0\nsamples = 4\nvalue = 0.337", fillcolor="#fffffe"] ;
274 -> 275 ;
276 [label="mse = 0.0\nsamples = 19\nvalue = 0.0", fillcolor="#ffffff"] ;
274 -> 276 ;
277 [label="X[0] <= 20995.5\nmse = 0.049\nsamples = 12902\nvalue = 0.041", fillcolor="#ffffff"] ;
225 -> 277 ;
278 [label="X[6] <= 24736.5\nmse = 0.305\nsamples = 1103\nvalue = 0.322", fillcolor="#fffffe"] ;
277 -> 278 ;
279 [label="X[2] <= 21537.0\nmse = 0.399\nsamples = 642\nvalue = 0.545", fillcolor="#fffefe"] ;
278 -> 279 ;
280 [label="X[1] <= 16013.5\nmse = 0.557\nsamples = 339\nvalue = 0.765", fillcolor="#fffefd"] ;
279 -> 280 ;
281 [label="X[7] <= 23895.0\nmse = 0.027\nsamples = 88\nvalue = 0.112", fillcolor="#ffffff"] ;
280 -> 281 ;
282 [label="mse = 0.0\nsamples = 60\nvalue = 0.0", fillcolor="#ffffff"] ;
281 -> 282 ;
283 [label="mse = 0.0\nsamples = 28\nvalue = 0.352", fillcolor="#fffefe"] ;
281 -> 283 ;
284 [label="X[0] <= 18502.5\nmse = 0.545\nsamples = 251\nvalue = 0.98", fillcolor="#fffefd"] ;
280 -> 284 ;
285 [label="mse = 0.245\nsamples = 101\nvalue = 0.68", fillcolor="#fffefd"] ;
284 -> 285 ;
286 [label="mse = 0.64\nsamples = 150\nvalue = 1.166", fillcolor="#fffdfc"] ;
284 -> 286 ;
287 [label="X[5] <= 24226.0\nmse = 0.118\nsamples = 303\nvalue = 0.306", fillcolor="#fffffe"] ;
279 -> 287 ;
288 [label="X[2] <= 24007.5\nmse = 0.082\nsamples = 299\nvalue = 0.283", fillcolor="#fffffe"] ;
287 -> 288 ;
289 [label="mse = 0.065\nsamples = 288\nvalue = 0.256", fillcolor="#fffffe"] ;
288 -> 289 ;
290 [label="mse = -0.0\nsamples = 11\nvalue = 1.0", fillcolor="#fffefd"] ;
288 -> 290 ;
291 [label="mse = -0.0\nsamples = 4\nvalue = 1.879", fillcolor="#fefcfb"] ;
287 -> 291 ;
292 [label="X[5] <= 23835.0\nmse = 0.01\nsamples = 461\nvalue = 0.013", fillcolor="#ffffff"] ;
278 -> 292 ;
293 [label="mse = 0.168\nsamples = 9\nvalue = 0.438", fillcolor="#fffefe"] ;
292 -> 293 ;
294 [label="X[6] <= 24749.0\nmse = 0.003\nsamples = 452\nvalue = 0.004", fillcolor="#ffffff"] ;
292 -> 294 ;
295 [label="X[6] <= 24738.5\nmse = 0.133\nsamples = 7\nvalue = 0.199", fillcolor="#ffffff"] ;
294 -> 295 ;
296 [label="mse = 0.0\nsamples = 5\nvalue = 0.0", fillcolor="#ffffff"] ;
295 -> 296 ;
297 [label="mse = 0.0\nsamples = 2\nvalue = 0.864", fillcolor="#fffefd"] ;
295 -> 297 ;
298 [label="mse = 0.0\nsamples = 445\nvalue = 0.0", fillcolor="#ffffff"] ;
294 -> 298 ;
299 [label="X[4] <= 22600.0\nmse = 0.018\nsamples = 11799\nvalue = 0.015", fillcolor="#ffffff"] ;
277 -> 299 ;
300 [label="X[5] <= 23808.5\nmse = 0.015\nsamples = 11759\nvalue = 0.013", fillcolor="#ffffff"] ;
299 -> 300 ;
301 [label="X[2] <= 21642.5\nmse = 0.112\nsamples = 1070\nvalue = 0.107", fillcolor="#ffffff"] ;
300 -> 301 ;
302 [label="mse = 0.0\nsamples = 672\nvalue = 0.0", fillcolor="#ffffff"] ;
301 -> 302 ;
303 [label="X[6] <= 24582.0\nmse = 0.245\nsamples = 398\nvalue = 0.278", fillcolor="#fffffe"] ;
301 -> 303 ;
304 [label="mse = 0.092\nsamples = 301\nvalue = 0.203", fillcolor="#ffffff"] ;
303 -> 304 ;
305 [label="mse = 0.658\nsamples = 97\nvalue = 0.522", fillcolor="#fffefe"] ;
303 -> 305 ;
306 [label="X[4] <= 22594.0\nmse = 0.004\nsamples = 10689\nvalue = 0.004", fillcolor="#ffffff"] ;
300 -> 306 ;
307 [label="X[3] <= 21571.5\nmse = 0.004\nsamples = 10678\nvalue = 0.003", fillcolor="#ffffff"] ;
306 -> 307 ;
308 [label="mse = 0.001\nsamples = 10046\nvalue = 0.001", fillcolor="#ffffff"] ;
307 -> 308 ;
309 [label="mse = 0.063\nsamples = 632\nvalue = 0.038", fillcolor="#ffffff"] ;
307 -> 309 ;
310 [label="X[2] <= 23351.0\nmse = 0.032\nsamples = 11\nvalue = 0.334", fillcolor="#fffffe"] ;
306 -> 310 ;
311 [label="mse = 0.009\nsamples = 6\nvalue = 0.168", fillcolor="#ffffff"] ;
310 -> 311 ;
312 [label="mse = 0.0\nsamples = 5\nvalue = 0.5", fillcolor="#fffefe"] ;
310 -> 312 ;
313 [label="X[0] <= 22415.5\nmse = 0.394\nsamples = 40\nvalue = 0.717", fillcolor="#fffefd"] ;
299 -> 313 ;
314 [label="X[0] <= 21992.5\nmse = 0.106\nsamples = 26\nvalue = 1.176", fillcolor="#fffdfc"] ;
313 -> 314 ;
315 [label="mse = 0.0\nsamples = 6\nvalue = 0.656", fillcolor="#fffefd"] ;
314 -> 315 ;
316 [label="mse = 0.0\nsamples = 20\nvalue = 1.381", fillcolor="#fffdfc"] ;
314 -> 316 ;
317 [label="mse = -0.0\nsamples = 14\nvalue = 0.0", fillcolor="#ffffff"] ;
313 -> 317 ;
318 [label="X[4] <= 19000.5\nmse = 12.249\nsamples = 605\nvalue = 3.197", fillcolor="#fefaf8"] ;
224 -> 318 ;
319 [label="X[2] <= 22948.0\nmse = 12.324\nsamples = 450\nvalue = 4.19", fillcolor="#fef9f5"] ;
318 -> 319 ;
320 [label="X[6] <= 23251.5\nmse = 6.866\nsamples = 193\nvalue = 5.852", fillcolor="#fdf6f2"] ;
319 -> 320 ;
321 [label="X[7] <= 20558.0\nmse = 5.036\nsamples = 69\nvalue = 3.787", fillcolor="#fef9f6"] ;
320 -> 321 ;
322 [label="X[4] <= 17022.5\nmse = 0.522\nsamples = 37\nvalue = 5.66", fillcolor="#fdf7f2"] ;
321 -> 322 ;
323 [label="mse = 0.0\nsamples = 15\nvalue = 6.468", fillcolor="#fdf6f0"] ;
322 -> 323 ;
324 [label="X[3] <= 21771.5\nmse = 0.088\nsamples = 22\nvalue = 5.077", fillcolor="#fdf8f3"] ;
322 -> 324 ;
325 [label="mse = 0.003\nsamples = 20\nvalue = 5.007", fillcolor="#fdf8f4"] ;
324 -> 325 ;
326 [label="mse = 0.0\nsamples = 2\nvalue = 6.279", fillcolor="#fdf6f1"] ;
324 -> 326 ;
327 [label="X[2] <= 20998.0\nmse = 1.707\nsamples = 32\nvalue = 1.675", fillcolor="#fefdfb"] ;
321 -> 327 ;
328 [label="mse = 0.0\nsamples = 8\nvalue = 3.618", fillcolor="#fefaf7"] ;
327 -> 328 ;
329 [label="X[1] <= 25672.5\nmse = 0.56\nsamples = 24\nvalue = 1.011", fillcolor="#fffefd"] ;
327 -> 329 ;
330 [label="mse = 0.0\nsamples = 11\nvalue = 1.776", fillcolor="#fefcfb"] ;
329 -> 330 ;
331 [label="mse = 0.004\nsamples = 13\nvalue = 0.282", fillcolor="#fffffe"] ;
329 -> 331 ;
332 [label="X[6] <= 23511.0\nmse = 3.959\nsamples = 124\nvalue = 7.066", fillcolor="#fdf5ef"] ;
320 -> 332 ;
333 [label="X[2] <= 21194.5\nmse = 1.141\nsamples = 86\nvalue = 8.138", fillcolor="#fdf3ec"] ;
332 -> 333 ;
334 [label="X[3] <= 21475.5\nmse = 0.143\nsamples = 30\nvalue = 7.1", fillcolor="#fdf5ef"] ;
333 -> 334 ;
335 [label="mse = 0.001\nsamples = 20\nvalue = 7.364", fillcolor="#fdf4ee"] ;
334 -> 335 ;
336 [label="mse = 0.0\nsamples = 10\nvalue = 6.56", fillcolor="#fdf5f0"] ;
334 -> 336 ;
337 [label="X[4] <= 18594.0\nmse = 0.487\nsamples = 56\nvalue = 8.91", fillcolor="#fcf2eb"] ;
333 -> 337 ;
338 [label="mse = 0.051\nsamples = 50\nvalue = 8.621", fillcolor="#fcf2eb"] ;
337 -> 338 ;
339 [label="mse = 0.0\nsamples = 6\nvalue = 10.445", fillcolor="#fcf0e7"] ;
337 -> 339 ;
340 [label="X[3] <= 21432.0\nmse = 0.731\nsamples = 38\nvalue = 4.329", fillcolor="#fef9f5"] ;
332 -> 340 ;
341 [label="X[4] <= 18756.0\nmse = 0.502\nsamples = 22\nvalue = 4.841", fillcolor="#fef8f4"] ;
340 -> 341 ;
342 [label="mse = 0.039\nsamples = 17\nvalue = 4.453", fillcolor="#fef9f5"] ;
341 -> 342 ;
343 [label="mse = 0.0\nsamples = 5\nvalue = 6.06", fillcolor="#fdf6f1"] ;
341 -> 343 ;
344 [label="X[5] <= 23432.0\nmse = 0.393\nsamples = 16\nvalue = 3.779", fillcolor="#fef9f6"] ;
340 -> 344 ;
345 [label="mse = 0.048\nsamples = 15\nvalue = 3.895", fillcolor="#fef9f6"] ;
344 -> 345 ;
346 [label="mse = -0.0\nsamples = 1\nvalue = 0.779", fillcolor="#fffefd"] ;
344 -> 346 ;
347 [label="X[5] <= 23550.5\nmse = 12.732\nsamples = 257\nvalue = 2.878", fillcolor="#fefbf8"] ;
319 -> 347 ;
348 [label="X[3] <= 21094.5\nmse = 15.658\nsamples = 133\nvalue = 4.441", fillcolor="#fef9f5"] ;
347 -> 348 ;
349 [label="mse = 0.0\nsamples = 5\nvalue = 16.102", fillcolor="#fae8da"] ;
348 -> 349 ;
350 [label="X[6] <= 23361.0\nmse = 9.589\nsamples = 128\nvalue = 3.884", fillcolor="#fef9f6"] ;
348 -> 350 ;
351 [label="X[3] <= 21834.5\nmse = 9.068\nsamples = 96\nvalue = 4.794", fillcolor="#fef8f4"] ;
350 -> 351 ;
352 [label="mse = 7.915\nsamples = 87\nvalue = 5.176", fillcolor="#fdf7f3"] ;
351 -> 352 ;
353 [label="mse = 0.004\nsamples = 9\nvalue = 0.186", fillcolor="#ffffff"] ;
351 -> 353 ;
354 [label="X[6] <= 23638.5\nmse = 1.098\nsamples = 32\nvalue = 1.134", fillcolor="#fffdfc"] ;
350 -> 354 ;
355 [label="mse = 0.599\nsamples = 22\nvalue = 0.54", fillcolor="#fffefe"] ;
354 -> 355 ;
356 [label="mse = 0.117\nsamples = 10\nvalue = 2.255", fillcolor="#fefcfa"] ;
354 -> 356 ;
357 [label="X[6] <= 23710.5\nmse = 2.655\nsamples = 124\nvalue = 0.986", fillcolor="#fffefd"] ;
347 -> 357 ;
358 [label="X[2] <= 23078.5\nmse = 0.0\nsamples = 95\nvalue = 0.007", fillcolor="#ffffff"] ;
357 -> 358 ;
359 [label="X[4] <= 17965.5\nmse = 0.001\nsamples = 20\nvalue = 0.033", fillcolor="#ffffff"] ;
358 -> 359 ;
360 [label="mse = 0.001\nsamples = 11\nvalue = 0.047", fillcolor="#ffffff"] ;
359 -> 360 ;
361 [label="mse = 0.0\nsamples = 9\nvalue = 0.02", fillcolor="#ffffff"] ;
359 -> 361 ;
362 [label="mse = 0.0\nsamples = 75\nvalue = 0.0", fillcolor="#ffffff"] ;
358 -> 362 ;
363 [label="mse = -0.0\nsamples = 29\nvalue = 3.698", fillcolor="#fefaf7"] ;
357 -> 363 ;
364 [label="X[5] <= 23339.5\nmse = 0.793\nsamples = 155\nvalue = 0.304", fillcolor="#fffffe"] ;
318 -> 364 ;
365 [label="X[6] <= 23559.5\nmse = 1.165\nsamples = 18\nvalue = 2.67", fillcolor="#fefbf9"] ;
364 -> 365 ;
366 [label="mse = 0.0\nsamples = 3\nvalue = 0.0", fillcolor="#ffffff"] ;
365 -> 366 ;
367 [label="X[1] <= 25592.5\nmse = 0.267\nsamples = 15\nvalue = 3.018", fillcolor="#fefbf8"] ;
365 -> 367 ;
368 [label="mse = 0.0\nsamples = 7\nvalue = 2.429", fillcolor="#fefbf9"] ;
367 -> 368 ;
369 [label="mse = 0.0\nsamples = 8\nvalue = 3.471", fillcolor="#fefaf7"] ;
367 -> 369 ;
370 [label="X[2] <= 22352.0\nmse = 0.009\nsamples = 137\nvalue = 0.025", fillcolor="#ffffff"] ;
364 -> 370 ;
371 [label="X[7] <= 22588.5\nmse = 0.033\nsamples = 9\nvalue = 0.306", fillcolor="#fffffe"] ;
370 -> 371 ;
372 [label="mse = 0.0\nsamples = 5\nvalue = 0.166", fillcolor="#ffffff"] ;
371 -> 372 ;
373 [label="mse = 0.0\nsamples = 4\nvalue = 0.539", fillcolor="#fffefe"] ;
371 -> 373 ;
374 [label="X[0] <= 25766.0\nmse = 0.0\nsamples = 128\nvalue = 0.003", fillcolor="#ffffff"] ;
370 -> 374 ;
375 [label="mse = 0.0\nsamples = 1\nvalue = 0.3", fillcolor="#fffffe"] ;
374 -> 375 ;
376 [label="X[5] <= 23449.5\nmse = 0.0\nsamples = 127\nvalue = 0.001", fillcolor="#ffffff"] ;
374 -> 376 ;
377 [label="mse = 0.0\nsamples = 7\nvalue = 0.024", fillcolor="#ffffff"] ;
376 -> 377 ;
378 [label="mse = 0.0\nsamples = 120\nvalue = 0.0", fillcolor="#ffffff"] ;
376 -> 378 ;
379 [label="X[3] <= 24295.5\nmse = 32.375\nsamples = 826071\nvalue = 3.064", fillcolor="#fefbf8"] ;
1 -> 379 ;
380 [label="X[0] <= 25879.5\nmse = 41.548\nsamples = 436174\nvalue = 3.651", fillcolor="#fefaf7"] ;
379 -> 380 ;
381 [label="X[7] <= 22813.5\nmse = 29.354\nsamples = 165950\nvalue = 2.789", fillcolor="#fefbf9"] ;
380 -> 381 ;
382 [label="X[1] <= 22922.0\nmse = 34.205\nsamples = 132597\nvalue = 3.177", fillcolor="#fefaf8"] ;
381 -> 382 ;
383 [label="X[6] <= 24548.5\nmse = 27.43\nsamples = 59410\nvalue = 2.616", fillcolor="#fefbf9"] ;
382 -> 383 ;
384 [label="X[3] <= 23391.5\nmse = 26.669\nsamples = 59389\nvalue = 2.605", fillcolor="#fefbf9"] ;
383 -> 384 ;
385 [label="X[2] <= 25073.5\nmse = 34.874\nsamples = 27071\nvalue = 3.16", fillcolor="#fefaf8"] ;
384 -> 385 ;
386 [label="X[1] <= 16249.5\nmse = 30.211\nsamples = 20727\nvalue = 2.841", fillcolor="#fefbf9"] ;
385 -> 386 ;
387 [label="mse = 50.353\nsamples = 1131\nvalue = 5.244", fillcolor="#fdf7f3"] ;
386 -> 387 ;
388 [label="mse = 28.699\nsamples = 19596\nvalue = 2.702", fillcolor="#fefbf9"] ;
386 -> 388 ;
389 [label="X[4] <= 22416.0\nmse = 48.794\nsamples = 6344\nvalue = 4.211", fillcolor="#fef9f5"] ;
385 -> 389 ;
390 [label="mse = 44.431\nsamples = 6275\nvalue = 4.045", fillcolor="#fef9f6"] ;
389 -> 390 ;
391 [label="mse = 215.633\nsamples = 69\nvalue = 19.192", fillcolor="#f9e3d3"] ;
389 -> 391 ;
392 [label="X[1] <= 20551.5\nmse = 19.302\nsamples = 32318\nvalue = 2.139", fillcolor="#fefcfa"] ;
384 -> 392 ;
393 [label="X[4] <= 20511.5\nmse = 15.55\nsamples = 12968\nvalue = 1.684", fillcolor="#fefdfb"] ;
392 -> 393 ;
394 [label="mse = 29.509\nsamples = 3297\nvalue = 2.541", fillcolor="#fefbf9"] ;
393 -> 394 ;
395 [label="mse = 10.467\nsamples = 9671\nvalue = 1.392", fillcolor="#fffdfc"] ;
393 -> 395 ;
396 [label="X[7] <= 22525.0\nmse = 21.573\nsamples = 19350\nvalue = 2.442", fillcolor="#fefbf9"] ;
392 -> 396 ;
397 [label="mse = 19.549\nsamples = 17942\nvalue = 2.305", fillcolor="#fefcfa"] ;
396 -> 397 ;
398 [label="mse = 44.275\nsamples = 1408\nvalue = 4.198", fillcolor="#fef9f5"] ;
396 -> 398 ;
399 [label="X[7] <= 22589.0\nmse = 1107.002\nsamples = 21\nvalue = 37.476", fillcolor="#f4c8a9"] ;
383 -> 399 ;
400 [label="mse = 0.0\nsamples = 7\nvalue = 0.812", fillcolor="#fffefd"] ;
399 -> 400 ;
401 [label="mse = -0.0\nsamples = 14\nvalue = 67.669", fillcolor="#eb9d64"] ;
399 -> 401 ;
402 [label="X[1] <= 22926.5\nmse = 39.215\nsamples = 73187\nvalue = 3.63", fillcolor="#fefaf7"] ;
382 -> 402 ;
403 [label="X[7] <= 19820.0\nmse = 67.894\nsamples = 108\nvalue = 16.054", fillcolor="#fae8da"] ;
402 -> 403 ;
404 [label="mse = 0.0\nsamples = 21\nvalue = 28.197", fillcolor="#f7d6bf"] ;
403 -> 404 ;
405 [label="X[7] <= 21747.0\nmse = 41.076\nsamples = 87\nvalue = 13.202", fillcolor="#fbece1"] ;
403 -> 405 ;
406 [label="X[5] <= 22344.0\nmse = 14.871\nsamples = 70\nvalue = 10.877", fillcolor="#fcefe6"] ;
405 -> 406 ;
407 [label="mse = 2.526\nsamples = 16\nvalue = 3.43", fillcolor="#fefaf7"] ;
406 -> 407 ;
408 [label="mse = 0.822\nsamples = 54\nvalue = 12.718", fillcolor="#fbece2"] ;
406 -> 408 ;
409 [label="mse = 0.0\nsamples = 17\nvalue = 25.491", fillcolor="#f7dac5"] ;
405 -> 409 ;
410 [label="X[3] <= 23533.5\nmse = 38.957\nsamples = 73079\nvalue = 3.612", fillcolor="#fefaf7"] ;
402 -> 410 ;
411 [label="X[6] <= 24534.0\nmse = 48.868\nsamples = 40391\nvalue = 4.001", fillcolor="#fef9f6"] ;
410 -> 411 ;
412 [label="X[0] <= 25308.5\nmse = 48.202\nsamples = 40337\nvalue = 3.983", fillcolor="#fef9f6"] ;
411 -> 412 ;
413 [label="mse = 59.347\nsamples = 25290\nvalue = 4.341", fillcolor="#fef9f5"] ;
412 -> 413 ;
414 [label="mse = 29.001\nsamples = 15047\nvalue = 3.383", fillcolor="#fefaf7"] ;
412 -> 414 ;
415 [label="X[6] <= 24580.5\nmse = 357.261\nsamples = 54\nvalue = 18.958", fillcolor="#f9e3d4"] ;
411 -> 415 ;
416 [label="mse = 0.0\nsamples = 20\nvalue = 41.968", fillcolor="#f2c29f"] ;
415 -> 416 ;
417 [label="mse = 7.181\nsamples = 34\nvalue = 3.619", fillcolor="#fefaf7"] ;
415 -> 417 ;
418 [label="X[2] <= 23737.5\nmse = 26.253\nsamples = 32688\nvalue = 3.13", fillcolor="#fefaf8"] ;
410 -> 418 ;
419 [label="X[2] <= 23731.0\nmse = 43.511\nsamples = 6046\nvalue = 4.055", fillcolor="#fef9f6"] ;
418 -> 419 ;
420 [label="mse = 40.324\nsamples = 5959\nvalue = 3.87", fillcolor="#fef9f6"] ;
419 -> 420 ;
421 [label="mse = 91.652\nsamples = 87\nvalue = 17.495", fillcolor="#fae6d7"] ;
419 -> 421 ;
422 [label="X[4] <= 22071.5\nmse = 22.099\nsamples = 26642\nvalue = 2.92", fillcolor="#fefbf8"] ;
418 -> 422 ;
423 [label="mse = 20.081\nsamples = 25963\nvalue = 2.84", fillcolor="#fefbf9"] ;
422 -> 423 ;
424 [label="mse = 90.849\nsamples = 679\nvalue = 6.059", fillcolor="#fdf6f1"] ;
422 -> 424 ;
425 [label="X[7] <= 23669.5\nmse = 7.129\nsamples = 33353\nvalue = 1.248", fillcolor="#fffdfc"] ;
381 -> 425 ;
426 [label="X[3] <= 23210.5\nmse = 11.01\nsamples = 18030\nvalue = 1.848", fillcolor="#fefcfb"] ;
425 -> 426 ;
427 [label="X[4] <= 20566.0\nmse = 2.05\nsamples = 3306\nvalue = 0.75", fillcolor="#fffefd"] ;
426 -> 427 ;
428 [label="X[2] <= 22989.5\nmse = 5.827\nsamples = 421\nvalue = 1.865", fillcolor="#fefcfb"] ;
427 -> 428 ;
429 [label="X[1] <= 25602.5\nmse = 1.091\nsamples = 292\nvalue = 0.642", fillcolor="#fffefe"] ;
428 -> 429 ;
430 [label="mse = 0.572\nsamples = 273\nvalue = 0.439", fillcolor="#fffefe"] ;
429 -> 430 ;
431 [label="mse = 0.823\nsamples = 19\nvalue = 3.106", fillcolor="#fefaf8"] ;
429 -> 431 ;
432 [label="X[1] <= 25199.0\nmse = 5.45\nsamples = 129\nvalue = 4.65", fillcolor="#fef8f4"] ;
428 -> 432 ;
433 [label="mse = 3.116\nsamples = 63\nvalue = 6.248", fillcolor="#fdf6f1"] ;
432 -> 433 ;
434 [label="mse = 2.78\nsamples = 66\nvalue = 3.083", fillcolor="#fefbf8"] ;
432 -> 434 ;
435 [label="X[1] <= 17264.0\nmse = 1.291\nsamples = 2885\nvalue = 0.587", fillcolor="#fffefe"] ;
427 -> 435 ;
436 [label="X[1] <= 17032.0\nmse = 13.035\nsamples = 128\nvalue = 2.084", fillcolor="#fefcfa"] ;
435 -> 436 ;
437 [label="mse = 1.086\nsamples = 102\nvalue = 0.409", fillcolor="#fffefe"] ;
436 -> 437 ;
438 [label="mse = 6.276\nsamples = 26\nvalue = 8.582", fillcolor="#fcf3eb"] ;
436 -> 438 ;
439 [label="X[1] <= 23383.0\nmse = 0.641\nsamples = 2757\nvalue = 0.518", fillcolor="#fffefe"] ;
435 -> 439 ;
440 [label="mse = 1.131\nsamples = 811\nvalue = 0.862", fillcolor="#fffefd"] ;
439 -> 440 ;
441 [label="mse = 0.369\nsamples = 1946\nvalue = 0.376", fillcolor="#fffefe"] ;
439 -> 441 ;
442 [label="X[2] <= 26488.0\nmse = 12.681\nsamples = 14724\nvalue = 2.093", fillcolor="#fefcfa"] ;
426 -> 442 ;
443 [label="X[0] <= 19679.5\nmse = 11.592\nsamples = 14703\nvalue = 2.074", fillcolor="#fefcfa"] ;
442 -> 443 ;
444 [label="X[0] <= 19338.5\nmse = 1.249\nsamples = 582\nvalue = 0.272", fillcolor="#fffffe"] ;
443 -> 444 ;
445 [label="mse = 0.045\nsamples = 454\nvalue = 0.068", fillcolor="#ffffff"] ;
444 -> 445 ;
446 [label="mse = 4.929\nsamples = 128\nvalue = 1.016", fillcolor="#fffefd"] ;
444 -> 446 ;
447 [label="X[1] <= 17697.5\nmse = 11.878\nsamples = 14121\nvalue = 2.148", fillcolor="#fefcfa"] ;
443 -> 447 ;
448 [label="mse = 0.0\nsamples = 17\nvalue = 14.799", fillcolor="#fbe9dd"] ;
447 -> 448 ;
449 [label="mse = 11.699\nsamples = 14104\nvalue = 2.133", fillcolor="#fefcfa"] ;
447 -> 449 ;
450 [label="X[0] <= 25394.5\nmse = 638.997\nsamples = 21\nvalue = 16.865", fillcolor="#fae6d8"] ;
442 -> 450 ;
451 [label="X[2] <= 26997.5\nmse = 6.516\nsamples = 15\nvalue = 2.974", fillcolor="#fefbf8"] ;
450 -> 451 ;
452 [label="mse = 3.464\nsamples = 9\nvalue = 1.468", fillcolor="#fffdfc"] ;
451 -> 452 ;
453 [label="mse = 0.0\nsamples = 6\nvalue = 5.8", fillcolor="#fdf7f2"] ;
451 -> 453 ;
454 [label="mse = 0.0\nsamples = 6\nvalue = 62.507", fillcolor="#eca470"] ;
450 -> 454 ;
455 [label="X[2] <= 24204.5\nmse = 1.669\nsamples = 15323\nvalue = 0.546", fillcolor="#fffefe"] ;
425 -> 455 ;
456 [label="X[0] <= 25709.0\nmse = 0.719\nsamples = 12705\nvalue = 0.367", fillcolor="#fffefe"] ;
455 -> 456 ;
457 [label="X[0] <= 22860.5\nmse = 0.567\nsamples = 11354\nvalue = 0.273", fillcolor="#fffffe"] ;
456 -> 457 ;
458 [label="X[1] <= 22938.0\nmse = 2.349\nsamples = 1163\nvalue = 0.981", fillcolor="#fffefd"] ;
457 -> 458 ;
459 [label="mse = 1.158\nsamples = 1104\nvalue = 0.774", fillcolor="#fffefd"] ;
458 -> 459 ;
460 [label="mse = 8.214\nsamples = 59\nvalue = 5.091", fillcolor="#fdf8f3"] ;
458 -> 460 ;
461 [label="X[5] <= 24107.5\nmse = 0.295\nsamples = 10191\nvalue = 0.191", fillcolor="#ffffff"] ;
457 -> 461 ;
462 [label="mse = 0.463\nsamples = 5530\nvalue = 0.323", fillcolor="#fffffe"] ;
461 -> 462 ;
463 [label="mse = 0.045\nsamples = 4661\nvalue = 0.03", fillcolor="#ffffff"] ;
461 -> 463 ;
464 [label="X[1] <= 25267.0\nmse = 1.286\nsamples = 1351\nvalue = 1.152", fillcolor="#fffdfc"] ;
456 -> 464 ;
465 [label="X[1] <= 25209.5\nmse = 1.107\nsamples = 543\nvalue = 2.082", fillcolor="#fefcfa"] ;
464 -> 465 ;
466 [label="mse = 0.446\nsamples = 309\nvalue = 1.376", fillcolor="#fffdfc"] ;
465 -> 466 ;
467 [label="mse = 0.447\nsamples = 234\nvalue = 3.017", fillcolor="#fefbf8"] ;
465 -> 467 ;
468 [label="X[1] <= 25480.5\nmse = 0.448\nsamples = 808\nvalue = 0.534", fillcolor="#fffefe"] ;
464 -> 468 ;
469 [label="mse = 0.065\nsamples = 427\nvalue = 0.161", fillcolor="#ffffff"] ;
468 -> 469 ;
470 [label="mse = 0.544\nsamples = 381\nvalue = 0.965", fillcolor="#fffefd"] ;
468 -> 470 ;
471 [label="X[2] <= 24208.5\nmse = 5.378\nsamples = 2618\nvalue = 1.413", fillcolor="#fffdfc"] ;
455 -> 471 ;
472 [label="X[3] <= 24106.5\nmse = 1.154\nsamples = 48\nvalue = 6.377", fillcolor="#fdf6f0"] ;
471 -> 472 ;
473 [label="X[7] <= 24241.5\nmse = 0.026\nsamples = 33\nvalue = 7.037", fillcolor="#fdf5ef"] ;
472 -> 473 ;
474 [label="mse = 0.0\nsamples = 15\nvalue = 6.855", fillcolor="#fdf5ef"] ;
473 -> 474 ;
475 [label="mse = -0.0\nsamples = 18\nvalue = 7.182", fillcolor="#fdf5ef"] ;
473 -> 475 ;
476 [label="mse = 0.0\nsamples = 15\nvalue = 4.659", fillcolor="#fef8f4"] ;
472 -> 476 ;
477 [label="X[1] <= 23780.5\nmse = 5.01\nsamples = 2570\nvalue = 1.325", fillcolor="#fffdfc"] ;
471 -> 477 ;
478 [label="X[5] <= 24115.0\nmse = 12.428\nsamples = 644\nvalue = 2.35", fillcolor="#fefcfa"] ;
477 -> 478 ;
479 [label="mse = 1.624\nsamples = 413\nvalue = 0.989", fillcolor="#fffefd"] ;
478 -> 479 ;
480 [label="mse = 22.47\nsamples = 231\nvalue = 4.76", fillcolor="#fef8f4"] ;
478 -> 480 ;
481 [label="X[2] <= 25853.5\nmse = 2.049\nsamples = 1926\nvalue = 0.981", fillcolor="#fffefd"] ;
477 -> 481 ;
482 [label="mse = 1.616\nsamples = 1914\nvalue = 0.925", fillcolor="#fffefd"] ;
481 -> 482 ;
483 [label="mse = 3.077\nsamples = 12\nvalue = 8.436", fillcolor="#fcf3ec"] ;
481 -> 483 ;
484 [label="X[3] <= 23404.5\nmse = 48.286\nsamples = 270224\nvalue = 4.179", fillcolor="#fef9f5"] ;
380 -> 484 ;
485 [label="X[4] <= 19931.5\nmse = 56.445\nsamples = 124207\nvalue = 4.602", fillcolor="#fef8f4"] ;
484 -> 485 ;
486 [label="X[6] <= 19663.5\nmse = 47.493\nsamples = 103441\nvalue = 4.266", fillcolor="#fef9f5"] ;
485 -> 486 ;
487 [label="X[2] <= 29225.0\nmse = 33.221\nsamples = 15912\nvalue = 3.084", fillcolor="#fefbf8"] ;
486 -> 487 ;
488 [label="X[6] <= 18546.5\nmse = 32.345\nsamples = 15880\nvalue = 3.046", fillcolor="#fefbf8"] ;
487 -> 488 ;
489 [label="X[1] <= 28775.0\nmse = 13.29\nsamples = 3136\nvalue = 1.982", fillcolor="#fefcfa"] ;
488 -> 489 ;
490 [label="mse = 10.672\nsamples = 3103\nvalue = 1.805", fillcolor="#fefcfb"] ;
489 -> 490 ;
491 [label="mse = 17.368\nsamples = 33\nvalue = 16.354", fillcolor="#fae7da"] ;
489 -> 491 ;
492 [label="X[6] <= 18554.5\nmse = 36.657\nsamples = 12744\nvalue = 3.307", fillcolor="#fefaf7"] ;
488 -> 492 ;
493 [label="mse = 53.206\nsamples = 50\nvalue = 14.295", fillcolor="#fbeade"] ;
492 -> 493 ;
494 [label="mse = 36.151\nsamples = 12694\nvalue = 3.266", fillcolor="#fefaf8"] ;
492 -> 494 ;
495 [label="X[0] <= 29265.0\nmse = 144.448\nsamples = 32\nvalue = 19.472", fillcolor="#f9e3d2"] ;
487 -> 495 ;
496 [label="mse = 0.0\nsamples = 24\nvalue = 26.891", fillcolor="#f7d8c2"] ;
495 -> 496 ;
497 [label="mse = 0.0\nsamples = 8\nvalue = 0.0", fillcolor="#ffffff"] ;
495 -> 497 ;
498 [label="X[3] <= 22505.5\nmse = 49.795\nsamples = 87529\nvalue = 4.482", fillcolor="#fef8f5"] ;
486 -> 498 ;
499 [label="X[5] <= 21168.0\nmse = 64.338\nsamples = 26280\nvalue = 5.183", fillcolor="#fdf7f3"] ;
498 -> 499 ;
500 [label="X[2] <= 21851.5\nmse = 166.724\nsamples = 993\nvalue = 9.748", fillcolor="#fcf1e9"] ;
499 -> 500 ;
501 [label="mse = 0.0\nsamples = 14\nvalue = 55.771", fillcolor="#eeae7f"] ;
500 -> 501 ;
502 [label="mse = 134.509\nsamples = 979\nvalue = 9.001", fillcolor="#fcf2ea"] ;
500 -> 502 ;
503 [label="X[7] <= 19040.5\nmse = 59.474\nsamples = 25287\nvalue = 5.004", fillcolor="#fdf8f4"] ;
499 -> 503 ;
504 [label="mse = 45.911\nsamples = 10953\nvalue = 4.211", fillcolor="#fef9f5"] ;
503 -> 504 ;
505 [label="mse = 68.995\nsamples = 14334\nvalue = 5.611", fillcolor="#fdf7f2"] ;
503 -> 505 ;
506 [label="X[2] <= 23806.5\nmse = 43.264\nsamples = 61249\nvalue = 4.181", fillcolor="#fef9f5"] ;
498 -> 506 ;
507 [label="X[2] <= 23800.0\nmse = 43.933\nsamples = 24974\nvalue = 4.631", fillcolor="#fef8f4"] ;
506 -> 507 ;
508 [label="mse = 39.818\nsamples = 24725\nvalue = 4.548", fillcolor="#fef8f5"] ;
507 -> 508 ;
509 [label="mse = 375.399\nsamples = 249\nvalue = 12.606", fillcolor="#fbede2"] ;
507 -> 509 ;
510 [label="X[0] <= 27220.0\nmse = 42.567\nsamples = 36275\nvalue = 3.871", fillcolor="#fef9f6"] ;
506 -> 510 ;
511 [label="mse = 26.54\nsamples = 18324\nvalue = 3.224", fillcolor="#fefaf8"] ;
510 -> 511 ;
512 [label="mse = 58.144\nsamples = 17951\nvalue = 4.535", fillcolor="#fef8f5"] ;
510 -> 512 ;
513 [label="X[1] <= 26850.5\nmse = 97.449\nsamples = 20766\nvalue = 6.269", fillcolor="#fdf6f1"] ;
485 -> 513 ;
514 [label="X[2] <= 20266.0\nmse = 59.026\nsamples = 11414\nvalue = 4.483", fillcolor="#fef8f5"] ;
513 -> 514 ;
515 [label="X[5] <= 22211.5\nmse = 32.994\nsamples = 21\nvalue = 31.982", fillcolor="#f5d0b6"] ;
514 -> 515 ;
516 [label="mse = 0.0\nsamples = 20\nvalue = 33.013", fillcolor="#f5cfb4"] ;
515 -> 516 ;
517 [label="mse = 0.0\nsamples = 1\nvalue = 0.0", fillcolor="#ffffff"] ;
515 -> 517 ;
518 [label="X[7] <= 22375.5\nmse = 57.733\nsamples = 11393\nvalue = 4.434", fillcolor="#fef9f5"] ;
514 -> 518 ;
519 [label="X[4] <= 20853.0\nmse = 68.172\nsamples = 9131\nvalue = 4.869", fillcolor="#fef8f4"] ;
518 -> 519 ;
520 [label="mse = 50.744\nsamples = 7480\nvalue = 4.263", fillcolor="#fef9f5"] ;
519 -> 520 ;
521 [label="mse = 138.107\nsamples = 1651\nvalue = 7.623", fillcolor="#fdf4ee"] ;
519 -> 521 ;
522 [label="X[2] <= 22353.0\nmse = 11.933\nsamples = 2262\nvalue = 2.687", fillcolor="#fefbf9"] ;
518 -> 522 ;
523 [label="mse = 31.121\nsamples = 103\nvalue = 8.886", fillcolor="#fcf2eb"] ;
522 -> 523 ;
524 [label="mse = 9.154\nsamples = 2159\nvalue = 2.397", fillcolor="#fefcfa"] ;
522 -> 524 ;
525 [label="X[7] <= 20744.5\nmse = 135.589\nsamples = 9352\nvalue = 8.44", fillcolor="#fcf3ec"] ;
513 -> 525 ;
526 [label="X[1] <= 26867.0\nmse = 76.543\nsamples = 3379\nvalue = 5.361", fillcolor="#fdf7f3"] ;
525 -> 526 ;
527 [label="X[4] <= 19954.0\nmse = 298.09\nsamples = 85\nvalue = 18.769", fillcolor="#f9e4d4"] ;
526 -> 527 ;
528 [label="mse = 0.0\nsamples = 23\nvalue = 46.291", fillcolor="#f1bc95"] ;
527 -> 528 ;
529 [label="mse = 34.195\nsamples = 62\nvalue = 8.851", fillcolor="#fcf2eb"] ;
527 -> 529 ;
530 [label="X[3] <= 22413.0\nmse = 65.064\nsamples = 3294\nvalue = 4.982", fillcolor="#fef8f4"] ;
526 -> 530 ;
531 [label="mse = 151.545\nsamples = 297\nvalue = 11.188", fillcolor="#fcefe5"] ;
530 -> 531 ;
532 [label="mse = 52.028\nsamples = 2997\nvalue = 4.354", fillcolor="#fef9f5"] ;
530 -> 532 ;
533 [label="X[3] <= 22981.0\nmse = 161.313\nsamples = 5973\nvalue = 10.24", fillcolor="#fcf0e8"] ;
525 -> 533 ;
534 [label="X[3] <= 22157.5\nmse = 265.386\nsamples = 1660\nvalue = 15.575", fillcolor="#fae8db"] ;
533 -> 534 ;
535 [label="mse = 233.637\nsamples = 116\nvalue = 33.389", fillcolor="#f5ceb3"] ;
534 -> 535 ;
536 [label="mse = 242.581\nsamples = 1544\nvalue = 14.26", fillcolor="#fbeade"] ;
534 -> 536 ;
537 [label="X[7] <= 20753.0\nmse = 105.934\nsamples = 4313\nvalue = 8.182", fillcolor="#fdf3ec"] ;
533 -> 537 ;
538 [label="mse = 765.432\nsamples = 52\nvalue = 31.031", fillcolor="#f6d2b8"] ;
537 -> 538 ;
539 [label="mse = 89.96\nsamples = 4261\nvalue = 7.875", fillcolor="#fdf4ed"] ;
537 -> 539 ;
540 [label="X[7] <= 20577.5\nmse = 41.078\nsamples = 146017\nvalue = 3.819", fillcolor="#fef9f6"] ;
484 -> 540 ;
541 [label="X[2] <= 24720.0\nmse = 33.264\nsamples = 41784\nvalue = 2.894", fillcolor="#fefbf8"] ;
540 -> 541 ;
542 [label="X[2] <= 24678.0\nmse = 48.441\nsamples = 20237\nvalue = 3.541", fillcolor="#fefaf7"] ;
541 -> 542 ;
543 [label="X[6] <= 19406.5\nmse = 47.114\nsamples = 19499\nvalue = 3.431", fillcolor="#fefaf7"] ;
542 -> 543 ;
544 [label="X[2] <= 20306.0\nmse = 13.259\nsamples = 1519\nvalue = 1.603", fillcolor="#fffdfb"] ;
543 -> 544 ;
545 [label="mse = 13.191\nsamples = 21\nvalue = 10.896", fillcolor="#fcefe6"] ;
544 -> 545 ;
546 [label="mse = 12.162\nsamples = 1498\nvalue = 1.487", fillcolor="#fffdfc"] ;
544 -> 546 ;
547 [label="X[2] <= 23254.5\nmse = 49.676\nsamples = 17980\nvalue = 3.586", fillcolor="#fefaf7"] ;
543 -> 547 ;
548 [label="mse = 98.109\nsamples = 4368\nvalue = 4.472", fillcolor="#fef8f5"] ;
547 -> 548 ;
549 [label="mse = 33.903\nsamples = 13612\nvalue = 3.304", fillcolor="#fefaf7"] ;
547 -> 549 ;
550 [label="X[2] <= 24693.5\nmse = 74.407\nsamples = 738\nvalue = 6.38", fillcolor="#fdf6f0"] ;
542 -> 550 ;
551 [label="X[7] <= 19731.0\nmse = 101.95\nsamples = 304\nvalue = 10.004", fillcolor="#fcf0e8"] ;
550 -> 551 ;
552 [label="mse = 31.572\nsamples = 45\nvalue = 26.849", fillcolor="#f7d8c2"] ;
551 -> 552 ;
553 [label="mse = 57.781\nsamples = 259\nvalue = 7.157", fillcolor="#fdf5ef"] ;
551 -> 553 ;
554 [label="X[5] <= 21380.5\nmse = 38.756\nsamples = 434\nvalue = 3.797", fillcolor="#fef9f6"] ;
550 -> 554 ;
555 [label="mse = 149.97\nsamples = 76\nvalue = 10.651", fillcolor="#fcefe7"] ;
554 -> 555 ;
556 [label="mse = 5.784\nsamples = 358\nvalue = 2.448", fillcolor="#fefbf9"] ;
554 -> 556 ;
557 [label="X[3] <= 23942.5\nmse = 18.241\nsamples = 21547\nvalue = 2.286", fillcolor="#fefcfa"] ;
541 -> 557 ;
558 [label="X[3] <= 23938.5\nmse = 22.962\nsamples = 13315\nvalue = 2.641", fillcolor="#fefbf9"] ;
557 -> 558 ;
559 [label="X[6] <= 21457.5\nmse = 21.195\nsamples = 13178\nvalue = 2.581", fillcolor="#fefbf9"] ;
558 -> 559 ;
560 [label="mse = 19.901\nsamples = 7764\nvalue = 2.096", fillcolor="#fefcfa"] ;
559 -> 560 ;
561 [label="mse = 22.233\nsamples = 5414\nvalue = 3.281", fillcolor="#fefaf7"] ;
559 -> 561 ;
562 [label="X[1] <= 27889.5\nmse = 158.97\nsamples = 137\nvalue = 8.311", fillcolor="#fdf3ec"] ;
558 -> 562 ;
563 [label="mse = 6.253\nsamples = 111\nvalue = 2.374", fillcolor="#fefcfa"] ;
562 -> 563 ;
564 [label="mse = -0.0\nsamples = 26\nvalue = 34.23", fillcolor="#f5cdb1"] ;
562 -> 564 ;
565 [label="X[6] <= 22823.0\nmse = 10.027\nsamples = 8232\nvalue = 1.708", fillcolor="#fefdfb"] ;
557 -> 565 ;
566 [label="X[5] <= 19454.0\nmse = 9.738\nsamples = 8154\nvalue = 1.645", fillcolor="#fffdfb"] ;
565 -> 566 ;
567 [label="mse = 4.46\nsamples = 23\nvalue = 10.27", fillcolor="#fcf0e8"] ;
566 -> 567 ;
568 [label="mse = 9.55\nsamples = 8131\nvalue = 1.621", fillcolor="#fffdfb"] ;
566 -> 568 ;
569 [label="X[6] <= 22836.5\nmse = 0.937\nsamples = 78\nvalue = 7.716", fillcolor="#fdf4ed"] ;
565 -> 569 ;
570 [label="mse = 0.0\nsamples = 11\nvalue = 10.151", fillcolor="#fcf0e8"] ;
569 -> 570 ;
571 [label="mse = 0.227\nsamples = 67\nvalue = 7.414", fillcolor="#fdf4ee"] ;
569 -> 571 ;
572 [label="X[0] <= 26959.5\nmse = 43.735\nsamples = 104233\nvalue = 4.191", fillcolor="#fef9f5"] ;
540 -> 572 ;
573 [label="X[2] <= 23928.0\nmse = 26.9\nsamples = 50870\nvalue = 3.529", fillcolor="#fefaf7"] ;
572 -> 573 ;
574 [label="X[0] <= 25907.0\nmse = 37.031\nsamples = 11043\nvalue = 4.634", fillcolor="#fef8f4"] ;
573 -> 574 ;
575 [label="X[7] <= 21559.0\nmse = 194.827\nsamples = 233\nvalue = 12.223", fillcolor="#fbede3"] ;
574 -> 575 ;
576 [label="mse = 73.95\nsamples = 45\nvalue = 38.629", fillcolor="#f3c7a7"] ;
575 -> 576 ;
577 [label="mse = 49.945\nsamples = 188\nvalue = 6.889", fillcolor="#fdf5ef"] ;
575 -> 577 ;
578 [label="X[2] <= 23904.5\nmse = 32.48\nsamples = 10810\nvalue = 4.474", fillcolor="#fef8f5"] ;
574 -> 578 ;
579 [label="mse = 31.299\nsamples = 10501\nvalue = 4.334", fillcolor="#fef9f5"] ;
578 -> 579 ;
580 [label="mse = 49.297\nsamples = 309\nvalue = 9.223", fillcolor="#fcf2ea"] ;
578 -> 580 ;
581 [label="X[1] <= 25787.5\nmse = 23.633\nsamples = 39827\nvalue = 3.221", fillcolor="#fefaf8"] ;
573 -> 581 ;
582 [label="X[1] <= 25784.0\nmse = 28.258\nsamples = 4663\nvalue = 4.504", fillcolor="#fef8f5"] ;
581 -> 582 ;
583 [label="mse = 24.835\nsamples = 4615\nvalue = 4.324", fillcolor="#fef9f5"] ;
582 -> 583 ;
584 [label="mse = 78.43\nsamples = 48\nvalue = 20.221", fillcolor="#f9e2d1"] ;
582 -> 584 ;
585 [label="X[5] <= 22294.5\nmse = 22.765\nsamples = 35164\nvalue = 3.049", fillcolor="#fefbf8"] ;
581 -> 585 ;
586 [label="mse = 241.823\nsamples = 237\nvalue = 10.924", fillcolor="#fcefe6"] ;
585 -> 586 ;
587 [label="mse = 20.825\nsamples = 34927\nvalue = 2.995", fillcolor="#fefbf8"] ;
585 -> 587 ;
588 [label="X[4] <= 21528.0\nmse = 59.013\nsamples = 53363\nvalue = 4.823", fillcolor="#fef8f4"] ;
572 -> 588 ;
589 [label="X[3] <= 24294.5\nmse = 49.25\nsamples = 43607\nvalue = 4.402", fillcolor="#fef9f5"] ;
588 -> 589 ;
590 [label="X[2] <= 24722.0\nmse = 46.918\nsamples = 43490\nvalue = 4.374", fillcolor="#fef9f5"] ;
589 -> 590 ;
591 [label="mse = 68.302\nsamples = 14132\nvalue = 5.166", fillcolor="#fdf7f3"] ;
590 -> 591 ;
592 [label="mse = 36.194\nsamples = 29358\nvalue = 3.994", fillcolor="#fef9f6"] ;
590 -> 592 ;
593 [label="X[7] <= 22341.0\nmse = 788.17\nsamples = 117\nvalue = 14.479", fillcolor="#fbeade"] ;
589 -> 593 ;
594 [label="mse = 1.303\nsamples = 94\nvalue = 1.453", fillcolor="#fffdfc"] ;
593 -> 594 ;
595 [label="mse = 902.372\nsamples = 23\nvalue = 59.313", fillcolor="#eda977"] ;
593 -> 595 ;
596 [label="X[0] <= 27412.0\nmse = 98.457\nsamples = 9756\nvalue = 6.71", fillcolor="#fdf5f0"] ;
588 -> 596 ;
597 [label="X[3] <= 24277.5\nmse = 79.68\nsamples = 3300\nvalue = 5.158", fillcolor="#fdf7f3"] ;
596 -> 597 ;
598 [label="mse = 58.489\nsamples = 3140\nvalue = 4.702", fillcolor="#fef8f4"] ;
597 -> 598 ;
599 [label="mse = 408.843\nsamples = 160\nvalue = 14.012", fillcolor="#fbebdf"] ;
597 -> 599 ;
600 [label="X[1] <= 26829.5\nmse = 106.32\nsamples = 6456\nvalue = 7.517", fillcolor="#fdf4ee"] ;
596 -> 600 ;
601 [label="mse = 1175.141\nsamples = 46\nvalue = 51.452", fillcolor="#f0b489"] ;
600 -> 601 ;
602 [label="mse = 85.657\nsamples = 6410\nvalue = 7.216", fillcolor="#fdf4ee"] ;
600 -> 602 ;
603 [label="X[3] <= 25180.5\nmse = 21.283\nsamples = 389897\nvalue = 2.407", fillcolor="#fefbf9"] ;
379 -> 603 ;
604 [label="X[0] <= 26646.5\nmse = 22.917\nsamples = 305630\nvalue = 2.616", fillcolor="#fefbf9"] ;
603 -> 604 ;
605 [label="X[2] <= 24978.5\nmse = 17.078\nsamples = 158701\nvalue = 2.294", fillcolor="#fefcfa"] ;
604 -> 605 ;
606 [label="X[1] <= 22300.0\nmse = 19.884\nsamples = 73996\nvalue = 2.581", fillcolor="#fefbf9"] ;
605 -> 606 ;
607 [label="X[3] <= 25158.5\nmse = 15.381\nsamples = 12996\nvalue = 1.779", fillcolor="#fefcfb"] ;
606 -> 607 ;
608 [label="X[2] <= 24976.0\nmse = 13.524\nsamples = 12947\nvalue = 1.743", fillcolor="#fefcfb"] ;
607 -> 608 ;
609 [label="X[5] <= 23448.5\nmse = 13.236\nsamples = 12879\nvalue = 1.703", fillcolor="#fefdfb"] ;
608 -> 609 ;
610 [label="mse = 5.977\nsamples = 4478\nvalue = 1.058", fillcolor="#fffdfd"] ;
609 -> 610 ;
611 [label="mse = 16.733\nsamples = 8401\nvalue = 2.043", fillcolor="#fefcfa"] ;
609 -> 611 ;
612 [label="X[4] <= 21351.5\nmse = 10.658\nsamples = 68\nvalue = 9.192", fillcolor="#fcf2ea"] ;
608 -> 612 ;
613 [label="mse = 0.0\nsamples = 24\nvalue = 13.685", fillcolor="#fbebe0"] ;
612 -> 613 ;
614 [label="mse = 0.002\nsamples = 44\nvalue = 6.82", fillcolor="#fdf5ef"] ;
612 -> 614 ;
615 [label="X[3] <= 25164.0\nmse = 386.54\nsamples = 49\nvalue = 10.262", fillcolor="#fcf0e8"] ;
607 -> 615 ;
616 [label="mse = 0.0\nsamples = 8\nvalue = 52.654", fillcolor="#efb287"] ;
615 -> 616 ;
617 [label="X[2] <= 24047.0\nmse = 1.754\nsamples = 41\nvalue = 1.178", fillcolor="#fffdfc"] ;
615 -> 617 ;
618 [label="mse = 0.0\nsamples = 20\nvalue = 0.0", fillcolor="#ffffff"] ;
617 -> 618 ;
619 [label="mse = 0.586\nsamples = 21\nvalue = 2.425", fillcolor="#fefbf9"] ;
617 -> 619 ;
620 [label="X[7] <= 23308.5\nmse = 20.671\nsamples = 61000\nvalue = 2.75", fillcolor="#fefbf9"] ;
606 -> 620 ;
621 [label="X[4] <= 22612.0\nmse = 26.199\nsamples = 42702\nvalue = 2.956", fillcolor="#fefbf8"] ;
620 -> 621 ;
622 [label="X[0] <= 26192.5\nmse = 25.865\nsamples = 42687\nvalue = 2.945", fillcolor="#fefbf8"] ;
621 -> 622 ;
623 [label="mse = 20.96\nsamples = 30978\nvalue = 2.689", fillcolor="#fefbf9"] ;
622 -> 623 ;
624 [label="mse = 38.242\nsamples = 11709\nvalue = 3.625", fillcolor="#fefaf7"] ;
622 -> 624 ;
625 [label="mse = 0.0\nsamples = 15\nvalue = 34.662", fillcolor="#f5cdb0"] ;
621 -> 625 ;
626 [label="X[6] <= 24555.5\nmse = 7.547\nsamples = 18298\nvalue = 2.274", fillcolor="#fefcfa"] ;
620 -> 626 ;
627 [label="X[1] <= 25966.0\nmse = 4.478\nsamples = 9591\nvalue = 1.779", fillcolor="#fefcfb"] ;
626 -> 627 ;
628 [label="mse = 5.347\nsamples = 5992\nvalue = 2.032", fillcolor="#fefcfa"] ;
627 -> 628 ;
629 [label="mse = 2.733\nsamples = 3599\nvalue = 1.355", fillcolor="#fffdfc"] ;
627 -> 629 ;
630 [label="X[2] <= 24598.5\nmse = 10.332\nsamples = 8707\nvalue = 2.813", fillcolor="#fefbf9"] ;
626 -> 630 ;
631 [label="mse = 4.902\nsamples = 2984\nvalue = 2.004", fillcolor="#fefcfa"] ;
630 -> 631 ;
632 [label="mse = 12.652\nsamples = 5723\nvalue = 3.236", fillcolor="#fefaf8"] ;
630 -> 632 ;
633 [label="X[1] <= 18032.5\nmse = 14.503\nsamples = 84705\nvalue = 2.045", fillcolor="#fefcfa"] ;
605 -> 633 ;
634 [label="X[0] <= 21204.0\nmse = 89.195\nsamples = 143\nvalue = 8.456", fillcolor="#fcf3ec"] ;
633 -> 634 ;
635 [label="X[1] <= 17681.0\nmse = 13.992\nsamples = 99\nvalue = 4.364", fillcolor="#fef9f5"] ;
634 -> 635 ;
636 [label="X[3] <= 24468.5\nmse = 9.123\nsamples = 46\nvalue = 7.445", fillcolor="#fdf4ee"] ;
635 -> 636 ;
637 [label="mse = 0.0\nsamples = 6\nvalue = 0.0", fillcolor="#ffffff"] ;
636 -> 637 ;
638 [label="mse = 0.182\nsamples = 40\nvalue = 8.649", fillcolor="#fcf2eb"] ;
636 -> 638 ;
639 [label="X[0] <= 20575.0\nmse = 0.99\nsamples = 53\nvalue = 1.431", fillcolor="#fffdfc"] ;
635 -> 639 ;
640 [label="mse = 0.0\nsamples = 15\nvalue = 0.0", fillcolor="#ffffff"] ;
639 -> 640 ;
641 [label="mse = 0.08\nsamples = 38\nvalue = 2.084", fillcolor="#fefcfa"] ;
639 -> 641 ;
642 [label="X[6] <= 23307.0\nmse = 138.366\nsamples = 44\nvalue = 16.955", fillcolor="#fae6d8"] ;
634 -> 642 ;
643 [label="mse = 0.0\nsamples = 13\nvalue = 4.811", fillcolor="#fef8f4"] ;
642 -> 643 ;
644 [label="X[7] <= 22494.5\nmse = 92.21\nsamples = 31\nvalue = 23.385", fillcolor="#f8ddca"] ;
642 -> 644 ;
645 [label="mse = 0.0\nsamples = 17\nvalue = 33.177", fillcolor="#f5cfb3"] ;
644 -> 645 ;
646 [label="mse = -0.0\nsamples = 14\nvalue = 13.968", fillcolor="#fbebdf"] ;
644 -> 646 ;
647 [label="X[1] <= 26056.5\nmse = 14.296\nsamples = 84562\nvalue = 2.033", fillcolor="#fefcfa"] ;
633 -> 647 ;
648 [label="X[0] <= 26070.5\nmse = 16.631\nsamples = 65611\nvalue = 2.157", fillcolor="#fefcfa"] ;
647 -> 648 ;
649 [label="X[7] <= 21913.5\nmse = 12.985\nsamples = 57971\nvalue = 1.987", fillcolor="#fefcfa"] ;
648 -> 649 ;
650 [label="mse = 7.152\nsamples = 11600\nvalue = 1.36", fillcolor="#fffdfc"] ;
649 -> 650 ;
651 [label="mse = 14.305\nsamples = 46371\nvalue = 2.142", fillcolor="#fefcfa"] ;
649 -> 651 ;
652 [label="X[0] <= 26071.5\nmse = 42.248\nsamples = 7640\nvalue = 3.436", fillcolor="#fefaf7"] ;
648 -> 652 ;
653 [label="mse = 618.307\nsamples = 79\nvalue = 20.287", fillcolor="#f9e1d1"] ;
652 -> 653 ;
654 [label="mse = 33.514\nsamples = 7561\nvalue = 3.265", fillcolor="#fefaf8"] ;
652 -> 654 ;
655 [label="X[5] <= 24391.5\nmse = 6.0\nsamples = 18951\nvalue = 1.605", fillcolor="#fffdfb"] ;
647 -> 655 ;
656 [label="X[4] <= 20037.5\nmse = 5.815\nsamples = 18786\nvalue = 1.571", fillcolor="#fffdfb"] ;
655 -> 656 ;
657 [label="mse = 7.89\nsamples = 108\nvalue = 5.751", fillcolor="#fdf7f2"] ;
656 -> 657 ;
658 [label="mse = 5.703\nsamples = 18678\nvalue = 1.547", fillcolor="#fffdfb"] ;
656 -> 658 ;
659 [label="X[5] <= 24562.0\nmse = 12.105\nsamples = 165\nvalue = 5.322", fillcolor="#fdf7f3"] ;
655 -> 659 ;
660 [label="mse = 5.834\nsamples = 127\nvalue = 6.838", fillcolor="#fdf5ef"] ;
659 -> 660 ;
661 [label="mse = 0.02\nsamples = 38\nvalue = 0.298", fillcolor="#fffffe"] ;
659 -> 661 ;
662 [label="X[7] <= 21840.5\nmse = 28.992\nsamples = 146929\nvalue = 2.965", fillcolor="#fefbf8"] ;
604 -> 662 ;
663 [label="X[2] <= 24721.5\nmse = 25.766\nsamples = 53230\nvalue = 2.304", fillcolor="#fefcfa"] ;
662 -> 663 ;
664 [label="X[3] <= 24831.5\nmse = 49.462\nsamples = 14583\nvalue = 3.325", fillcolor="#fefaf7"] ;
663 -> 664 ;
665 [label="X[2] <= 24711.0\nmse = 59.17\nsamples = 10922\nvalue = 3.738", fillcolor="#fefaf6"] ;
664 -> 665 ;
666 [label="X[3] <= 24625.5\nmse = 55.439\nsamples = 10713\nvalue = 3.607", fillcolor="#fefaf7"] ;
665 -> 666 ;
667 [label="mse = 34.189\nsamples = 7502\nvalue = 3.095", fillcolor="#fefaf8"] ;
666 -> 667 ;
668 [label="mse = 102.783\nsamples = 3211\nvalue = 4.799", fillcolor="#fef8f4"] ;
666 -> 668 ;
669 [label="X[3] <= 24425.5\nmse = 202.887\nsamples = 209\nvalue = 10.273", fillcolor="#fcf0e8"] ;
665 -> 669 ;
670 [label="mse = 264.038\nsamples = 108\nvalue = 17.713", fillcolor="#fae5d6"] ;
669 -> 670 ;
671 [label="mse = 3.265\nsamples = 101\nvalue = 1.949", fillcolor="#fefcfb"] ;
669 -> 671 ;
672 [label="X[0] <= 28238.5\nmse = 18.168\nsamples = 3661\nvalue = 2.083", fillcolor="#fefcfa"] ;
664 -> 672 ;
673 [label="X[2] <= 23195.5\nmse = 16.285\nsamples = 3622\nvalue = 1.981", fillcolor="#fefcfa"] ;
672 -> 673 ;
674 [label="mse = 34.468\nsamples = 752\nvalue = 3.463", fillcolor="#fefaf7"] ;
673 -> 674 ;
675 [label="mse = 10.801\nsamples = 2870\nvalue = 1.593", fillcolor="#fffdfb"] ;
673 -> 675 ;
676 [label="X[4] <= 21277.5\nmse = 100.682\nsamples = 39\nvalue = 12.163", fillcolor="#fbede3"] ;
672 -> 676 ;
677 [label="mse = 0.47\nsamples = 19\nvalue = 0.647", fillcolor="#fffefe"] ;
676 -> 677 ;
678 [label="mse = 0.0\nsamples = 20\nvalue = 20.888", fillcolor="#f9e1cf"] ;
676 -> 678 ;
679 [label="X[7] <= 20805.5\nmse = 16.253\nsamples = 38647\nvalue = 1.918", fillcolor="#fefcfb"] ;
663 -> 679 ;
680 [label="X[2] <= 27850.0\nmse = 13.739\nsamples = 15586\nvalue = 1.459", fillcolor="#fffdfc"] ;
679 -> 680 ;
681 [label="X[2] <= 27837.0\nmse = 14.499\nsamples = 14643\nvalue = 1.532", fillcolor="#fffdfb"] ;
680 -> 681 ;
682 [label="mse = 14.318\nsamples = 14634\nvalue = 1.521", fillcolor="#fffdfc"] ;
681 -> 682 ;
683 [label="mse = 0.0\nsamples = 9\nvalue = 19.27", fillcolor="#f9e3d3"] ;
681 -> 683 ;
684 [label="X[7] <= 20397.0\nmse = 0.545\nsamples = 943\nvalue = 0.327", fillcolor="#fffffe"] ;
680 -> 684 ;
685 [label="mse = 0.134\nsamples = 558\nvalue = 0.133", fillcolor="#ffffff"] ;
684 -> 685 ;
686 [label="mse = 1.003\nsamples = 385\nvalue = 0.608", fillcolor="#fffefe"] ;
684 -> 686 ;
687 [label="X[1] <= 26249.0\nmse = 17.722\nsamples = 23061\nvalue = 2.229", fillcolor="#fefcfa"] ;
679 -> 687 ;
688 [label="X[1] <= 26237.0\nmse = 99.975\nsamples = 410\nvalue = 6.076", fillcolor="#fdf6f1"] ;
687 -> 688 ;
689 [label="mse = 32.157\nsamples = 400\nvalue = 5.036", fillcolor="#fdf8f3"] ;
688 -> 689 ;
690 [label="mse = 1111.023\nsamples = 10\nvalue = 42.319", fillcolor="#f2c19e"] ;
688 -> 690 ;
691 [label="X[3] <= 24652.5\nmse = 15.964\nsamples = 22651\nvalue = 2.16", fillcolor="#fefcfa"] ;
687 -> 691 ;
692 [label="mse = 18.996\nsamples = 9935\nvalue = 2.578", fillcolor="#fefbf9"] ;
691 -> 692 ;
693 [label="mse = 13.341\nsamples = 12716\nvalue = 1.832", fillcolor="#fefcfb"] ;
691 -> 693 ;
694 [label="X[1] <= 26131.0\nmse = 30.437\nsamples = 93699\nvalue = 3.34", fillcolor="#fefaf7"] ;
662 -> 694 ;
695 [label="X[1] <= 25951.5\nmse = 84.588\nsamples = 373\nvalue = 10.359", fillcolor="#fcf0e7"] ;
694 -> 695 ;
696 [label="X[6] <= 23029.0\nmse = 5.828\nsamples = 97\nvalue = 3.358", fillcolor="#fefaf7"] ;
695 -> 696 ;
697 [label="mse = 0.0\nsamples = 7\nvalue = 8.186", fillcolor="#fdf3ec"] ;
696 -> 697 ;
698 [label="X[0] <= 26677.5\nmse = 3.223\nsamples = 90\nvalue = 2.743", fillcolor="#fefbf9"] ;
696 -> 698 ;
699 [label="mse = 2.176\nsamples = 60\nvalue = 3.579", fillcolor="#fefaf7"] ;
698 -> 699 ;
700 [label="mse = 1.683\nsamples = 30\nvalue = 1.276", fillcolor="#fffdfc"] ;
698 -> 700 ;
701 [label="X[1] <= 25966.5\nmse = 88.334\nsamples = 276\nvalue = 13.359", fillcolor="#fbece0"] ;
695 -> 701 ;
702 [label="mse = 0.0\nsamples = 22\nvalue = 32.98", fillcolor="#f5cfb4"] ;
701 -> 702 ;
703 [label="X[1] <= 26078.5\nmse = 50.963\nsamples = 254\nvalue = 11.196", fillcolor="#fcefe5"] ;
701 -> 703 ;
704 [label="mse = 3.16\nsamples = 57\nvalue = 1.638", fillcolor="#fffdfb"] ;
703 -> 704 ;
705 [label="mse = 29.6\nsamples = 197\nvalue = 14.071", fillcolor="#fbebdf"] ;
703 -> 705 ;
706 [label="X[2] <= 24504.5\nmse = 30.022\nsamples = 93326\nvalue = 3.312", fillcolor="#fefaf7"] ;
694 -> 706 ;
707 [label="X[4] <= 22571.5\nmse = 61.378\nsamples = 9751\nvalue = 4.584", fillcolor="#fef8f5"] ;
706 -> 707 ;
708 [label="X[2] <= 24468.5\nmse = 48.037\nsamples = 9477\nvalue = 4.275", fillcolor="#fef9f5"] ;
707 -> 708 ;
709 [label="mse = 47.572\nsamples = 8848\nvalue = 4.039", fillcolor="#fef9f6"] ;
708 -> 709 ;
710 [label="mse = 42.478\nsamples = 629\nvalue = 7.656", fillcolor="#fdf4ed"] ;
708 -> 710 ;
711 [label="X[3] <= 25052.0\nmse = 409.958\nsamples = 274\nvalue = 15.476", fillcolor="#fae8dc"] ;
707 -> 711 ;
712 [label="mse = 83.946\nsamples = 239\nvalue = 8.733", fillcolor="#fcf2eb"] ;
711 -> 712 ;
713 [label="mse = 386.294\nsamples = 35\nvalue = 57.645", fillcolor="#eeab7b"] ;
711 -> 713 ;
714 [label="X[3] <= 24712.5\nmse = 26.123\nsamples = 83575\nvalue = 3.163", fillcolor="#fefaf8"] ;
706 -> 714 ;
715 [label="X[0] <= 27328.5\nmse = 34.292\nsamples = 33372\nvalue = 3.743", fillcolor="#fefaf6"] ;
714 -> 715 ;
716 [label="mse = 20.747\nsamples = 17200\nvalue = 3.002", fillcolor="#fefbf8"] ;
715 -> 716 ;
717 [label="mse = 47.45\nsamples = 16172\nvalue = 4.529", fillcolor="#fef8f5"] ;
715 -> 717 ;
718 [label="X[4] <= 22153.5\nmse = 20.315\nsamples = 50203\nvalue = 2.776", fillcolor="#fefbf9"] ;
714 -> 718 ;
719 [label="mse = 11.874\nsamples = 27416\nvalue = 2.3", fillcolor="#fefcfa"] ;
718 -> 719 ;
720 [label="mse = 29.886\nsamples = 22787\nvalue = 3.35", fillcolor="#fefaf7"] ;
718 -> 720 ;
721 [label="X[2] <= 25834.5\nmse = 14.618\nsamples = 84267\nvalue = 1.648", fillcolor="#fffdfb"] ;
603 -> 721 ;
722 [label="X[4] <= 22612.5\nmse = 19.583\nsamples = 41112\nvalue = 2.062", fillcolor="#fefcfa"] ;
721 -> 722 ;
723 [label="X[5] <= 23411.0\nmse = 17.831\nsamples = 40939\nvalue = 2.03", fillcolor="#fefcfa"] ;
722 -> 723 ;
724 [label="X[3] <= 25447.5\nmse = 15.908\nsamples = 15231\nvalue = 1.491", fillcolor="#fffdfc"] ;
723 -> 724 ;
725 [label="X[1] <= 28133.0\nmse = 16.985\nsamples = 7184\nvalue = 1.841", fillcolor="#fefcfb"] ;
724 -> 725 ;
726 [label="X[3] <= 25424.5\nmse = 16.225\nsamples = 7120\nvalue = 1.765", fillcolor="#fefcfb"] ;
725 -> 726 ;
727 [label="mse = 13.198\nsamples = 6741\nvalue = 1.621", fillcolor="#fffdfb"] ;
726 -> 727 ;
728 [label="mse = 65.0\nsamples = 379\nvalue = 4.445", fillcolor="#fef9f5"] ;
726 -> 728 ;
729 [label="X[2] <= 24845.0\nmse = 27.303\nsamples = 64\nvalue = 10.465", fillcolor="#fcf0e7"] ;
725 -> 729 ;
730 [label="mse = 2.795\nsamples = 42\nvalue = 14.004", fillcolor="#fbebdf"] ;
729 -> 730 ;
731 [label="mse = -0.0\nsamples = 22\nvalue = 3.28", fillcolor="#fefaf7"] ;
729 -> 731 ;
732 [label="X[2] <= 25705.5\nmse = 14.742\nsamples = 8047\nvalue = 1.179", fillcolor="#fffdfc"] ;
724 -> 732 ;
733 [label="X[7] <= 21896.5\nmse = 12.926\nsamples = 7356\nvalue = 1.032", fillcolor="#fffdfd"] ;
732 -> 733 ;
734 [label="mse = 10.396\nsamples = 6952\nvalue = 0.945", fillcolor="#fffefd"] ;
733 -> 734 ;
735 [label="mse = 54.272\nsamples = 404\nvalue = 2.527", fillcolor="#fefbf9"] ;
733 -> 735 ;
736 [label="X[2] <= 25707.0\nmse = 30.92\nsamples = 691\nvalue = 2.698", fillcolor="#fefbf9"] ;
732 -> 736 ;
737 [label="mse = 4.186\nsamples = 23\nvalue = 25.808", fillcolor="#f7d9c4"] ;
736 -> 737 ;
738 [label="mse = 13.067\nsamples = 668\nvalue = 1.913", fillcolor="#fefcfb"] ;
736 -> 738 ;
739 [label="X[1] <= 27455.0\nmse = 18.697\nsamples = 25708\nvalue = 2.348", fillcolor="#fefcfa"] ;
723 -> 739 ;
740 [label="X[1] <= 25996.5\nmse = 20.253\nsamples = 22907\nvalue = 2.506", fillcolor="#fefbf9"] ;
739 -> 740 ;
741 [label="X[2] <= 25829.0\nmse = 13.332\nsamples = 8414\nvalue = 1.786", fillcolor="#fefcfb"] ;
740 -> 741 ;
742 [label="mse = 13.059\nsamples = 8391\nvalue = 1.756", fillcolor="#fefcfb"] ;
741 -> 742 ;
743 [label="mse = -0.0\nsamples = 23\nvalue = 12.21", fillcolor="#fbede3"] ;
741 -> 743 ;
744 [label="X[1] <= 26105.5\nmse = 23.807\nsamples = 14493\nvalue = 2.925", fillcolor="#fefbf8"] ;
740 -> 744 ;
745 [label="mse = 91.925\nsamples = 850\nvalue = 6.869", fillcolor="#fdf5ef"] ;
744 -> 745 ;
746 [label="mse = 18.554\nsamples = 13643\nvalue = 2.681", fillcolor="#fefbf9"] ;
744 -> 746 ;
747 [label="X[3] <= 25239.5\nmse = 3.991\nsamples = 2801\nvalue = 1.051", fillcolor="#fffdfd"] ;
739 -> 747 ;
748 [label="X[3] <= 25230.5\nmse = 23.074\nsamples = 250\nvalue = 2.48", fillcolor="#fefbf9"] ;
747 -> 748 ;
749 [label="mse = 0.572\nsamples = 209\nvalue = 0.539", fillcolor="#fffefe"] ;
748 -> 749 ;
750 [label="mse = 29.894\nsamples = 41\nvalue = 11.365", fillcolor="#fceee5"] ;
748 -> 750 ;
751 [label="X[0] <= 27862.0\nmse = 1.881\nsamples = 2551\nvalue = 0.909", fillcolor="#fffefd"] ;
747 -> 751 ;
752 [label="mse = 0.595\nsamples = 877\nvalue = 0.523", fillcolor="#fffefe"] ;
751 -> 752 ;
753 [label="mse = 2.418\nsamples = 1674\nvalue = 1.105", fillcolor="#fffdfc"] ;
751 -> 753 ;
754 [label="X[7] <= 21298.5\nmse = 371.908\nsamples = 173\nvalue = 9.59", fillcolor="#fcf1e9"] ;
722 -> 754 ;
755 [label="X[2] <= 24181.0\nmse = 837.878\nsamples = 30\nvalue = 40.357", fillcolor="#f3c4a3"] ;
754 -> 755 ;
756 [label="X[7] <= 20718.0\nmse = 0.002\nsamples = 8\nvalue = 0.028", fillcolor="#ffffff"] ;
755 -> 756 ;
757 [label="mse = 0.0\nsamples = 5\nvalue = 0.0", fillcolor="#ffffff"] ;
756 -> 757 ;
758 [label="mse = 0.0\nsamples = 3\nvalue = 0.117", fillcolor="#ffffff"] ;
756 -> 758 ;
759 [label="mse = 0.0\nsamples = 22\nvalue = 61.133", fillcolor="#eda673"] ;
755 -> 759 ;
760 [label="X[2] <= 24328.5\nmse = 14.837\nsamples = 143\nvalue = 2.813", fillcolor="#fefbf9"] ;
754 -> 760 ;
761 [label="X[3] <= 25870.5\nmse = 21.202\nsamples = 10\nvalue = 12.182", fillcolor="#fbede3"] ;
760 -> 761 ;
762 [label="mse = 0.0\nsamples = 9\nvalue = 13.923", fillcolor="#fbebdf"] ;
761 -> 762 ;
763 [label="mse = 0.0\nsamples = 1\nvalue = 0.0", fillcolor="#ffffff"] ;
761 -> 763 ;
764 [label="X[2] <= 25419.5\nmse = 7.193\nsamples = 133\nvalue = 2.102", fillcolor="#fefcfa"] ;
760 -> 764 ;
765 [label="X[5] <= 23806.0\nmse = 8.155\nsamples = 73\nvalue = 3.721", fillcolor="#fefaf6"] ;
764 -> 765 ;
766 [label="mse = 1.334\nsamples = 31\nvalue = 0.902", fillcolor="#fffefd"] ;
765 -> 766 ;
767 [label="mse = 2.349\nsamples = 42\nvalue = 5.939", fillcolor="#fdf6f1"] ;
765 -> 767 ;
768 [label="X[0] <= 27164.0\nmse = 0.371\nsamples = 60\nvalue = 0.372", fillcolor="#fffefe"] ;
764 -> 768 ;
769 [label="mse = 0.054\nsamples = 48\nvalue = 0.027", fillcolor="#ffffff"] ;
768 -> 769 ;
770 [label="mse = 0.0\nsamples = 12\nvalue = 1.332", fillcolor="#fffdfc"] ;
768 -> 770 ;
771 [label="X[3] <= 25451.5\nmse = 9.57\nsamples = 43155\nvalue = 1.254", fillcolor="#fffdfc"] ;
721 -> 771 ;
772 [label="X[2] <= 28414.5\nmse = 12.055\nsamples = 19401\nvalue = 1.561", fillcolor="#fffdfb"] ;
771 -> 772 ;
773 [label="X[4] <= 21196.5\nmse = 11.122\nsamples = 19145\nvalue = 1.523", fillcolor="#fffdfc"] ;
772 -> 773 ;
774 [label="X[5] <= 23959.5\nmse = 1.425\nsamples = 1586\nvalue = 0.637", fillcolor="#fffefe"] ;
773 -> 774 ;
775 [label="X[5] <= 21160.5\nmse = 1.072\nsamples = 1560\nvalue = 0.558", fillcolor="#fffefe"] ;
774 -> 775 ;
776 [label="mse = 2.909\nsamples = 146\nvalue = 1.346", fillcolor="#fffdfc"] ;
775 -> 776 ;
777 [label="mse = 0.816\nsamples = 1414\nvalue = 0.478", fillcolor="#fffefe"] ;
775 -> 777 ;
778 [label="mse = -0.0\nsamples = 26\nvalue = 5.348", fillcolor="#fdf7f3"] ;
774 -> 778 ;
779 [label="X[0] <= 27653.5\nmse = 11.94\nsamples = 17559\nvalue = 1.605", fillcolor="#fffdfb"] ;
773 -> 779 ;
780 [label="X[4] <= 22611.5\nmse = 10.102\nsamples = 9330\nvalue = 1.326", fillcolor="#fffdfc"] ;
779 -> 780 ;
781 [label="mse = 7.516\nsamples = 9254\nvalue = 1.293", fillcolor="#fffdfc"] ;
780 -> 781 ;
782 [label="mse = 331.172\nsamples = 76\nvalue = 5.636", fillcolor="#fdf7f2"] ;
780 -> 782 ;
783 [label="X[1] <= 27453.0\nmse = 13.838\nsamples = 8229\nvalue = 1.923", fillcolor="#fefcfb"] ;
779 -> 783 ;
784 [label="mse = 26.509\nsamples = 1286\nvalue = 3.494", fillcolor="#fefaf7"] ;
783 -> 784 ;
785 [label="mse = 10.913\nsamples = 6943\nvalue = 1.628", fillcolor="#fffdfb"] ;
783 -> 785 ;
786 [label="X[1] <= 27859.0\nmse = 74.641\nsamples = 256\nvalue = 4.372", fillcolor="#fef9f5"] ;
772 -> 786 ;
787 [label="mse = 0.0\nsamples = 8\nvalue = 43.267", fillcolor="#f2c09c"] ;
786 -> 787 ;
788 [label="X[2] <= 28428.5\nmse = 16.156\nsamples = 248\nvalue = 2.853", fillcolor="#fefbf8"] ;
786 -> 788 ;
789 [label="mse = 0.0\nsamples = 23\nvalue = 12.915", fillcolor="#fbece1"] ;
788 -> 789 ;
790 [label="X[4] <= 22435.5\nmse = 7.585\nsamples = 225\nvalue = 1.938", fillcolor="#fefcfb"] ;
788 -> 790 ;
791 [label="mse = 3.526\nsamples = 205\nvalue = 1.344", fillcolor="#fffdfc"] ;
790 -> 791 ;
792 [label="mse = 14.088\nsamples = 20\nvalue = 6.849", fillcolor="#fdf5ef"] ;
790 -> 792 ;
793 [label="X[1] <= 28419.0\nmse = 7.411\nsamples = 23754\nvalue = 1.004", fillcolor="#fffefd"] ;
771 -> 793 ;
794 [label="X[3] <= 25955.5\nmse = 7.956\nsamples = 21695\nvalue = 1.07", fillcolor="#fffdfd"] ;
793 -> 794 ;
795 [label="X[3] <= 25954.5\nmse = 8.508\nsamples = 16714\nvalue = 1.18", fillcolor="#fffdfc"] ;
794 -> 795 ;
796 [label="X[4] <= 21732.5\nmse = 8.146\nsamples = 16677\nvalue = 1.155", fillcolor="#fffdfc"] ;
795 -> 796 ;
797 [label="mse = 3.096\nsamples = 3238\nvalue = 0.731", fillcolor="#fffefd"] ;
796 -> 797 ;
798 [label="mse = 9.286\nsamples = 13439\nvalue = 1.255", fillcolor="#fffdfc"] ;
796 -> 798 ;
799 [label="X[7] <= 22534.5\nmse = 51.869\nsamples = 37\nvalue = 11.132", fillcolor="#fcefe6"] ;
795 -> 799 ;
800 [label="mse = 3.931\nsamples = 27\nvalue = 15.539", fillcolor="#fae8db"] ;
799 -> 800 ;
801 [label="mse = -0.0\nsamples = 10\nvalue = 0.0", fillcolor="#ffffff"] ;
799 -> 801 ;
802 [label="X[0] <= 23647.0\nmse = 5.93\nsamples = 4981\nvalue = 0.701", fillcolor="#fffefd"] ;
794 -> 802 ;
803 [label="mse = 0.0\nsamples = 2\nvalue = 22.171", fillcolor="#f8dfcc"] ;
802 -> 803 ;
804 [label="X[5] <= 21166.5\nmse = 5.7\nsamples = 4979\nvalue = 0.69", fillcolor="#fffefd"] ;
802 -> 804 ;
805 [label="mse = 42.127\nsamples = 163\nvalue = 2.921", fillcolor="#fefbf8"] ;
804 -> 805 ;
806 [label="mse = 4.32\nsamples = 4816\nvalue = 0.616", fillcolor="#fffefe"] ;
804 -> 806 ;
807 [label="X[3] <= 27128.5\nmse = 1.07\nsamples = 2059\nvalue = 0.302", fillcolor="#fffffe"] ;
793 -> 807 ;
808 [label="X[4] <= 22475.5\nmse = 1.035\nsamples = 2054\nvalue = 0.293", fillcolor="#fffffe"] ;
807 -> 808 ;
809 [label="X[3] <= 26760.5\nmse = 0.764\nsamples = 1558\nvalue = 0.207", fillcolor="#ffffff"] ;
808 -> 809 ;
810 [label="mse = 0.275\nsamples = 1488\nvalue = 0.164", fillcolor="#ffffff"] ;
809 -> 810 ;
811 [label="mse = 11.026\nsamples = 70\nvalue = 1.19", fillcolor="#fffdfc"] ;
809 -> 811 ;
812 [label="X[4] <= 22566.5\nmse = 1.801\nsamples = 496\nvalue = 0.569", fillcolor="#fffefe"] ;
808 -> 812 ;
813 [label="mse = 3.141\nsamples = 245\nvalue = 0.992", fillcolor="#fffefd"] ;
812 -> 813 ;
814 [label="mse = 0.211\nsamples = 251\nvalue = 0.171", fillcolor="#ffffff"] ;
812 -> 814 ;
815 [label="mse = 0.0\nsamples = 5\nvalue = 4.456", fillcolor="#fef9f5"] ;
807 -> 815 ;
816 [label="X[4] <= 24873.5\nmse = 8.333\nsamples = 6053629\nvalue = 0.987", fillcolor="#fffefd"] ;
0 -> 816 [labeldistance=2.5, labelangle=-45, headlabel="False"] ;
817 [label="X[0] <= 26858.5\nmse = 13.492\nsamples = 1350407\nvalue = 1.589", fillcolor="#fffdfb"] ;
816 -> 817 ;
818 [label="X[3] <= 24435.5\nmse = 9.023\nsamples = 856511\nvalue = 1.31", fillcolor="#fffdfc"] ;
817 -> 818 ;
819 [label="X[7] <= 24044.5\nmse = 3.598\nsamples = 128952\nvalue = 0.555", fillcolor="#fffefe"] ;
818 -> 819 ;
820 [label="X[0] <= 22822.5\nmse = 14.707\nsamples = 22661\nvalue = 1.475", fillcolor="#fffdfc"] ;
819 -> 820 ;
821 [label="X[6] <= 24630.0\nmse = 6.778\nsamples = 15972\nvalue = 1.064", fillcolor="#fffdfd"] ;
820 -> 821 ;
822 [label="X[4] <= 23316.0\nmse = 5.905\nsamples = 15205\nvalue = 0.986", fillcolor="#fffefd"] ;
821 -> 822 ;
823 [label="X[2] <= 25290.5\nmse = 8.432\nsamples = 6550\nvalue = 1.23", fillcolor="#fffdfc"] ;
822 -> 823 ;
824 [label="X[5] <= 23164.0\nmse = 7.051\nsamples = 5810\nvalue = 1.085", fillcolor="#fffdfd"] ;
823 -> 824 ;
825 [label="mse = 17.438\nsamples = 1330\nvalue = 1.663", fillcolor="#fffdfb"] ;
824 -> 825 ;
826 [label="mse = 3.9\nsamples = 4480\nvalue = 0.917", fillcolor="#fffefd"] ;
824 -> 826 ;
827 [label="X[2] <= 25313.0\nmse = 17.92\nsamples = 740\nvalue = 2.383", fillcolor="#fefcfa"] ;
823 -> 827 ;
828 [label="mse = 12.193\nsamples = 35\nvalue = 12.662", fillcolor="#fbede2"] ;
827 -> 828 ;
829 [label="mse = 12.955\nsamples = 705\nvalue = 1.897", fillcolor="#fefcfb"] ;
827 -> 829 ;
830 [label="X[2] <= 23275.5\nmse = 3.929\nsamples = 8655\nvalue = 0.802", fillcolor="#fffefd"] ;
822 -> 830 ;
831 [label="X[2] <= 23163.0\nmse = 7.501\nsamples = 1216\nvalue = 1.442", fillcolor="#fffdfc"] ;
830 -> 831 ;
832 [label="mse = 1.515\nsamples = 1040\nvalue = 0.799", fillcolor="#fffefd"] ;
831 -> 832 ;
833 [label="mse = 25.996\nsamples = 176\nvalue = 5.262", fillcolor="#fdf7f3"] ;
831 -> 833 ;
834 [label="X[0] <= 19122.5\nmse = 3.266\nsamples = 7439\nvalue = 0.697", fillcolor="#fffefd"] ;
830 -> 834 ;
835 [label="mse = 0.121\nsamples = 855\nvalue = 0.162", fillcolor="#ffffff"] ;
834 -> 835 ;
836 [label="mse = 3.637\nsamples = 6584\nvalue = 0.768", fillcolor="#fffefd"] ;
834 -> 836 ;
837 [label="X[3] <= 23366.0\nmse = 21.515\nsamples = 767\nvalue = 2.603", fillcolor="#fefbf9"] ;
821 -> 837 ;
838 [label="X[5] <= 23992.5\nmse = 70.633\nsamples = 100\nvalue = 8.284", fillcolor="#fdf3ec"] ;
837 -> 838 ;
839 [label="X[5] <= 23907.5\nmse = 21.455\nsamples = 54\nvalue = 15.597", fillcolor="#fae8db"] ;
838 -> 839 ;
840 [label="mse = 2.782\nsamples = 34\nvalue = 19.19", fillcolor="#f9e3d3"] ;
839 -> 840 ;
841 [label="mse = 0.0\nsamples = 20\nvalue = 10.095", fillcolor="#fcf0e8"] ;
839 -> 841 ;
842 [label="X[2] <= 23732.5\nmse = 0.009\nsamples = 46\nvalue = 0.169", fillcolor="#ffffff"] ;
838 -> 842 ;
843 [label="mse = 0.003\nsamples = 27\nvalue = 0.106", fillcolor="#ffffff"] ;
842 -> 843 ;
844 [label="mse = 0.0\nsamples = 19\nvalue = 0.276", fillcolor="#fffffe"] ;
842 -> 844 ;
845 [label="X[1] <= 22669.5\nmse = 9.059\nsamples = 667\nvalue = 1.781", fillcolor="#fefcfb"] ;
837 -> 845 ;
846 [label="X[7] <= 23962.5\nmse = 7.032\nsamples = 653\nvalue = 1.567", fillcolor="#fffdfb"] ;
845 -> 846 ;
847 [label="mse = 1.568\nsamples = 423\nvalue = 1.021", fillcolor="#fffefd"] ;
846 -> 847 ;
848 [label="mse = 15.884\nsamples = 230\nvalue = 2.617", fillcolor="#fefbf9"] ;
846 -> 848 ;
849 [label="mse = -0.0\nsamples = 14\nvalue = 11.925", fillcolor="#fbeee4"] ;
845 -> 849 ;
850 [label="X[0] <= 22999.5\nmse = 32.408\nsamples = 6689\nvalue = 2.466", fillcolor="#fefbf9"] ;
820 -> 850 ;
851 [label="X[0] <= 22995.5\nmse = 110.931\nsamples = 402\nvalue = 7.576", fillcolor="#fdf4ee"] ;
850 -> 851 ;
852 [label="X[2] <= 25372.5\nmse = 60.279\nsamples = 382\nvalue = 5.813", fillcolor="#fdf7f2"] ;
851 -> 852 ;
853 [label="X[5] <= 24004.5\nmse = 4.878\nsamples = 230\nvalue = 1.834", fillcolor="#fefcfb"] ;
852 -> 853 ;
854 [label="mse = 2.097\nsamples = 184\nvalue = 1.02", fillcolor="#fffefd"] ;
853 -> 854 ;
855 [label="mse = 0.194\nsamples = 46\nvalue = 5.662", fillcolor="#fdf7f2"] ;
853 -> 855 ;
856 [label="X[0] <= 22927.5\nmse = 84.426\nsamples = 152\nvalue = 11.536", fillcolor="#fceee5"] ;
852 -> 856 ;
857 [label="mse = 36.405\nsamples = 89\nvalue = 18.381", fillcolor="#f9e4d5"] ;
856 -> 857 ;
858 [label="mse = 11.293\nsamples = 63\nvalue = 2.899", fillcolor="#fefbf8"] ;
856 -> 858 ;
859 [label="mse = 0.0\nsamples = 20\nvalue = 38.17", fillcolor="#f4c7a8"] ;
851 -> 859 ;
860 [label="X[2] <= 25489.0\nmse = 25.683\nsamples = 6287\nvalue = 2.142", fillcolor="#fefcfa"] ;
850 -> 860 ;
861 [label="X[7] <= 23473.0\nmse = 15.612\nsamples = 4976\nvalue = 1.682", fillcolor="#fefdfb"] ;
860 -> 861 ;
862 [label="X[0] <= 24894.5\nmse = 29.338\nsamples = 2044\nvalue = 2.582", fillcolor="#fefbf9"] ;
861 -> 862 ;
863 [label="mse = 6.927\nsamples = 1342\nvalue = 1.302", fillcolor="#fffdfc"] ;
862 -> 863 ;
864 [label="mse = 63.077\nsamples = 702\nvalue = 5.028", fillcolor="#fdf8f4"] ;
862 -> 864 ;
865 [label="X[0] <= 26724.0\nmse = 5.113\nsamples = 2932\nvalue = 1.056", fillcolor="#fffdfd"] ;
861 -> 865 ;
866 [label="mse = 4.694\nsamples = 2929\nvalue = 1.035", fillcolor="#fffdfd"] ;
865 -> 866 ;
867 [label="mse = -0.0\nsamples = 3\nvalue = 20.852", fillcolor="#f9e1cf"] ;
865 -> 867 ;
868 [label="X[3] <= 23487.5\nmse = 60.665\nsamples = 1311\nvalue = 3.925", fillcolor="#fef9f6"] ;
860 -> 868 ;
869 [label="X[1] <= 22468.0\nmse = 296.361\nsamples = 50\nvalue = 16.159", fillcolor="#fae7da"] ;
868 -> 869 ;
870 [label="mse = 123.459\nsamples = 23\nvalue = 30.465", fillcolor="#f6d3b9"] ;
869 -> 870 ;
871 [label="mse = 0.001\nsamples = 27\nvalue = 0.018", fillcolor="#ffffff"] ;
869 -> 871 ;
872 [label="X[7] <= 23101.5\nmse = 43.921\nsamples = 1261\nvalue = 3.402", fillcolor="#fefaf7"] ;
868 -> 872 ;
873 [label="mse = 11.611\nsamples = 569\nvalue = 1.202", fillcolor="#fffdfc"] ;
872 -> 873 ;
874 [label="mse = 62.961\nsamples = 692\nvalue = 5.18", fillcolor="#fdf7f3"] ;
872 -> 874 ;
875 [label="X[7] <= 24613.5\nmse = 1.014\nsamples = 106291\nvalue = 0.36", fillcolor="#fffefe"] ;
819 -> 875 ;
876 [label="X[0] <= 26495.0\nmse = 2.105\nsamples = 28953\nvalue = 0.564", fillcolor="#fffefe"] ;
875 -> 876 ;
877 [label="X[2] <= 27220.5\nmse = 1.736\nsamples = 28896\nvalue = 0.549", fillcolor="#fffefe"] ;
876 -> 877 ;
878 [label="X[2] <= 24640.0\nmse = 1.711\nsamples = 28894\nvalue = 0.548", fillcolor="#fffefe"] ;
877 -> 878 ;
879 [label="X[5] <= 24091.5\nmse = 1.267\nsamples = 24604\nvalue = 0.485", fillcolor="#fffefe"] ;
878 -> 879 ;
880 [label="mse = 1.455\nsamples = 19847\nvalue = 0.556", fillcolor="#fffefe"] ;
879 -> 880 ;
881 [label="mse = 0.377\nsamples = 4757\nvalue = 0.189", fillcolor="#ffffff"] ;
879 -> 881 ;
882 [label="X[1] <= 17326.0\nmse = 4.098\nsamples = 4290\nvalue = 0.908", fillcolor="#fffefd"] ;
878 -> 882 ;
883 [label="mse = 156.432\nsamples = 26\nvalue = 9.576", fillcolor="#fcf1e9"] ;
882 -> 883 ;
884 [label="mse = 2.543\nsamples = 4264\nvalue = 0.849", fillcolor="#fffefd"] ;
882 -> 884 ;
885 [label="mse = -0.0\nsamples = 2\nvalue = 14.276", fillcolor="#fbeade"] ;
877 -> 885 ;
886 [label="X[0] <= 26510.5\nmse = 129.562\nsamples = 57\nvalue = 7.45", fillcolor="#fdf4ee"] ;
876 -> 886 ;
887 [label="mse = 0.0\nsamples = 11\nvalue = 29.246", fillcolor="#f6d4bc"] ;
886 -> 887 ;
888 [label="X[0] <= 26646.5\nmse = 5.742\nsamples = 46\nvalue = 1.714", fillcolor="#fefdfb"] ;
886 -> 888 ;
889 [label="X[4] <= 22886.5\nmse = 0.311\nsamples = 30\nvalue = 0.146", fillcolor="#ffffff"] ;
888 -> 889 ;
890 [label="mse = 0.0\nsamples = 2\nvalue = 2.376", fillcolor="#fefcfa"] ;
889 -> 890 ;
891 [label="mse = 0.0\nsamples = 28\nvalue = 0.007", fillcolor="#ffffff"] ;
889 -> 891 ;
892 [label="X[0] <= 26726.0\nmse = 1.576\nsamples = 16\nvalue = 4.913", fillcolor="#fef8f4"] ;
888 -> 892 ;
893 [label="mse = 0.192\nsamples = 12\nvalue = 5.469", fillcolor="#fdf7f2"] ;
892 -> 893 ;
894 [label="mse = 1.884\nsamples = 4\nvalue = 3.153", fillcolor="#fefaf8"] ;
892 -> 894 ;
895 [label="X[7] <= 25644.5\nmse = 0.585\nsamples = 77338\nvalue = 0.283", fillcolor="#fffffe"] ;
875 -> 895 ;
896 [label="X[0] <= 22809.5\nmse = 0.684\nsamples = 63704\nvalue = 0.326", fillcolor="#fffffe"] ;
895 -> 896 ;
897 [label="X[0] <= 18616.0\nmse = 1.093\nsamples = 24870\nvalue = 0.45", fillcolor="#fffefe"] ;
896 -> 897 ;
898 [label="X[1] <= 16116.0\nmse = 0.144\nsamples = 12202\nvalue = 0.204", fillcolor="#ffffff"] ;
897 -> 898 ;
899 [label="mse = 0.02\nsamples = 2816\nvalue = 0.054", fillcolor="#ffffff"] ;
898 -> 899 ;
900 [label="mse = 0.173\nsamples = 9386\nvalue = 0.249", fillcolor="#fffffe"] ;
898 -> 900 ;
901 [label="X[7] <= 25634.0\nmse = 1.884\nsamples = 12668\nvalue = 0.684", fillcolor="#fffefd"] ;
897 -> 901 ;
902 [label="mse = 1.506\nsamples = 12617\nvalue = 0.663", fillcolor="#fffefd"] ;
901 -> 902 ;
903 [label="mse = 67.49\nsamples = 51\nvalue = 6.061", fillcolor="#fdf6f1"] ;
901 -> 903 ;
904 [label="X[1] <= 25235.5\nmse = 0.405\nsamples = 38834\nvalue = 0.247", fillcolor="#fffffe"] ;
896 -> 904 ;
905 [label="X[4] <= 24670.5\nmse = 0.339\nsamples = 28017\nvalue = 0.194", fillcolor="#ffffff"] ;
904 -> 905 ;
906 [label="mse = 0.26\nsamples = 26280\nvalue = 0.176", fillcolor="#ffffff"] ;
905 -> 906 ;
907 [label="mse = 1.447\nsamples = 1737\nvalue = 0.472", fillcolor="#fffefe"] ;
905 -> 907 ;
908 [label="X[5] <= 23944.5\nmse = 0.55\nsamples = 10817\nvalue = 0.385", fillcolor="#fffefe"] ;
904 -> 908 ;
909 [label="mse = 0.216\nsamples = 4795\nvalue = 0.248", fillcolor="#fffffe"] ;
908 -> 909 ;
910 [label="mse = 0.792\nsamples = 6022\nvalue = 0.496", fillcolor="#fffefe"] ;
908 -> 910 ;
911 [label="X[7] <= 25982.0\nmse = 0.077\nsamples = 13634\nvalue = 0.081", fillcolor="#ffffff"] ;
895 -> 911 ;
912 [label="X[1] <= 22324.5\nmse = 0.132\nsamples = 6522\nvalue = 0.147", fillcolor="#ffffff"] ;
911 -> 912 ;
913 [label="X[6] <= 25194.5\nmse = 0.191\nsamples = 2898\nvalue = 0.229", fillcolor="#fffffe"] ;
912 -> 913 ;
914 [label="mse = 0.043\nsamples = 1360\nvalue = 0.081", fillcolor="#ffffff"] ;
913 -> 914 ;
915 [label="mse = 0.288\nsamples = 1538\nvalue = 0.362", fillcolor="#fffefe"] ;
913 -> 915 ;
916 [label="X[4] <= 24558.5\nmse = 0.076\nsamples = 3624\nvalue = 0.082", fillcolor="#ffffff"] ;
912 -> 916 ;
917 [label="mse = 0.028\nsamples = 2396\nvalue = 0.046", fillcolor="#ffffff"] ;
916 -> 917 ;
918 [label="mse = 0.16\nsamples = 1228\nvalue = 0.152", fillcolor="#ffffff"] ;
916 -> 918 ;
919 [label="X[0] <= 26380.0\nmse = 0.019\nsamples = 7112\nvalue = 0.021", fillcolor="#ffffff"] ;
911 -> 919 ;
920 [label="X[5] <= 25759.0\nmse = 0.017\nsamples = 7086\nvalue = 0.019", fillcolor="#ffffff"] ;
919 -> 920 ;
921 [label="mse = 0.011\nsamples = 7003\nvalue = 0.016", fillcolor="#ffffff"] ;
920 -> 921 ;
922 [label="mse = 0.467\nsamples = 83\nvalue = 0.264", fillcolor="#fffffe"] ;
920 -> 922 ;
923 [label="X[5] <= 24852.5\nmse = 0.137\nsamples = 26\nvalue = 0.572", fillcolor="#fffefe"] ;
919 -> 923 ;
924 [label="mse = 0.032\nsamples = 12\nvalue = 0.232", fillcolor="#fffffe"] ;
923 -> 924 ;
925 [label="mse = 0.051\nsamples = 14\nvalue = 0.85", fillcolor="#fffefd"] ;
923 -> 925 ;
926 [label="X[4] <= 23729.5\nmse = 9.864\nsamples = 727559\nvalue = 1.443", fillcolor="#fffdfc"] ;
818 -> 926 ;
927 [label="X[2] <= 24445.5\nmse = 12.674\nsamples = 261721\nvalue = 1.79", fillcolor="#fefcfb"] ;
926 -> 927 ;
928 [label="X[2] <= 24435.5\nmse = 30.331\nsamples = 20951\nvalue = 2.403", fillcolor="#fefcfa"] ;
927 -> 928 ;
929 [label="X[0] <= 25821.5\nmse = 26.583\nsamples = 20688\nvalue = 2.305", fillcolor="#fefcfa"] ;
928 -> 929 ;
930 [label="X[7] <= 24361.5\nmse = 12.558\nsamples = 14357\nvalue = 1.86", fillcolor="#fefcfb"] ;
929 -> 930 ;
931 [label="X[7] <= 24359.5\nmse = 13.868\nsamples = 12703\nvalue = 2.01", fillcolor="#fefcfa"] ;
930 -> 931 ;
932 [label="mse = 13.703\nsamples = 12674\nvalue = 1.99", fillcolor="#fefcfa"] ;
931 -> 932 ;
933 [label="mse = 0.0\nsamples = 29\nvalue = 11.823", fillcolor="#fbeee4"] ;
931 -> 933 ;
934 [label="X[3] <= 25459.5\nmse = 1.187\nsamples = 1654\nvalue = 0.726", fillcolor="#fffefd"] ;
930 -> 934 ;
935 [label="mse = 0.898\nsamples = 1621\nvalue = 0.666", fillcolor="#fffefd"] ;
934 -> 935 ;
936 [label="mse = 6.572\nsamples = 33\nvalue = 3.701", fillcolor="#fefaf7"] ;
934 -> 936 ;
937 [label="X[2] <= 23168.0\nmse = 57.361\nsamples = 6331\nvalue = 3.331", fillcolor="#fefaf7"] ;
929 -> 937 ;
938 [label="X[2] <= 23015.0\nmse = 382.149\nsamples = 528\nvalue = 8.602", fillcolor="#fcf2eb"] ;
937 -> 938 ;
939 [label="mse = 21.473\nsamples = 433\nvalue = 2.044", fillcolor="#fefcfa"] ;
938 -> 939 ;
940 [label="mse = 958.826\nsamples = 95\nvalue = 35.976", fillcolor="#f4cbad"] ;
938 -> 940 ;
941 [label="X[0] <= 26259.0\nmse = 25.855\nsamples = 5803\nvalue = 2.863", fillcolor="#fefbf8"] ;
937 -> 941 ;
942 [label="mse = 5.192\nsamples = 2351\nvalue = 1.598", fillcolor="#fffdfb"] ;
941 -> 942 ;
943 [label="mse = 38.065\nsamples = 3452\nvalue = 3.722", fillcolor="#fefaf6"] ;
941 -> 943 ;
944 [label="X[2] <= 24436.5\nmse = 262.74\nsamples = 263\nvalue = 10.033", fillcolor="#fcf0e8"] ;
928 -> 944 ;
945 [label="X[4] <= 23346.5\nmse = 347.1\nsamples = 75\nvalue = 30.231", fillcolor="#f6d3ba"] ;
944 -> 945 ;
946 [label="mse = 0.0\nsamples = 25\nvalue = 5.506", fillcolor="#fdf7f2"] ;
945 -> 946 ;
947 [label="X[7] <= 23986.0\nmse = 50.826\nsamples = 50\nvalue = 42.911", fillcolor="#f2c19d"] ;
945 -> 947 ;
948 [label="mse = 0.0\nsamples = 24\nvalue = 50.611", fillcolor="#f0b58b"] ;
947 -> 948 ;
949 [label="mse = -0.0\nsamples = 26\nvalue = 36.311", fillcolor="#f4caac"] ;
947 -> 949 ;
950 [label="X[2] <= 24438.5\nmse = 5.977\nsamples = 188\nvalue = 2.089", fillcolor="#fefcfa"] ;
944 -> 950 ;
951 [label="X[4] <= 23614.0\nmse = 0.133\nsamples = 98\nvalue = 0.403", fillcolor="#fffefe"] ;
950 -> 951 ;
952 [label="mse = 0.084\nsamples = 68\nvalue = 0.213", fillcolor="#ffffff"] ;
951 -> 952 ;
953 [label="mse = 0.021\nsamples = 30\nvalue = 0.776", fillcolor="#fffefd"] ;
951 -> 953 ;
954 [label="X[3] <= 25067.0\nmse = 5.984\nsamples = 90\nvalue = 3.867", fillcolor="#fef9f6"] ;
950 -> 954 ;
955 [label="mse = 1.271\nsamples = 78\nvalue = 3.165", fillcolor="#fefaf8"] ;
954 -> 955 ;
956 [label="mse = 13.027\nsamples = 12\nvalue = 8.288", fillcolor="#fdf3ec"] ;
954 -> 956 ;
957 [label="X[3] <= 25655.5\nmse = 11.115\nsamples = 240770\nvalue = 1.737", fillcolor="#fefcfb"] ;
927 -> 957 ;
958 [label="X[0] <= 21881.0\nmse = 11.028\nsamples = 210710\nvalue = 1.794", fillcolor="#fefcfb"] ;
957 -> 958 ;
959 [label="X[2] <= 24551.0\nmse = 8.035\nsamples = 18690\nvalue = 1.282", fillcolor="#fffdfc"] ;
958 -> 959 ;
960 [label="X[2] <= 24549.5\nmse = 20.832\nsamples = 786\nvalue = 2.75", fillcolor="#fefbf9"] ;
959 -> 960 ;
961 [label="mse = 14.297\nsamples = 763\nvalue = 2.491", fillcolor="#fefbf9"] ;
960 -> 961 ;
962 [label="mse = 159.93\nsamples = 23\nvalue = 11.219", fillcolor="#fcefe5"] ;
960 -> 962 ;
963 [label="X[1] <= 20621.5\nmse = 7.378\nsamples = 17904\nvalue = 1.218", fillcolor="#fffdfc"] ;
959 -> 963 ;
964 [label="mse = 8.982\nsamples = 13879\nvalue = 1.403", fillcolor="#fffdfc"] ;
963 -> 964 ;
965 [label="mse = 1.211\nsamples = 4025\nvalue = 0.569", fillcolor="#fffefe"] ;
963 -> 965 ;
966 [label="X[0] <= 26733.5\nmse = 11.292\nsamples = 192020\nvalue = 1.844", fillcolor="#fefcfb"] ;
958 -> 966 ;
967 [label="X[7] <= 23994.5\nmse = 11.221\nsamples = 178554\nvalue = 1.803", fillcolor="#fefcfb"] ;
966 -> 967 ;
968 [label="mse = 15.919\nsamples = 93145\nvalue = 1.942", fillcolor="#fefcfb"] ;
967 -> 968 ;
969 [label="mse = 6.049\nsamples = 85409\nvalue = 1.651", fillcolor="#fffdfb"] ;
967 -> 969 ;
970 [label="X[3] <= 24757.5\nmse = 11.918\nsamples = 13466\nvalue = 2.4", fillcolor="#fefcfa"] ;
966 -> 970 ;
971 [label="mse = 52.685\nsamples = 576\nvalue = 6.405", fillcolor="#fdf6f0"] ;
970 -> 971 ;
972 [label="mse = 9.462\nsamples = 12890\nvalue = 2.229", fillcolor="#fefcfa"] ;
970 -> 972 ;
973 [label="X[4] <= 23728.5\nmse = 11.541\nsamples = 30060\nvalue = 1.335", fillcolor="#fffdfc"] ;
957 -> 973 ;
974 [label="X[1] <= 26385.5\nmse = 10.448\nsamples = 29969\nvalue = 1.305", fillcolor="#fffdfc"] ;
973 -> 974 ;
975 [label="X[0] <= 26454.5\nmse = 12.532\nsamples = 23220\nvalue = 1.459", fillcolor="#fffdfc"] ;
974 -> 975 ;
976 [label="mse = 9.395\nsamples = 19696\nvalue = 1.344", fillcolor="#fffdfc"] ;
975 -> 976 ;
977 [label="mse = 29.432\nsamples = 3524\nvalue = 2.096", fillcolor="#fefcfa"] ;
975 -> 977 ;
978 [label="X[0] <= 26238.5\nmse = 2.878\nsamples = 6749\nvalue = 0.772", fillcolor="#fffefd"] ;
974 -> 978 ;
979 [label="mse = 0.678\nsamples = 32\nvalue = 5.85", fillcolor="#fdf6f2"] ;
978 -> 979 ;
980 [label="mse = 2.775\nsamples = 6717\nvalue = 0.75", fillcolor="#fffefd"] ;
978 -> 980 ;
981 [label="X[7] <= 23560.0\nmse = 271.031\nsamples = 91\nvalue = 11.352", fillcolor="#fceee5"] ;
973 -> 981 ;
982 [label="X[6] <= 24127.5\nmse = 317.388\nsamples = 29\nvalue = 30.014", fillcolor="#f6d3ba"] ;
981 -> 982 ;
983 [label="mse = 0.001\nsamples = 7\nvalue = 0.026", fillcolor="#ffffff"] ;
982 -> 983 ;
984 [label="mse = 0.0\nsamples = 22\nvalue = 40.598", fillcolor="#f3c4a2"] ;
982 -> 984 ;
985 [label="X[1] <= 22592.0\nmse = 9.057\nsamples = 62\nvalue = 2.592", fillcolor="#fefbf9"] ;
981 -> 985 ;
986 [label="mse = 0.0\nsamples = 14\nvalue = 8.402", fillcolor="#fcf3ec"] ;
985 -> 986 ;
987 [label="mse = 1.163\nsamples = 48\nvalue = 1.194", fillcolor="#fffdfc"] ;
985 -> 987 ;
988 [label="X[3] <= 25049.5\nmse = 8.178\nsamples = 465838\nvalue = 1.248", fillcolor="#fffdfc"] ;
926 -> 988 ;
989 [label="X[2] <= 27399.5\nmse = 6.009\nsamples = 59935\nvalue = 0.811", fillcolor="#fffefd"] ;
988 -> 989 ;
