digraph Tree {
node [shape=box, style="filled, rounded", color="black", fontname=helvetica] ;
edge [fontname=helvetica] ;
0 [label="X[4] <= 22558.5\nmse = 13.96\nsamples = 6986501\nvalue = 1.317", fillcolor="#fffdfc"] ;
1 [label="X[3] <= 21854.5\nmse = 45.21\nsamples = 913619\nvalue = 3.486", fillcolor="#fefaf7"] ;
0 -> 1 [labeldistance=2.5, labelangle=45, headlabel="True"] ;
2 [label="X[6] <= 23102.0\nmse = 131.9\nsamples = 105876\nvalue = 6.553", fillcolor="#fdf5ef"] ;
1 -> 2 ;
3 [label="X[3] <= 19340.5\nmse = 144.475\nsamples = 92125\nvalue = 7.501", fillcolor="#fdf3ed"] ;
2 -> 3 ;
4 [label="X[2] <= 17574.0\nmse = 264.36\nsamples = 20544\nvalue = 11.402", fillcolor="#fbede3"] ;
3 -> 4 ;
5 [label="X[3] <= 19120.5\nmse = 422.523\nsamples = 842\nvalue = 20.019", fillcolor="#f9e0ce"] ;
4 -> 5 ;
6 [label="X[7] <= 13969.0\nmse = 437.019\nsamples = 751\nvalue = 21.748", fillcolor="#f8ddca"] ;
5 -> 6 ;
7 [label="X[3] <= 15126.5\nmse = 220.527\nsamples = 172\nvalue = 11.002", fillcolor="#fbeee4"] ;
6 -> 7 ;
8 [label="X[4] <= 12000.0\nmse = 240.747\nsamples = 109\nvalue = 17.335", fillcolor="#f9e4d5"] ;
7 -> 8 ;
9 [label="X[4] <= 11568.5\nmse = 22.268\nsamples = 59\nvalue = 7.573", fillcolor="#fdf3ed"] ;
8 -> 9 ;
10 [label="mse = 10.778\nsamples = 23\nvalue = 12.729", fillcolor="#fbebe0"] ;
9 -> 10 ;
11 [label="mse = 0.101\nsamples = 36\nvalue = 4.106", fillcolor="#fef9f5"] ;
9 -> 11 ;
12 [label="X[5] <= 17180.0\nmse = 238.447\nsamples = 50\nvalue = 30.132", fillcolor="#f5d0b6"] ;
8 -> 12 ;
13 [label="mse = 93.871\nsamples = 43\nvalue = 35.393", fillcolor="#f4c8a9"] ;
12 -> 13 ;
14 [label="mse = -0.0\nsamples = 7\nvalue = 0.0", fillcolor="#ffffff"] ;
12 -> 14 ;
15 [label="X[5] <= 17427.5\nmse = 0.05\nsamples = 63\nvalue = 0.171", fillcolor="#ffffff"] ;
7 -> 15 ;
16 [label="X[6] <= 14316.0\nmse = 0.032\nsamples = 30\nvalue = 0.38", fillcolor="#fffefe"] ;
15 -> 16 ;
17 [label="mse = 0.0\nsamples = 7\nvalue = 0.713", fillcolor="#fffefd"] ;
16 -> 17 ;
18 [label="mse = 0.0\nsamples = 23\nvalue = 0.285", fillcolor="#fffffe"] ;
16 -> 18 ;
19 [label="mse = 0.0\nsamples = 33\nvalue = 0.0", fillcolor="#ffffff"] ;
15 -> 19 ;
20 [label="X[6] <= 15444.0\nmse = 456.762\nsamples = 579\nvalue = 24.917", fillcolor="#f7d8c2"] ;
6 -> 20 ;
21 [label="X[5] <= 17907.0\nmse = 60.894\nsamples = 90\nvalue = 53.391", fillcolor="#eeac7d"] ;
20 -> 21 ;
22 [label="X[4] <= 13579.0\nmse = 20.75\nsamples = 88\nvalue = 54.149", fillcolor="#eeab7b"] ;
21 -> 22 ;
23 [label="mse = 0.998\nsamples = 51\nvalue = 57.441", fillcolor="#eda673"] ;
22 -> 23 ;
24 [label="mse = 9.295\nsamples = 37\nvalue = 49.151", fillcolor="#efb388"] ;
22 -> 24 ;
25 [label="mse = 0.0\nsamples = 2\nvalue = 0.0", fillcolor="#ffffff"] ;
21 -> 25 ;
26 [label="X[7] <= 15038.5\nmse = 352.769\nsamples = 489\nvalue = 19.67", fillcolor="#f9e1cf"] ;
20 -> 26 ;
27 [label="X[6] <= 15812.5\nmse = 130.349\nsamples = 172\nvalue = 7.846", fillcolor="#fcf3ec"] ;
26 -> 27 ;
28 [label="mse = 0.98\nsamples = 70\nvalue = 1.296", fillcolor="#fffdfc"] ;
27 -> 28 ;
29 [label="mse = 171.02\nsamples = 102\nvalue = 12.749", fillcolor="#fbebe0"] ;
27 -> 29 ;
30 [label="X[5] <= 18493.0\nmse = 356.855\nsamples = 317\nvalue = 26.014", fillcolor="#f7d7c0"] ;
26 -> 30 ;
31 [label="mse = 282.891\nsamples = 47\nvalue = 47.673", fillcolor="#f0b58b"] ;
30 -> 31 ;
32 [label="mse = 269.023\nsamples = 270\nvalue = 22.058", fillcolor="#f8ddc9"] ;
30 -> 32 ;
33 [label="X[6] <= 18646.5\nmse = 45.117\nsamples = 91\nvalue = 5.001", fillcolor="#fdf7f3"] ;
5 -> 33 ;
34 [label="X[4] <= 15777.5\nmse = 1.965\nsamples = 71\nvalue = 1.657", fillcolor="#fefcfb"] ;
33 -> 34 ;
35 [label="X[3] <= 19308.0\nmse = 0.878\nsamples = 49\nvalue = 0.813", fillcolor="#fffefd"] ;
34 -> 35 ;
36 [label="X[2] <= 8201.5\nmse = 0.017\nsamples = 32\nvalue = 0.134", fillcolor="#ffffff"] ;
35 -> 36 ;
37 [label="mse = 0.0\nsamples = 16\nvalue = 0.0", fillcolor="#ffffff"] ;
36 -> 37 ;
38 [label="mse = 0.0\nsamples = 16\nvalue = 0.262", fillcolor="#fffffe"] ;
36 -> 38 ;
39 [label="mse = 0.0\nsamples = 17\nvalue = 2.09", fillcolor="#fefcfa"] ;
35 -> 39 ;
40 [label="mse = 0.0\nsamples = 22\nvalue = 3.298", fillcolor="#fefaf7"] ;
34 -> 40 ;
41 [label="mse = -0.0\nsamples = 20\nvalue = 18.023", fillcolor="#f9e3d3"] ;
33 -> 41 ;
42 [label="X[0] <= 26535.0\nmse = 254.335\nsamples = 19702\nvalue = 11.035", fillcolor="#fbeee4"] ;
4 -> 42 ;
43 [label="X[7] <= 18628.0\nmse = 206.021\nsamples = 8767\nvalue = 8.888", fillcolor="#fcf1e9"] ;
42 -> 43 ;
44 [label="X[3] <= 14002.5\nmse = 197.508\nsamples = 8690\nvalue = 8.683", fillcolor="#fcf2ea"] ;
43 -> 44 ;
45 [label="X[7] <= 13558.5\nmse = 657.282\nsamples = 365\nvalue = 18.483", fillcolor="#f9e2d2"] ;
44 -> 45 ;
46 [label="X[0] <= 26190.0\nmse = 253.195\nsamples = 326\nvalue = 11.813", fillcolor="#fbede2"] ;
45 -> 46 ;
47 [label="mse = 317.666\nsamples = 168\nvalue = 20.199", fillcolor="#f9e0ce"] ;
46 -> 47 ;
48 [label="mse = 19.929\nsamples = 158\nvalue = 2.591", fillcolor="#fefbf9"] ;
46 -> 48 ;
49 [label="X[4] <= 12255.5\nmse = 442.805\nsamples = 39\nvalue = 76.112", fillcolor="#e78946"] ;
45 -> 49 ;
50 [label="mse = 0.0\nsamples = 3\nvalue = 0.0", fillcolor="#ffffff"] ;
49 -> 50 ;
51 [label="mse = 38.816\nsamples = 36\nvalue = 81.454", fillcolor="#e58139"] ;
49 -> 51 ;
52 [label="X[3] <= 19223.5\nmse = 172.537\nsamples = 8325\nvalue = 8.246", fillcolor="#fcf2eb"] ;
44 -> 52 ;
53 [label="X[5] <= 15230.5\nmse = 160.361\nsamples = 7627\nvalue = 7.759", fillcolor="#fdf3ec"] ;
52 -> 53 ;
54 [label="mse = 97.314\nsamples = 42\nvalue = 29.599", fillcolor="#f6d1b7"] ;
53 -> 54 ;
55 [label="mse = 157.965\nsamples = 7585\nvalue = 7.634", fillcolor="#fdf3ec"] ;
53 -> 55 ;
56 [label="X[3] <= 19271.5\nmse = 273.84\nsamples = 698\nvalue = 13.5", fillcolor="#fbeade"] ;
52 -> 56 ;
57 [label="mse = 402.813\nsamples = 297\nvalue = 20.884", fillcolor="#f8dfcc"] ;
56 -> 57 ;
58 [label="mse = 112.059\nsamples = 401\nvalue = 8.144", fillcolor="#fcf2eb"] ;
56 -> 58 ;
59 [label="X[6] <= 20439.0\nmse = 625.652\nsamples = 77\nvalue = 31.725", fillcolor="#f5ceb2"] ;
43 -> 59 ;
60 [label="mse = 0.0\nsamples = 11\nvalue = 79.41", fillcolor="#e6843e"] ;
59 -> 60 ;
61 [label="X[6] <= 21741.5\nmse = 195.102\nsamples = 66\nvalue = 22.003", fillcolor="#f8ddca"] ;
59 -> 61 ;
62 [label="X[2] <= 25588.5\nmse = 88.983\nsamples = 54\nvalue = 15.414", fillcolor="#fae7da"] ;
61 -> 62 ;
63 [label="mse = 29.746\nsamples = 23\nvalue = 5.123", fillcolor="#fdf7f3"] ;
62 -> 63 ;
64 [label="mse = 2.245\nsamples = 31\nvalue = 22.732", fillcolor="#f8dcc8"] ;
62 -> 64 ;
65 [label="mse = -0.0\nsamples = 12\nvalue = 41.517", fillcolor="#f2bf9a"] ;
61 -> 65 ;
66 [label="X[1] <= 26000.0\nmse = 286.504\nsamples = 10935\nvalue = 12.762", fillcolor="#fbebe0"] ;
42 -> 66 ;
67 [label="X[0] <= 26750.5\nmse = 353.668\nsamples = 1708\nvalue = 19.04", fillcolor="#f9e2d1"] ;
66 -> 67 ;
68 [label="X[1] <= 25936.5\nmse = 277.294\nsamples = 1082\nvalue = 12.502", fillcolor="#fbece1"] ;
67 -> 68 ;
69 [label="X[0] <= 26617.5\nmse = 230.082\nsamples = 958\nvalue = 10.541", fillcolor="#fcefe5"] ;
68 -> 69 ;
70 [label="mse = 304.562\nsamples = 531\nvalue = 16.007", fillcolor="#fae6d8"] ;
69 -> 70 ;
71 [label="mse = 59.254\nsamples = 427\nvalue = 3.903", fillcolor="#fef9f6"] ;
69 -> 71 ;
72 [label="X[7] <= 15595.0\nmse = 369.968\nsamples = 124\nvalue = 29.0", fillcolor="#f6d2b9"] ;
68 -> 72 ;
73 [label="mse = 100.225\nsamples = 42\nvalue = 5.582", fillcolor="#fdf6f1"] ;
72 -> 73 ;
74 [label="mse = 54.116\nsamples = 82\nvalue = 41.792", fillcolor="#f2be99"] ;
72 -> 74 ;
75 [label="X[0] <= 26850.5\nmse = 285.831\nsamples = 626\nvalue = 30.241", fillcolor="#f5d0b5"] ;
67 -> 75 ;
76 [label="X[7] <= 14508.0\nmse = 246.085\nsamples = 584\nvalue = 32.285", fillcolor="#f5cdb1"] ;
75 -> 76 ;
77 [label="mse = 102.653\nsamples = 169\nvalue = 45.565", fillcolor="#f0b990"] ;
76 -> 77 ;
78 [label="mse = 202.197\nsamples = 415\nvalue = 26.785", fillcolor="#f6d6be"] ;
76 -> 78 ;
79 [label="X[5] <= 18022.5\nmse = 39.062\nsamples = 42\nvalue = 3.583", fillcolor="#fef9f6"] ;
75 -> 79 ;
80 [label="mse = 0.064\nsamples = 28\nvalue = 0.249", fillcolor="#fffffe"] ;
79 -> 80 ;
81 [label="mse = 41.21\nsamples = 14\nvalue = 11.68", fillcolor="#fbede3"] ;
79 -> 81 ;
82 [label="X[2] <= 20048.5\nmse = 264.996\nsamples = 9227\nvalue = 11.578", fillcolor="#fbede3"] ;
66 -> 82 ;
83 [label="X[7] <= 15452.5\nmse = 431.473\nsamples = 203\nvalue = 32.566", fillcolor="#f5cdb0"] ;
82 -> 83 ;
84 [label="X[3] <= 16894.0\nmse = 322.943\nsamples = 181\nvalue = 28.058", fillcolor="#f6d4bb"] ;
83 -> 84 ;
85 [label="mse = 284.44\nsamples = 80\nvalue = 42.282", fillcolor="#f2be98"] ;
84 -> 85 ;
86 [label="mse = 66.199\nsamples = 101\nvalue = 16.79", fillcolor="#fae5d6"] ;
84 -> 86 ;
87 [label="mse = -0.0\nsamples = 22\nvalue = 65.309", fillcolor="#ea9a60"] ;
83 -> 87 ;
88 [label="X[7] <= 17749.0\nmse = 251.385\nsamples = 9024\nvalue = 11.115", fillcolor="#fbeee4"] ;
82 -> 88 ;
89 [label="X[3] <= 19338.0\nmse = 240.797\nsamples = 8797\nvalue = 10.691", fillcolor="#fceee5"] ;
88 -> 89 ;
90 [label="mse = 234.993\nsamples = 8775\nvalue = 10.561", fillcolor="#fcefe5"] ;
89 -> 90 ;
91 [label="mse = 0.0\nsamples = 22\nvalue = 60.352", fillcolor="#eca26c"] ;
89 -> 91 ;
92 [label="X[0] <= 27997.0\nmse = 380.487\nsamples = 227\nvalue = 28.027", fillcolor="#f6d4bb"] ;
88 -> 92 ;
93 [label="mse = 256.275\nsamples = 209\nvalue = 24.545", fillcolor="#f7d9c3"] ;
92 -> 93 ;
94 [label="mse = -0.0\nsamples = 18\nvalue = 69.417", fillcolor="#e99456"] ;
92 -> 94 ;
95 [label="X[0] <= 27215.5\nmse = 104.485\nsamples = 71581\nvalue = 6.383", fillcolor="#fdf5ef"] ;
3 -> 95 ;
96 [label="X[4] <= 17788.0\nmse = 89.713\nsamples = 48544\nvalue = 5.709", fillcolor="#fdf6f1"] ;
95 -> 96 ;
97 [label="X[3] <= 20498.5\nmse = 79.236\nsamples = 36547\nvalue = 5.351", fillcolor="#fdf7f2"] ;
96 -> 97 ;
98 [label="X[3] <= 20497.5\nmse = 106.403\nsamples = 12391\nvalue = 6.407", fillcolor="#fdf5ef"] ;
97 -> 98 ;
99 [label="X[4] <= 16514.5\nmse = 102.581\nsamples = 12353\nvalue = 6.317", fillcolor="#fdf5f0"] ;
98 -> 99 ;
100 [label="X[0] <= 24181.0\nmse = 80.635\nsamples = 7446\nvalue = 5.359", fillcolor="#fdf7f2"] ;
99 -> 100 ;
101 [label="mse = 22.815\nsamples = 1331\nvalue = 2.581", fillcolor="#fefbf9"] ;
100 -> 101 ;
102 [label="mse = 91.172\nsamples = 6115\nvalue = 5.964", fillcolor="#fdf6f1"] ;
100 -> 102 ;
103 [label="X[7] <= 18399.0\nmse = 132.37\nsamples = 4907\nvalue = 7.77", fillcolor="#fdf3ec"] ;
99 -> 103 ;
104 [label="mse = 141.41\nsamples = 4316\nvalue = 8.326", fillcolor="#fcf2eb"] ;
103 -> 104 ;
105 [label="mse = 49.422\nsamples = 591\nvalue = 3.786", fillcolor="#fef9f6"] ;
103 -> 105 ;
106 [label="X[0] <= 11973.0\nmse = 489.389\nsamples = 38\nvalue = 36.242", fillcolor="#f3c7a7"] ;
98 -> 106 ;
107 [label="mse = 0.0\nsamples = 26\nvalue = 51.487", fillcolor="#efaf82"] ;
106 -> 107 ;
108 [label="X[1] <= 25107.5\nmse = 0.228\nsamples = 12\nvalue = 4.146", fillcolor="#fef9f5"] ;
106 -> 108 ;
109 [label="mse = 0.0\nsamples = 6\nvalue = 3.642", fillcolor="#fef9f6"] ;
108 -> 109 ;
110 [label="mse = 0.0\nsamples = 6\nvalue = 4.599", fillcolor="#fef8f4"] ;
108 -> 110 ;
111 [label="X[2] <= 23381.5\nmse = 64.283\nsamples = 24156\nvalue = 4.805", fillcolor="#fdf8f3"] ;
97 -> 111 ;
112 [label="X[2] <= 23375.0\nmse = 77.458\nsamples = 15635\nvalue = 5.506", fillcolor="#fdf6f2"] ;
111 -> 112 ;
113 [label="X[6] <= 19306.5\nmse = 70.565\nsamples = 15577\nvalue = 5.384", fillcolor="#fdf7f2"] ;
112 -> 113 ;
114 [label="mse = 51.219\nsamples = 7274\nvalue = 4.549", fillcolor="#fef8f4"] ;
113 -> 114 ;
115 [label="mse = 86.425\nsamples = 8303\nvalue = 6.119", fillcolor="#fdf6f0"] ;
113 -> 115 ;
116 [label="X[3] <= 21284.5\nmse = 849.262\nsamples = 58\nvalue = 39.177", fillcolor="#f2c2a0"] ;
112 -> 116 ;
117 [label="mse = 0.0\nsamples = 22\nvalue = 75.812", fillcolor="#e78a47"] ;
116 -> 117 ;
118 [label="mse = 92.803\nsamples = 36\nvalue = 17.589", fillcolor="#f9e4d4"] ;
116 -> 118 ;
119 [label="X[1] <= 20782.0\nmse = 37.304\nsamples = 8521\nvalue = 3.507", fillcolor="#fefaf6"] ;
111 -> 119 ;
120 [label="X[6] <= 19470.5\nmse = 5.38\nsamples = 668\nvalue = 1.349", fillcolor="#fffdfc"] ;
119 -> 120 ;
121 [label="mse = 1.028\nsamples = 352\nvalue = 0.633", fillcolor="#fffefd"] ;
120 -> 121 ;
122 [label="mse = 8.936\nsamples = 316\nvalue = 2.126", fillcolor="#fefcfa"] ;
120 -> 122 ;
123 [label="X[1] <= 20796.0\nmse = 39.643\nsamples = 7853\nvalue = 3.695", fillcolor="#fef9f6"] ;
119 -> 123 ;
124 [label="mse = 290.563\nsamples = 15\nvalue = 27.724", fillcolor="#f6d4bc"] ;
123 -> 124 ;
125 [label="mse = 38.428\nsamples = 7838\nvalue = 3.659", fillcolor="#fef9f6"] ;
123 -> 125 ;
126 [label="X[3] <= 21228.5\nmse = 120.17\nsamples = 11997\nvalue = 6.801", fillcolor="#fdf4ee"] ;
96 -> 126 ;
127 [label="X[1] <= 25729.0\nmse = 168.579\nsamples = 3679\nvalue = 8.976", fillcolor="#fcf1e9"] ;
126 -> 127 ;
128 [label="X[3] <= 20034.5\nmse = 119.007\nsamples = 2310\nvalue = 6.917", fillcolor="#fdf4ee"] ;
127 -> 128 ;
129 [label="X[1] <= 21782.5\nmse = 257.33\nsamples = 84\nvalue = 20.376", fillcolor="#f8dfcd"] ;
128 -> 129 ;
130 [label="mse = 28.203\nsamples = 40\nvalue = 7.181", fillcolor="#fdf4ee"] ;
129 -> 130 ;
131 [label="mse = 155.407\nsamples = 44\nvalue = 32.77", fillcolor="#f5ccaf"] ;
129 -> 131 ;
132 [label="X[2] <= 24562.0\nmse = 107.057\nsamples = 2226\nvalue = 6.424", fillcolor="#fdf5ef"] ;
128 -> 132 ;
133 [label="mse = 80.101\nsamples = 1794\nvalue = 5.481", fillcolor="#fdf7f2"] ;
132 -> 133 ;
134 [label="mse = 200.251\nsamples = 432\nvalue = 10.352", fillcolor="#fcefe6"] ;
132 -> 134 ;
135 [label="X[1] <= 25796.0\nmse = 232.301\nsamples = 1369\nvalue = 12.404", fillcolor="#fbece1"] ;
127 -> 135 ;
136 [label="X[5] <= 22709.0\nmse = 359.175\nsamples = 75\nvalue = 40.286", fillcolor="#f2c19d"] ;
135 -> 136 ;
137 [label="mse = 108.551\nsamples = 64\nvalue = 46.91", fillcolor="#f0b68d"] ;
136 -> 137 ;
138 [label="mse = -0.0\nsamples = 11\nvalue = 0.129", fillcolor="#ffffff"] ;
136 -> 138 ;
139 [label="X[7] <= 19822.0\nmse = 180.41\nsamples = 1294\nvalue = 10.876", fillcolor="#fceee5"] ;
135 -> 139 ;
140 [label="mse = 166.976\nsamples = 1174\nvalue = 9.811", fillcolor="#fcf0e7"] ;
139 -> 140 ;
141 [label="mse = 192.059\nsamples = 120\nvalue = 21.308", fillcolor="#f8decb"] ;
139 -> 141 ;
142 [label="X[4] <= 17882.0\nmse = 95.786\nsamples = 8318\nvalue = 5.841", fillcolor="#fdf6f1"] ;
126 -> 142 ;
143 [label="X[4] <= 17880.5\nmse = 231.204\nsamples = 777\nvalue = 10.459", fillcolor="#fcefe6"] ;
142 -> 143 ;
144 [label="X[3] <= 21803.5\nmse = 150.69\nsamples = 759\nvalue = 8.894", fillcolor="#fcf1e9"] ;
143 -> 144 ;
145 [label="mse = 97.502\nsamples = 687\nvalue = 7.342", fillcolor="#fdf4ed"] ;
144 -> 145 ;
146 [label="mse = 410.761\nsamples = 72\nvalue = 22.499", fillcolor="#f8dcc8"] ;
144 -> 146 ;
147 [label="mse = -0.0\nsamples = 18\nvalue = 64.609", fillcolor="#ea9b62"] ;
143 -> 147 ;
148 [label="X[4] <= 19184.0\nmse = 79.113\nsamples = 7541\nvalue = 5.357", fillcolor="#fdf7f2"] ;
142 -> 148 ;
149 [label="X[6] <= 23051.0\nmse = 55.135\nsamples = 6386\nvalue = 4.722", fillcolor="#fdf8f4"] ;
148 -> 149 ;
150 [label="mse = 53.872\nsamples = 6314\nvalue = 4.593", fillcolor="#fef8f4"] ;
149 -> 150 ;
151 [label="mse = 46.163\nsamples = 72\nvalue = 15.282", fillcolor="#fae7da"] ;
149 -> 151 ;
152 [label="X[2] <= 26170.5\nmse = 198.349\nsamples = 1155\nvalue = 8.91", fillcolor="#fcf1e9"] ;
148 -> 152 ;
153 [label="mse = 99.872\nsamples = 1067\nvalue = 6.454", fillcolor="#fdf5ef"] ;
152 -> 153 ;
154 [label="mse = 425.131\nsamples = 88\nvalue = 39.004", fillcolor="#f3c3a0"] ;
152 -> 154 ;
155 [label="X[7] <= 18645.5\nmse = 132.53\nsamples = 23037\nvalue = 7.796", fillcolor="#fdf3ec"] ;
95 -> 155 ;
156 [label="X[3] <= 20905.0\nmse = 116.624\nsamples = 17673\nvalue = 7.022", fillcolor="#fdf4ee"] ;
155 -> 156 ;
157 [label="X[6] <= 17861.5\nmse = 144.987\nsamples = 8861\nvalue = 8.444", fillcolor="#fcf2ea"] ;
156 -> 157 ;
158 [label="X[0] <= 27806.0\nmse = 61.19\nsamples = 2362\nvalue = 5.163", fillcolor="#fdf7f2"] ;
157 -> 158 ;
159 [label="X[3] <= 19540.5\nmse = 79.918\nsamples = 1362\nvalue = 7.02", fillcolor="#fdf4ee"] ;
158 -> 159 ;
160 [label="mse = 107.964\nsamples = 204\nvalue = 12.847", fillcolor="#fbebe0"] ;
159 -> 160 ;
161 [label="mse = 67.293\nsamples = 1158\nvalue = 5.943", fillcolor="#fdf6f1"] ;
159 -> 161 ;
162 [label="X[2] <= 25205.5\nmse = 22.885\nsamples = 1000\nvalue = 2.535", fillcolor="#fefbf9"] ;
158 -> 162 ;
163 [label="mse = 40.267\nsamples = 367\nvalue = 4.651", fillcolor="#fef8f4"] ;
162 -> 163 ;
164 [label="mse = 8.302\nsamples = 633\nvalue = 1.276", fillcolor="#fffdfc"] ;
162 -> 164 ;
165 [label="X[5] <= 20824.0\nmse = 170.347\nsamples = 6499\nvalue = 9.648", fillcolor="#fcf0e8"] ;
157 -> 165 ;
166 [label="X[5] <= 20770.5\nmse = 185.419\nsamples = 3402\nvalue = 12.142", fillcolor="#fbece1"] ;
165 -> 166 ;
167 [label="mse = 174.24\nsamples = 3261\nvalue = 11.668", fillcolor="#fbede3"] ;
166 -> 167 ;
168 [label="mse = 318.175\nsamples = 141\nvalue = 22.995", fillcolor="#f8dbc7"] ;
166 -> 168 ;
169 [label="X[4] <= 17412.5\nmse = 140.149\nsamples = 3097\nvalue = 6.958", fillcolor="#fdf4ee"] ;
165 -> 169 ;
170 [label="mse = 106.97\nsamples = 2707\nvalue = 5.703", fillcolor="#fdf6f1"] ;
169 -> 170 ;
171 [label="mse = 285.629\nsamples = 390\nvalue = 15.917", fillcolor="#fae6d8"] ;
169 -> 171 ;
172 [label="X[3] <= 21845.5\nmse = 84.041\nsamples = 8812\nvalue = 5.593", fillcolor="#fdf6f1"] ;
156 -> 172 ;
173 [label="X[7] <= 16865.5\nmse = 75.908\nsamples = 8712\nvalue = 5.407", fillcolor="#fdf7f2"] ;
172 -> 173 ;
174 [label="X[0] <= 27282.0\nmse = 17.278\nsamples = 1784\nvalue = 2.821", fillcolor="#fefbf8"] ;
173 -> 174 ;
175 [label="mse = 48.194\nsamples = 175\nvalue = 5.468", fillcolor="#fdf7f2"] ;
174 -> 175 ;
176 [label="mse = 13.241\nsamples = 1609\nvalue = 2.545", fillcolor="#fefbf9"] ;
174 -> 176 ;
177 [label="X[2] <= 20741.0\nmse = 88.515\nsamples = 6928\nvalue = 6.056", fillcolor="#fdf6f0"] ;
173 -> 177 ;
178 [label="mse = 0.0\nsamples = 20\nvalue = 47.349", fillcolor="#f0b68c"] ;
177 -> 178 ;
179 [label="mse = 84.706\nsamples = 6908\nvalue = 5.959", fillcolor="#fdf6f1"] ;
177 -> 179 ;
180 [label="X[4] <= 16845.5\nmse = 540.041\nsamples = 100\nvalue = 23.295", fillcolor="#f8dbc6"] ;
172 -> 180 ;
181 [label="mse = 0.0\nsamples = 35\nvalue = 56.008", fillcolor="#eda877"] ;
180 -> 181 ;
182 [label="X[3] <= 21853.0\nmse = 47.2\nsamples = 65\nvalue = 7.765", fillcolor="#fdf3ec"] ;
180 -> 182 ;
183 [label="mse = 0.023\nsamples = 31\nvalue = 0.24", fillcolor="#fffffe"] ;
182 -> 183 ;
184 [label="mse = 0.0\nsamples = 34\nvalue = 14.036", fillcolor="#fbe9dd"] ;
182 -> 184 ;
185 [label="X[2] <= 28411.0\nmse = 176.634\nsamples = 5364\nvalue = 10.359", fillcolor="#fcefe6"] ;
155 -> 185 ;
186 [label="X[1] <= 26705.5\nmse = 161.732\nsamples = 5283\nvalue = 9.936", fillcolor="#fcf0e7"] ;
185 -> 186 ;
187 [label="X[1] <= 26689.0\nmse = 265.202\nsamples = 335\nvalue = 20.194", fillcolor="#f9e0ce"] ;
186 -> 187 ;
188 [label="X[0] <= 27237.0\nmse = 141.105\nsamples = 229\nvalue = 12.518", fillcolor="#fbece1"] ;
187 -> 188 ;
189 [label="mse = 104.976\nsamples = 140\nvalue = 18.951", fillcolor="#f9e2d1"] ;
188 -> 189 ;
190 [label="mse = 49.991\nsamples = 89\nvalue = 3.372", fillcolor="#fefaf7"] ;
188 -> 190 ;
191 [label="X[3] <= 21703.5\nmse = 159.886\nsamples = 106\nvalue = 35.546", fillcolor="#f4c8a9"] ;
187 -> 191 ;
192 [label="mse = 17.693\nsamples = 86\nvalue = 41.299", fillcolor="#f2bf9b"] ;
191 -> 192 ;
193 [label="mse = -0.0\nsamples = 20\nvalue = 10.263", fillcolor="#fcefe6"] ;
191 -> 193 ;
194 [label="X[5] <= 21074.0\nmse = 147.011\nsamples = 4948\nvalue = 9.237", fillcolor="#fcf1e9"] ;
186 -> 194 ;
195 [label="X[3] <= 21469.0\nmse = 207.48\nsamples = 981\nvalue = 14.276", fillcolor="#fae9dc"] ;
194 -> 195 ;
196 [label="mse = 215.77\nsamples = 565\nvalue = 19.744", fillcolor="#f9e0cf"] ;
195 -> 196 ;
197 [label="mse = 109.124\nsamples = 416\nvalue = 7.254", fillcolor="#fdf4ed"] ;
195 -> 197 ;
198 [label="X[5] <= 23321.5\nmse = 123.623\nsamples = 3967\nvalue = 7.96", fillcolor="#fcf3ec"] ;
194 -> 198 ;
199 [label="mse = 116.367\nsamples = 3820\nvalue = 7.559", fillcolor="#fdf3ed"] ;
198 -> 199 ;
200 [label="mse = 198.954\nsamples = 147\nvalue = 18.502", fillcolor="#f9e2d2"] ;
198 -> 200 ;
201 [label="X[6] <= 20595.5\nmse = 366.943\nsamples = 81\nvalue = 38.413", fillcolor="#f3c4a2"] ;
185 -> 201 ;
202 [label="mse = 0.0\nsamples = 14\nvalue = 0.641", fillcolor="#fffefd"] ;
201 -> 202 ;
203 [label="X[5] <= 22756.5\nmse = 78.916\nsamples = 67\nvalue = 46.404", fillcolor="#f0b78e"] ;
201 -> 203 ;
204 [label="X[2] <= 28482.5\nmse = 12.748\nsamples = 34\nvalue = 54.634", fillcolor="#eeaa7a"] ;
203 -> 204 ;
205 [label="mse = 0.0\nsamples = 13\nvalue = 59.007", fillcolor="#eca470"] ;
204 -> 205 ;
206 [label="mse = 0.0\nsamples = 21\nvalue = 51.719", fillcolor="#eeaf81"] ;
204 -> 206 ;
207 [label="X[4] <= 17941.5\nmse = 19.375\nsamples = 33\nvalue = 38.783", fillcolor="#f3c3a1"] ;
203 -> 207 ;
208 [label="mse = 0.0\nsamples = 26\nvalue = 41.387", fillcolor="#f2bf9a"] ;
207 -> 208 ;
209 [label="mse = 0.0\nsamples = 7\nvalue = 31.342", fillcolor="#f5cfb3"] ;
207 -> 209 ;
210 [label="X[0] <= 25710.5\nmse = 1.014\nsamples = 13751\nvalue = 0.192", fillcolor="#ffffff"] ;
2 -> 210 ;
211 [label="X[5] <= 23563.5\nmse = 0.086\nsamples = 13162\nvalue = 0.062", fillcolor="#ffffff"] ;
210 -> 211 ;
212 [label="X[1] <= 24986.5\nmse = 0.688\nsamples = 504\nvalue = 0.688", fillcolor="#fffefd"] ;
211 -> 212 ;
213 [label="X[2] <= 22512.5\nmse = 0.361\nsamples = 337\nvalue = 0.409", fillcolor="#fffefe"] ;
212 -> 213 ;
214 [label="X[6] <= 23284.0\nmse = 0.113\nsamples = 152\nvalue = 0.138", fillcolor="#ffffff"] ;
213 -> 214 ;
215 [label="mse = 0.215\nsamples = 11\nvalue = 1.135", fillcolor="#fffdfc"] ;
214 -> 215 ;
216 [label="X[0] <= 25327.0\nmse = 0.042\nsamples = 141\nvalue = 0.076", fillcolor="#ffffff"] ;
214 -> 216 ;
217 [label="X[3] <= 21429.0\nmse = 0.014\nsamples = 129\nvalue = 0.033", fillcolor="#ffffff"] ;
216 -> 217 ;
218 [label="mse = 0.042\nsamples = 37\nvalue = 0.115", fillcolor="#ffffff"] ;
217 -> 218 ;
219 [label="mse = 0.0\nsamples = 92\nvalue = 0.002", fillcolor="#ffffff"] ;
217 -> 219 ;
220 [label="mse = 0.106\nsamples = 12\nvalue = 0.544", fillcolor="#fffefe"] ;
216 -> 220 ;
221 [label="X[2] <= 22567.0\nmse = 0.455\nsamples = 185\nvalue = 0.636", fillcolor="#fffefd"] ;
213 -> 221 ;
222 [label="X[6] <= 23430.5\nmse = 0.591\nsamples = 18\nvalue = 1.357", fillcolor="#fffdfc"] ;
221 -> 222 ;
223 [label="mse = 0.391\nsamples = 11\nvalue = 1.769", fillcolor="#fefcfb"] ;
222 -> 223 ;
224 [label="mse = 0.095\nsamples = 7\nvalue = 0.616", fillcolor="#fffefe"] ;
222 -> 224 ;
225 [label="X[2] <= 24812.5\nmse = 0.378\nsamples = 167\nvalue = 0.558", fillcolor="#fffefe"] ;
221 -> 225 ;
226 [label="X[4] <= 18115.5\nmse = 0.372\nsamples = 148\nvalue = 0.476", fillcolor="#fffefe"] ;
225 -> 226 ;
227 [label="mse = 0.861\nsamples = 28\nvalue = 0.987", fillcolor="#fffdfd"] ;
226 -> 227 ;
228 [label="mse = 0.223\nsamples = 120\nvalue = 0.38", fillcolor="#fffefe"] ;
226 -> 228 ;
229 [label="X[4] <= 21383.0\nmse = 0.001\nsamples = 19\nvalue = 1.165", fillcolor="#fffdfc"] ;
225 -> 229 ;
230 [label="mse = 0.001\nsamples = 13\nvalue = 1.179", fillcolor="#fffdfc"] ;
229 -> 230 ;
231 [label="mse = 0.0\nsamples = 6\nvalue = 1.126", fillcolor="#fffdfc"] ;
229 -> 231 ;
232 [label="X[2] <= 22798.0\nmse = 0.866\nsamples = 167\nvalue = 1.273", fillcolor="#fffdfc"] ;
212 -> 232 ;
233 [label="X[5] <= 23308.5\nmse = 0.503\nsamples = 93\nvalue = 1.866", fillcolor="#fefcfa"] ;
232 -> 233 ;
234 [label="X[3] <= 21828.5\nmse = 0.255\nsamples = 53\nvalue = 2.244", fillcolor="#fefcfa"] ;
233 -> 234 ;
235 [label="X[7] <= 21620.0\nmse = 0.127\nsamples = 51\nvalue = 2.302", fillcolor="#fefbf9"] ;
234 -> 235 ;
236 [label="mse = 0.06\nsamples = 35\nvalue = 2.103", fillcolor="#fefcfa"] ;
235 -> 236 ;
237 [label="mse = 0.013\nsamples = 16\nvalue = 2.715", fillcolor="#fefbf8"] ;
235 -> 237 ;
238 [label="mse = 0.0\nsamples = 2\nvalue = 0.0", fillcolor="#ffffff"] ;
234 -> 238 ;
239 [label="X[3] <= 21405.0\nmse = 0.377\nsamples = 40\nvalue = 1.343", fillcolor="#fffdfc"] ;
233 -> 239 ;
240 [label="X[2] <= 22611.0\nmse = 0.058\nsamples = 13\nvalue = 2.021", fillcolor="#fefcfa"] ;
239 -> 240 ;
241 [label="mse = 0.0\nsamples = 4\nvalue = 2.439", fillcolor="#fefbf9"] ;
240 -> 241 ;
242 [label="mse = 0.0\nsamples = 9\nvalue = 1.881", fillcolor="#fefcfa"] ;
240 -> 242 ;
243 [label="X[3] <= 21443.0\nmse = 0.167\nsamples = 27\nvalue = 0.977", fillcolor="#fffdfd"] ;
239 -> 243 ;
244 [label="mse = 0.0\nsamples = 2\nvalue = 0.0", fillcolor="#ffffff"] ;
243 -> 244 ;
245 [label="mse = 0.057\nsamples = 25\nvalue = 1.096", fillcolor="#fffdfc"] ;
243 -> 245 ;
246 [label="X[7] <= 20524.5\nmse = 0.402\nsamples = 74\nvalue = 0.583", fillcolor="#fffefe"] ;
232 -> 246 ;
247 [label="X[4] <= 17088.5\nmse = 0.118\nsamples = 11\nvalue = 1.7", fillcolor="#fefcfb"] ;
246 -> 247 ;
248 [label="mse = 0.0\nsamples = 5\nvalue = 2.044", fillcolor="#fefcfa"] ;
247 -> 248 ;
249 [label="mse = 0.0\nsamples = 6\nvalue = 1.357", fillcolor="#fffdfc"] ;
247 -> 249 ;
250 [label="X[4] <= 19183.0\nmse = 0.248\nsamples = 63\nvalue = 0.431", fillcolor="#fffefe"] ;
246 -> 250 ;
251 [label="X[4] <= 17645.5\nmse = 0.031\nsamples = 33\nvalue = 0.077", fillcolor="#ffffff"] ;
250 -> 251 ;
252 [label="mse = 0.0\nsamples = 5\nvalue = 0.337", fillcolor="#fffefe"] ;
251 -> 252 ;
253 [label="mse = 0.019\nsamples = 28\nvalue = 0.021", fillcolor="#ffffff"] ;
251 -> 253 ;
254 [label="X[7] <= 21997.5\nmse = 0.179\nsamples = 30\nvalue = 0.852", fillcolor="#fffefd"] ;
250 -> 254 ;
255 [label="mse = 0.0\nsamples = 8\nvalue = 1.455", fillcolor="#fffdfb"] ;
254 -> 255 ;
256 [label="mse = 0.089\nsamples = 22\nvalue = 0.668", fillcolor="#fffefd"] ;
254 -> 256 ;
257 [label="X[0] <= 20995.5\nmse = 0.046\nsamples = 12658\nvalue = 0.037", fillcolor="#ffffff"] ;
211 -> 257 ;
258 [label="X[2] <= 21037.5\nmse = 0.296\nsamples = 1009\nvalue = 0.314", fillcolor="#fffffe"] ;
257 -> 258 ;
259 [label="mse = 0.0\nsamples = 442\nvalue = 0.0", fillcolor="#ffffff"] ;
258 -> 259 ;
260 [label="X[2] <= 21489.0\nmse = 0.391\nsamples = 567\nvalue = 0.564", fillcolor="#fffefe"] ;
258 -> 260 ;
261 [label="X[4] <= 22283.5\nmse = 0.581\nsamples = 251\nvalue = 0.861", fillcolor="#fffefd"] ;
260 -> 261 ;
262 [label="X[5] <= 23878.5\nmse = 0.604\nsamples = 201\nvalue = 1.007", fillcolor="#fffdfd"] ;
261 -> 262 ;
263 [label="mse = 0.775\nsamples = 94\nvalue = 1.242", fillcolor="#fffdfc"] ;
262 -> 263 ;
264 [label="mse = 0.369\nsamples = 107\nvalue = 0.805", fillcolor="#fffefd"] ;
262 -> 264 ;
265 [label="X[2] <= 21148.0\nmse = 0.023\nsamples = 50\nvalue = 0.251", fillcolor="#fffffe"] ;
261 -> 265 ;
266 [label="mse = 0.001\nsamples = 34\nvalue = 0.345", fillcolor="#fffefe"] ;
265 -> 266 ;
267 [label="mse = 0.015\nsamples = 16\nvalue = 0.076", fillcolor="#ffffff"] ;
265 -> 267 ;
268 [label="X[5] <= 24226.0\nmse = 0.121\nsamples = 316\nvalue = 0.334", fillcolor="#fffefe"] ;
260 -> 268 ;
269 [label="X[2] <= 24007.5\nmse = 0.089\nsamples = 306\nvalue = 0.307", fillcolor="#fffffe"] ;
268 -> 269 ;
270 [label="mse = 0.077\nsamples = 297\nvalue = 0.286", fillcolor="#fffffe"] ;
269 -> 270 ;
271 [label="mse = 0.0\nsamples = 9\nvalue = 1.0", fillcolor="#fffdfd"] ;
269 -> 271 ;
272 [label="X[4] <= 21919.0\nmse = 0.453\nsamples = 10\nvalue = 1.07", fillcolor="#fffdfc"] ;
268 -> 272 ;
273 [label="mse = 0.0\nsamples = 3\nvalue = 1.879", fillcolor="#fefcfa"] ;
272 -> 273 ;
274 [label="mse = 0.148\nsamples = 7\nvalue = 0.629", fillcolor="#fffefd"] ;
272 -> 274 ;
275 [label="X[3] <= 21823.5\nmse = 0.018\nsamples = 11649\nvalue = 0.014", fillcolor="#ffffff"] ;
257 -> 275 ;
276 [label="X[5] <= 23780.5\nmse = 0.014\nsamples = 11534\nvalue = 0.011", fillcolor="#ffffff"] ;
275 -> 276 ;
277 [label="X[5] <= 23779.5\nmse = 0.114\nsamples = 745\nvalue = 0.104", fillcolor="#ffffff"] ;
276 -> 277 ;
278 [label="X[2] <= 21619.5\nmse = 0.032\nsamples = 726\nvalue = 0.067", fillcolor="#ffffff"] ;
277 -> 278 ;
279 [label="mse = 0.0\nsamples = 440\nvalue = 0.0", fillcolor="#ffffff"] ;
278 -> 279 ;
280 [label="mse = 0.066\nsamples = 286\nvalue = 0.176", fillcolor="#ffffff"] ;
278 -> 280 ;
281 [label="mse = 1.233\nsamples = 19\nvalue = 1.377", fillcolor="#fffdfc"] ;
277 -> 281 ;
282 [label="X[3] <= 21571.5\nmse = 0.007\nsamples = 10789\nvalue = 0.004", fillcolor="#ffffff"] ;
276 -> 282 ;
283 [label="X[4] <= 22488.5\nmse = 0.0\nsamples = 10168\nvalue = 0.001", fillcolor="#ffffff"] ;
282 -> 283 ;
284 [label="mse = 0.0\nsamples = 10106\nvalue = 0.001", fillcolor="#ffffff"] ;
283 -> 284 ;
285 [label="mse = 0.01\nsamples = 62\nvalue = 0.034", fillcolor="#ffffff"] ;
283 -> 285 ;
286 [label="X[7] <= 22175.0\nmse = 0.103\nsamples = 621\nvalue = 0.06", fillcolor="#ffffff"] ;
282 -> 286 ;
287 [label="mse = 0.0\nsamples = 10\nvalue = 1.692", fillcolor="#fefcfb"] ;
286 -> 287 ;
288 [label="mse = 0.067\nsamples = 611\nvalue = 0.037", fillcolor="#ffffff"] ;
286 -> 288 ;
289 [label="X[6] <= 24603.0\nmse = 0.325\nsamples = 115\nvalue = 0.318", fillcolor="#fffffe"] ;
275 -> 289 ;
290 [label="X[6] <= 24565.0\nmse = 0.441\nsamples = 65\nvalue = 0.58", fillcolor="#fffefe"] ;
289 -> 290 ;
291 [label="X[6] <= 24412.5\nmse = 0.106\nsamples = 39\nvalue = 0.275", fillcolor="#fffffe"] ;
290 -> 291 ;
292 [label="mse = 0.061\nsamples = 17\nvalue = 0.549", fillcolor="#fffefe"] ;
291 -> 292 ;
293 [label="mse = 0.0\nsamples = 22\nvalue = 0.0", fillcolor="#ffffff"] ;
291 -> 293 ;
294 [label="X[1] <= 22699.5\nmse = 0.585\nsamples = 26\nvalue = 1.089", fillcolor="#fffdfc"] ;
290 -> 294 ;
295 [label="mse = 0.0\nsamples = 9\nvalue = 1.279", fillcolor="#fffdfc"] ;
294 -> 295 ;
296 [label="mse = 0.884\nsamples = 17\nvalue = 0.982", fillcolor="#fffdfd"] ;
294 -> 296 ;
297 [label="mse = 0.0\nsamples = 50\nvalue = 0.0", fillcolor="#ffffff"] ;
289 -> 297 ;
298 [label="X[2] <= 23552.0\nmse = 12.745\nsamples = 589\nvalue = 3.026", fillcolor="#fefaf8"] ;
210 -> 298 ;
299 [label="X[7] <= 20419.0\nmse = 13.666\nsamples = 385\nvalue = 4.193", fillcolor="#fef9f5"] ;
298 -> 299 ;
300 [label="X[3] <= 21153.5\nmse = 12.291\nsamples = 26\nvalue = 10.032", fillcolor="#fcefe7"] ;
299 -> 300 ;
301 [label="mse = 0.0\nsamples = 5\nvalue = 16.102", fillcolor="#fae6d8"] ;
300 -> 301 ;
302 [label="X[2] <= 22571.5\nmse = 1.347\nsamples = 21\nvalue = 8.177", fillcolor="#fcf2eb"] ;
300 -> 302 ;
303 [label="X[6] <= 23184.5\nmse = 0.383\nsamples = 4\nvalue = 5.888", fillcolor="#fdf6f1"] ;
302 -> 303 ;
304 [label="mse = 0.0\nsamples = 3\nvalue = 6.279", fillcolor="#fdf5f0"] ;
303 -> 304 ;
305 [label="mse = 0.0\nsamples = 1\nvalue = 4.91", fillcolor="#fdf7f3"] ;
303 -> 305 ;
306 [label="X[6] <= 23251.0\nmse = 0.009\nsamples = 17\nvalue = 8.73", fillcolor="#fcf1ea"] ;
302 -> 306 ;
307 [label="mse = 0.0\nsamples = 2\nvalue = 8.519", fillcolor="#fcf2ea"] ;
306 -> 307 ;
308 [label="mse = 0.0\nsamples = 15\nvalue = 8.774", fillcolor="#fcf1ea"] ;
306 -> 308 ;
309 [label="X[2] <= 21951.0\nmse = 10.801\nsamples = 359\nvalue = 3.721", fillcolor="#fef9f6"] ;
299 -> 309 ;
310 [label="X[5] <= 23342.0\nmse = 3.609\nsamples = 127\nvalue = 5.683", fillcolor="#fdf6f1"] ;
309 -> 310 ;
311 [label="X[7] <= 20731.0\nmse = 1.104\nsamples = 23\nvalue = 2.761", fillcolor="#fefbf8"] ;
310 -> 311 ;
312 [label="mse = 0.0\nsamples = 11\nvalue = 1.776", fillcolor="#fefcfb"] ;
311 -> 312 ;
313 [label="X[4] <= 17604.0\nmse = 0.056\nsamples = 12\nvalue = 3.855", fillcolor="#fef9f6"] ;
311 -> 313 ;
314 [label="mse = 0.0\nsamples = 6\nvalue = 3.618", fillcolor="#fef9f6"] ;
313 -> 314 ;
315 [label="mse = 0.0\nsamples = 6\nvalue = 4.091", fillcolor="#fef9f5"] ;
313 -> 315 ;
316 [label="X[5] <= 23579.0\nmse = 1.808\nsamples = 104\nvalue = 6.344", fillcolor="#fdf5f0"] ;
310 -> 316 ;
317 [label="X[5] <= 23513.0\nmse = 0.947\nsamples = 77\nvalue = 5.817", fillcolor="#fdf6f1"] ;
316 -> 317 ;
318 [label="mse = 0.713\nsamples = 55\nvalue = 6.203", fillcolor="#fdf5f0"] ;
317 -> 318 ;
319 [label="mse = 0.061\nsamples = 22\nvalue = 4.758", fillcolor="#fdf8f3"] ;
317 -> 319 ;
320 [label="X[7] <= 21268.5\nmse = 0.38\nsamples = 27\nvalue = 8.212", fillcolor="#fcf2eb"] ;
316 -> 320 ;
321 [label="mse = 0.0\nsamples = 18\nvalue = 8.638", fillcolor="#fcf2ea"] ;
320 -> 321 ;
322 [label="mse = -0.0\nsamples = 9\nvalue = 7.322", fillcolor="#fdf4ed"] ;
320 -> 322 ;
323 [label="X[5] <= 23449.0\nmse = 11.478\nsamples = 232\nvalue = 2.647", fillcolor="#fefbf9"] ;
309 -> 323 ;
324 [label="X[6] <= 23410.0\nmse = 14.078\nsamples = 121\nvalue = 4.39", fillcolor="#fef8f4"] ;
323 -> 324 ;
325 [label="X[6] <= 23264.5\nmse = 16.267\nsamples = 73\nvalue = 6.271", fillcolor="#fdf5f0"] ;
324 -> 325 ;
326 [label="mse = 3.961\nsamples = 17\nvalue = 2.178", fillcolor="#fefcfa"] ;
325 -> 326 ;
327 [label="mse = 13.794\nsamples = 56\nvalue = 7.392", fillcolor="#fdf4ed"] ;
325 -> 327 ;
328 [label="X[6] <= 23630.5\nmse = 1.89\nsamples = 48\nvalue = 2.104", fillcolor="#fefcfa"] ;
324 -> 328 ;
329 [label="mse = 0.144\nsamples = 18\nvalue = 0.299", fillcolor="#fffffe"] ;
328 -> 329 ;
330 [label="mse = 0.582\nsamples = 30\nvalue = 2.903", fillcolor="#fefbf8"] ;
328 -> 330 ;
331 [label="X[2] <= 23530.5\nmse = 1.872\nsamples = 111\nvalue = 0.768", fillcolor="#fffefd"] ;
323 -> 331 ;
332 [label="X[3] <= 21849.5\nmse = 0.034\nsamples = 90\nvalue = 0.139", fillcolor="#ffffff"] ;
331 -> 332 ;
333 [label="mse = 0.021\nsamples = 88\nvalue = 0.117", fillcolor="#ffffff"] ;
332 -> 333 ;
334 [label="mse = 0.0\nsamples = 2\nvalue = 0.779", fillcolor="#fffefd"] ;
332 -> 334 ;
335 [label="mse = 0.0\nsamples = 21\nvalue = 3.698", fillcolor="#fef9f6"] ;
331 -> 335 ;
336 [label="X[5] <= 23570.5\nmse = 3.404\nsamples = 204\nvalue = 0.795", fillcolor="#fffefd"] ;
298 -> 336 ;
337 [label="X[6] <= 23337.5\nmse = 4.577\nsamples = 40\nvalue = 3.904", fillcolor="#fef9f6"] ;
336 -> 337 ;
338 [label="X[5] <= 23468.5\nmse = 0.441\nsamples = 20\nvalue = 5.939", fillcolor="#fdf6f1"] ;
337 -> 338 ;
339 [label="X[3] <= 21324.0\nmse = 0.121\nsamples = 4\nvalue = 4.544", fillcolor="#fef8f4"] ;
338 -> 339 ;
340 [label="mse = 0.0\nsamples = 2\nvalue = 4.126", fillcolor="#fef9f5"] ;
339 -> 340 ;
341 [label="X[1] <= 26973.0\nmse = 0.007\nsamples = 2\nvalue = 4.823", fillcolor="#fdf8f3"] ;
339 -> 341 ;
342 [label="mse = 0.0\nsamples = 1\nvalue = 4.939", fillcolor="#fdf7f3"] ;
341 -> 342 ;
343 [label="mse = 0.0\nsamples = 1\nvalue = 4.764", fillcolor="#fdf8f3"] ;
341 -> 343 ;
344 [label="X[5] <= 23524.5\nmse = 0.018\nsamples = 16\nvalue = 6.23", fillcolor="#fdf5f0"] ;
338 -> 344 ;
345 [label="mse = 0.0\nsamples = 6\nvalue = 6.402", fillcolor="#fdf5ef"] ;
344 -> 345 ;
346 [label="mse = 0.0\nsamples = 10\nvalue = 6.127", fillcolor="#fdf6f0"] ;
344 -> 346 ;
347 [label="X[6] <= 23569.0\nmse = 2.162\nsamples = 20\nvalue = 2.352", fillcolor="#fefbf9"] ;
337 -> 347 ;
348 [label="X[1] <= 26555.5\nmse = 0.748\nsamples = 8\nvalue = 0.671", fillcolor="#fffefd"] ;
347 -> 348 ;
349 [label="X[2] <= 24234.0\nmse = 0.183\nsamples = 3\nvalue = 1.677", fillcolor="#fefcfb"] ;
348 -> 349 ;
350 [label="mse = 0.0\nsamples = 2\nvalue = 2.104", fillcolor="#fefcfa"] ;
349 -> 350 ;
351 [label="mse = 0.0\nsamples = 1\nvalue = 1.25", fillcolor="#fffdfc"] ;
349 -> 351 ;
352 [label="mse = 0.0\nsamples = 5\nvalue = 0.0", fillcolor="#ffffff"] ;
348 -> 352 ;
353 [label="X[3] <= 21821.0\nmse = 0.04\nsamples = 12\nvalue = 3.448", fillcolor="#fefaf7"] ;
347 -> 353 ;
354 [label="X[6] <= 23815.5\nmse = 0.007\nsamples = 10\nvalue = 3.519", fillcolor="#fefaf6"] ;
353 -> 354 ;
355 [label="mse = 0.0\nsamples = 2\nvalue = 3.664", fillcolor="#fef9f6"] ;
354 -> 355 ;
356 [label="mse = 0.0\nsamples = 8\nvalue = 3.471", fillcolor="#fefaf7"] ;
354 -> 356 ;
357 [label="mse = 0.0\nsamples = 2\nvalue = 2.972", fillcolor="#fefaf8"] ;
353 -> 357 ;
358 [label="mse = 0.0\nsamples = 164\nvalue = 0.0", fillcolor="#ffffff"] ;
336 -> 358 ;
359 [label="X[3] <= 24288.5\nmse = 32.442\nsamples = 807743\nvalue = 3.083", fillcolor="#fefaf8"] ;
1 -> 359 ;
360 [label="X[0] <= 25879.5\nmse = 41.795\nsamples = 432470\nvalue = 3.678", fillcolor="#fef9f6"] ;
359 -> 360 ;
361 [label="X[7] <= 22795.5\nmse = 30.29\nsamples = 163728\nvalue = 2.827", fillcolor="#fefbf8"] ;
360 -> 361 ;
362 [label="X[1] <= 22061.0\nmse = 35.121\nsamples = 131555\nvalue = 3.205", fillcolor="#fefaf7"] ;
361 -> 362 ;
363 [label="X[3] <= 23035.5\nmse = 26.156\nsamples = 45679\nvalue = 2.49", fillcolor="#fefbf9"] ;
362 -> 363 ;
364 [label="X[4] <= 19409.5\nmse = 38.405\nsamples = 13851\nvalue = 3.341", fillcolor="#fefaf7"] ;
363 -> 364 ;
365 [label="X[3] <= 22349.5\nmse = 25.209\nsamples = 7699\nvalue = 2.813", fillcolor="#fefbf8"] ;
364 -> 365 ;
366 [label="X[4] <= 18014.5\nmse = 39.088\nsamples = 2989\nvalue = 3.774", fillcolor="#fef9f6"] ;
365 -> 366 ;
367 [label="mse = 15.601\nsamples = 1033\nvalue = 2.273", fillcolor="#fefbf9"] ;
366 -> 367 ;
368 [label="mse = 49.68\nsamples = 1956\nvalue = 4.568", fillcolor="#fef8f4"] ;
366 -> 368 ;
369 [label="X[6] <= 20952.5\nmse = 15.347\nsamples = 4710\nvalue = 2.197", fillcolor="#fefcfa"] ;
365 -> 369 ;
370 [label="mse = 9.925\nsamples = 2366\nvalue = 1.495", fillcolor="#fffdfb"] ;
369 -> 370 ;
371 [label="mse = 19.761\nsamples = 2344\nvalue = 2.896", fillcolor="#fefbf8"] ;
369 -> 371 ;
372 [label="X[0] <= 21295.0\nmse = 54.317\nsamples = 6152\nvalue = 4.011", fillcolor="#fef9f5"] ;
364 -> 372 ;
373 [label="X[1] <= 7568.0\nmse = 28.146\nsamples = 2786\nvalue = 2.68", fillcolor="#fefbf8"] ;
372 -> 373 ;
374 [label="mse = 87.671\nsamples = 251\nvalue = 8.806", fillcolor="#fcf1ea"] ;
373 -> 374 ;
375 [label="mse = 18.042\nsamples = 2535\nvalue = 2.066", fillcolor="#fefcfa"] ;
373 -> 375 ;
376 [label="X[6] <= 23866.0\nmse = 73.437\nsamples = 3366\nvalue = 5.121", fillcolor="#fdf7f3"] ;
372 -> 376 ;
377 [label="mse = 70.925\nsamples = 3307\nvalue = 4.942", fillcolor="#fdf7f3"] ;
376 -> 377 ;
378 [label="mse = 111.572\nsamples = 59\nvalue = 15.185", fillcolor="#fae8da"] ;
376 -> 378 ;
379 [label="X[2] <= 25083.0\nmse = 20.375\nsamples = 31828\nvalue = 2.12", fillcolor="#fefcfa"] ;
363 -> 379 ;
380 [label="X[3] <= 24228.0\nmse = 14.846\nsamples = 21150\nvalue = 1.791", fillcolor="#fefcfb"] ;
379 -> 380 ;
381 [label="X[2] <= 22446.0\nmse = 13.235\nsamples = 20326\nvalue = 1.717", fillcolor="#fefcfb"] ;
380 -> 381 ;
382 [label="mse = 29.516\nsamples = 1651\nvalue = 2.893", fillcolor="#fefbf8"] ;
381 -> 382 ;
383 [label="mse = 11.714\nsamples = 18675\nvalue = 1.617", fillcolor="#fefcfb"] ;
381 -> 383 ;
384 [label="X[6] <= 20057.5\nmse = 51.378\nsamples = 824\nvalue = 3.604", fillcolor="#fef9f6"] ;
380 -> 384 ;
385 [label="mse = 37.136\nsamples = 35\nvalue = 27.972", fillcolor="#f6d4bb"] ;
384 -> 385 ;
386 [label="mse = 22.262\nsamples = 789\nvalue = 2.437", fillcolor="#fefbf9"] ;
384 -> 386 ;
387 [label="X[3] <= 23824.5\nmse = 30.594\nsamples = 10678\nvalue = 2.765", fillcolor="#fefbf8"] ;
379 -> 387 ;
388 [label="X[4] <= 22416.0\nmse = 46.2\nsamples = 5202\nvalue = 3.817", fillcolor="#fef9f6"] ;
387 -> 388 ;
389 [label="mse = 40.583\nsamples = 5096\nvalue = 3.584", fillcolor="#fef9f6"] ;
388 -> 389 ;
390 [label="mse = 187.545\nsamples = 106\nvalue = 14.831", fillcolor="#fae8db"] ;
388 -> 390 ;
391 [label="X[5] <= 23526.5\nmse = 13.639\nsamples = 5476\nvalue = 1.761", fillcolor="#fefcfb"] ;
387 -> 391 ;
392 [label="mse = 7.022\nsamples = 3942\nvalue = 1.21", fillcolor="#fffdfc"] ;
391 -> 392 ;
393 [label="mse = 27.817\nsamples = 1534\nvalue = 3.174", fillcolor="#fefaf7"] ;
391 -> 393 ;
394 [label="X[3] <= 23556.5\nmse = 39.467\nsamples = 85876\nvalue = 3.584", fillcolor="#fef9f6"] ;
362 -> 394 ;
395 [label="X[6] <= 19337.5\nmse = 47.346\nsamples = 48653\nvalue = 3.962", fillcolor="#fef9f5"] ;
394 -> 395 ;
396 [label="X[5] <= 21029.5\nmse = 20.802\nsamples = 2004\nvalue = 1.782", fillcolor="#fefcfb"] ;
395 -> 396 ;
397 [label="X[7] <= 16260.5\nmse = 5.226\nsamples = 1690\nvalue = 1.412", fillcolor="#fffdfc"] ;
396 -> 397 ;
398 [label="mse = 6.612\nsamples = 168\nvalue = 2.993", fillcolor="#fefaf8"] ;
397 -> 398 ;
399 [label="mse = 4.751\nsamples = 1522\nvalue = 1.232", fillcolor="#fffdfc"] ;
397 -> 399 ;
400 [label="X[5] <= 21044.5\nmse = 101.196\nsamples = 314\nvalue = 3.808", fillcolor="#fef9f6"] ;
396 -> 400 ;
401 [label="mse = 43.105\nsamples = 48\nvalue = 13.676", fillcolor="#fbeade"] ;
400 -> 401 ;
402 [label="mse = 89.599\nsamples = 266\nvalue = 1.854", fillcolor="#fefcfa"] ;
400 -> 402 ;
403 [label="X[6] <= 19339.0\nmse = 48.261\nsamples = 46649\nvalue = 4.055", fillcolor="#fef9f5"] ;
395 -> 403 ;
404 [label="mse = 0.0\nsamples = 16\nvalue = 38.717", fillcolor="#f3c3a1"] ;
403 -> 404 ;
405 [label="X[2] <= 21809.0\nmse = 47.902\nsamples = 46633\nvalue = 4.044", fillcolor="#fef9f5"] ;
403 -> 405 ;
406 [label="mse = 108.79\nsamples = 1182\nvalue = 6.668", fillcolor="#fdf5ef"] ;
405 -> 406 ;
407 [label="mse = 46.097\nsamples = 45451\nvalue = 3.974", fillcolor="#fef9f5"] ;
405 -> 407 ;
408 [label="X[4] <= 22054.0\nmse = 28.721\nsamples = 37223\nvalue = 3.089", fillcolor="#fefaf7"] ;
394 -> 408 ;
409 [label="X[2] <= 23737.5\nmse = 26.685\nsamples = 36188\nvalue = 2.994", fillcolor="#fefaf8"] ;
408 -> 409 ;
410 [label="X[2] <= 23731.0\nmse = 46.085\nsamples = 6469\nvalue = 4.025", fillcolor="#fef9f5"] ;
409 -> 410 ;
411 [label="mse = 42.681\nsamples = 6384\nvalue = 3.838", fillcolor="#fef9f6"] ;
410 -> 411 ;
412 [label="mse = 95.033\nsamples = 85\nvalue = 18.688", fillcolor="#f9e2d2"] ;
410 -> 412 ;
413 [label="X[6] <= 24550.5\nmse = 22.219\nsamples = 29719\nvalue = 2.771", fillcolor="#fefbf8"] ;
409 -> 413 ;
414 [label="mse = 19.772\nsamples = 29560\nvalue = 2.734", fillcolor="#fefbf8"] ;
413 -> 414 ;
415 [label="mse = 421.926\nsamples = 159\nvalue = 9.516", fillcolor="#fcf0e8"] ;
413 -> 415 ;
416 [label="X[2] <= 25219.0\nmse = 87.628\nsamples = 1035\nvalue = 6.356", fillcolor="#fdf5f0"] ;
408 -> 416 ;
417 [label="X[3] <= 23644.0\nmse = 42.889\nsamples = 580\nvalue = 4.056", fillcolor="#fef9f5"] ;
416 -> 417 ;
418 [label="mse = 152.974\nsamples = 41\nvalue = 13.459", fillcolor="#fbeade"] ;
417 -> 418 ;
419 [label="mse = 26.025\nsamples = 539\nvalue = 3.285", fillcolor="#fefaf7"] ;
417 -> 419 ;
420 [label="X[6] <= 23270.5\nmse = 128.55\nsamples = 455\nvalue = 9.22", fillcolor="#fcf1e9"] ;
416 -> 420 ;
421 [label="mse = 58.993\nsamples = 291\nvalue = 5.646", fillcolor="#fdf6f1"] ;
420 -> 421 ;
422 [label="mse = 188.523\nsamples = 164\nvalue = 15.396", fillcolor="#fae7da"] ;
420 -> 422 ;
423 [label="X[7] <= 23669.5\nmse = 7.489\nsamples = 32173\nvalue = 1.277", fillcolor="#fffdfc"] ;
361 -> 423 ;
424 [label="X[2] <= 26486.0\nmse = 11.18\nsamples = 18018\nvalue = 1.845", fillcolor="#fefcfb"] ;
423 -> 424 ;
425 [label="X[3] <= 23438.5\nmse = 9.76\nsamples = 17987\nvalue = 1.82", fillcolor="#fefcfb"] ;
424 -> 425 ;
426 [label="X[0] <= 25852.0\nmse = 3.144\nsamples = 4401\nvalue = 0.913", fillcolor="#fffefd"] ;
425 -> 426 ;
427 [label="X[2] <= 23160.0\nmse = 2.568\nsamples = 4351\nvalue = 0.855", fillcolor="#fffefd"] ;
426 -> 427 ;
428 [label="mse = 1.046\nsamples = 2109\nvalue = 0.474", fillcolor="#fffefe"] ;
427 -> 428 ;
429 [label="mse = 3.733\nsamples = 2242\nvalue = 1.213", fillcolor="#fffdfc"] ;
427 -> 429 ;
430 [label="X[1] <= 25566.0\nmse = 27.755\nsamples = 50\nvalue = 6.014", fillcolor="#fdf6f0"] ;
426 -> 430 ;
431 [label="mse = 0.0\nsamples = 14\nvalue = 13.766", fillcolor="#fbeade"] ;
430 -> 431 ;
432 [label="mse = 5.205\nsamples = 36\nvalue = 2.913", fillcolor="#fefaf8"] ;
430 -> 432 ;
433 [label="X[6] <= 24314.5\nmse = 11.532\nsamples = 13586\nvalue = 2.11", fillcolor="#fefcfa"] ;
425 -> 433 ;
434 [label="X[2] <= 25168.5\nmse = 8.218\nsamples = 6485\nvalue = 1.71", fillcolor="#fefcfb"] ;
433 -> 434 ;
435 [label="mse = 5.919\nsamples = 5414\nvalue = 1.521", fillcolor="#fffdfb"] ;
434 -> 435 ;
436 [label="mse = 18.86\nsamples = 1071\nvalue = 2.681", fillcolor="#fefbf8"] ;
434 -> 436 ;
437 [label="X[2] <= 24418.0\nmse = 14.321\nsamples = 7101\nvalue = 2.481", fillcolor="#fefbf9"] ;
433 -> 437 ;
438 [label="mse = 21.96\nsamples = 2717\nvalue = 3.408", fillcolor="#fefaf7"] ;
437 -> 438 ;
439 [label="mse = 8.881\nsamples = 4384\nvalue = 1.922", fillcolor="#fefcfa"] ;
437 -> 439 ;
440 [label="X[7] <= 23561.5\nmse = 694.861\nsamples = 31\nvalue = 19.123", fillcolor="#f9e1d1"] ;
424 -> 440 ;
441 [label="X[4] <= 21685.0\nmse = 6.488\nsamples = 21\nvalue = 3.216", fillcolor="#fefaf7"] ;
440 -> 441 ;
442 [label="X[4] <= 21312.5\nmse = 0.038\nsamples = 8\nvalue = 0.213", fillcolor="#fffffe"] ;
441 -> 442 ;
443 [label="mse = 0.0\nsamples = 4\nvalue = 0.391", fillcolor="#fffefe"] ;
442 -> 443 ;
444 [label="mse = 0.0\nsamples = 4\nvalue = 0.0", fillcolor="#ffffff"] ;
442 -> 444 ;
445 [label="X[1] <= 21346.5\nmse = 1.979\nsamples = 13\nvalue = 4.955", fillcolor="#fdf7f3"] ;
441 -> 445 ;
446 [label="mse = 0.0\nsamples = 1\nvalue = 0.0", fillcolor="#ffffff"] ;
445 -> 446 ;
447 [label="mse = 0.649\nsamples = 12\nvalue = 5.23", fillcolor="#fdf7f2"] ;
445 -> 447 ;
448 [label="mse = -0.0\nsamples = 10\nvalue = 62.507", fillcolor="#eb9e67"] ;
440 -> 448 ;
449 [label="X[2] <= 24204.5\nmse = 1.858\nsamples = 14155\nvalue = 0.554", fillcolor="#fffefe"] ;
423 -> 449 ;
450 [label="X[5] <= 24036.5\nmse = 0.75\nsamples = 11897\nvalue = 0.364", fillcolor="#fffefe"] ;
449 -> 450 ;
451 [label="X[0] <= 25597.0\nmse = 1.148\nsamples = 6330\nvalue = 0.606", fillcolor="#fffefe"] ;
450 -> 451 ;
452 [label="X[3] <= 23825.5\nmse = 1.084\nsamples = 4916\nvalue = 0.465", fillcolor="#fffefe"] ;
451 -> 452 ;
453 [label="mse = 0.45\nsamples = 4170\nvalue = 0.328", fillcolor="#fffefe"] ;
452 -> 453 ;
454 [label="mse = 3.94\nsamples = 746\nvalue = 1.23", fillcolor="#fffdfc"] ;
452 -> 454 ;
455 [label="X[1] <= 25267.5\nmse = 1.054\nsamples = 1414\nvalue = 1.103", fillcolor="#fffdfc"] ;
451 -> 455 ;
456 [label="mse = 1.235\nsamples = 599\nvalue = 1.651", fillcolor="#fefcfb"] ;
455 -> 456 ;
457 [label="mse = 0.516\nsamples = 815\nvalue = 0.687", fillcolor="#fffefd"] ;
455 -> 457 ;
458 [label="X[2] <= 24119.5\nmse = 0.152\nsamples = 5567\nvalue = 0.087", fillcolor="#ffffff"] ;
450 -> 458 ;
459 [label="X[5] <= 24107.5\nmse = 0.123\nsamples = 5341\nvalue = 0.063", fillcolor="#ffffff"] ;
458 -> 459 ;
460 [label="mse = 0.565\nsamples = 864\nvalue = 0.323", fillcolor="#fffefe"] ;
459 -> 460 ;
461 [label="mse = 0.018\nsamples = 4477\nvalue = 0.011", fillcolor="#ffffff"] ;
459 -> 461 ;
462 [label="X[1] <= 24460.0\nmse = 0.501\nsamples = 226\nvalue = 0.631", fillcolor="#fffefd"] ;
458 -> 462 ;
463 [label="mse = 0.081\nsamples = 91\nvalue = 1.456", fillcolor="#fffdfb"] ;
462 -> 463 ;
464 [label="mse = 0.041\nsamples = 135\nvalue = 0.093", fillcolor="#ffffff"] ;
462 -> 464 ;
465 [label="X[2] <= 24208.5\nmse = 6.544\nsamples = 2258\nvalue = 1.564", fillcolor="#fffdfb"] ;
449 -> 465 ;
466 [label="X[5] <= 23963.0\nmse = 1.076\nsamples = 52\nvalue = 6.452", fillcolor="#fdf5ef"] ;
465 -> 466 ;
467 [label="X[7] <= 24241.5\nmse = 0.026\nsamples = 38\nvalue = 7.041", fillcolor="#fdf4ee"] ;
466 -> 467 ;
468 [label="mse = 0.0\nsamples = 17\nvalue = 6.855", fillcolor="#fdf4ee"] ;
467 -> 468 ;
469 [label="mse = 0.0\nsamples = 21\nvalue = 7.182", fillcolor="#fdf4ee"] ;
467 -> 469 ;
470 [label="mse = -0.0\nsamples = 14\nvalue = 4.659", fillcolor="#fef8f4"] ;
466 -> 470 ;
471 [label="X[5] <= 24136.0\nmse = 6.052\nsamples = 2206\nvalue = 1.438", fillcolor="#fffdfc"] ;
465 -> 471 ;
472 [label="X[0] <= 25308.0\nmse = 1.869\nsamples = 1703\nvalue = 1.01", fillcolor="#fffdfd"] ;
471 -> 472 ;
473 [label="mse = 1.237\nsamples = 1039\nvalue = 0.662", fillcolor="#fffefd"] ;
472 -> 473 ;
474 [label="mse = 2.376\nsamples = 664\nvalue = 1.571", fillcolor="#fefdfb"] ;
472 -> 474 ;
475 [label="X[1] <= 23822.5\nmse = 17.209\nsamples = 503\nvalue = 2.839", fillcolor="#fefbf8"] ;
471 -> 475 ;
476 [label="mse = 24.895\nsamples = 227\nvalue = 5.184", fillcolor="#fdf7f2"] ;
475 -> 476 ;
477 [label="mse = 3.518\nsamples = 276\nvalue = 1.003", fillcolor="#fffdfd"] ;
475 -> 477 ;
478 [label="X[3] <= 23404.5\nmse = 48.083\nsamples = 268742\nvalue = 4.196", fillcolor="#fef9f5"] ;
360 -> 478 ;
479 [label="X[4] <= 19931.5\nmse = 57.011\nsamples = 124413\nvalue = 4.653", fillcolor="#fef8f4"] ;
478 -> 479 ;
480 [label="X[6] <= 19663.5\nmse = 48.438\nsamples = 103627\nvalue = 4.322", fillcolor="#fef8f4"] ;
479 -> 480 ;
481 [label="X[2] <= 29225.0\nmse = 35.327\nsamples = 15915\nvalue = 3.203", fillcolor="#fefaf7"] ;
480 -> 481 ;
482 [label="X[3] <= 22033.5\nmse = 34.589\nsamples = 15888\nvalue = 3.171", fillcolor="#fefaf7"] ;
481 -> 482 ;
483 [label="X[3] <= 22018.5\nmse = 48.651\nsamples = 2927\nvalue = 4.266", fillcolor="#fef8f5"] ;
482 -> 483 ;
484 [label="mse = 42.089\nsamples = 2729\nvalue = 3.663", fillcolor="#fef9f6"] ;
483 -> 484 ;
485 [label="mse = 65.203\nsamples = 198\nvalue = 12.531", fillcolor="#fbece1"] ;
483 -> 485 ;
486 [label="X[6] <= 18665.5\nmse = 30.984\nsamples = 12961\nvalue = 2.917", fillcolor="#fefaf8"] ;
482 -> 486 ;
487 [label="mse = 17.689\nsamples = 2867\nvalue = 2.091", fillcolor="#fefcfa"] ;
486 -> 487 ;
488 [label="mse = 34.473\nsamples = 10094\nvalue = 3.149", fillcolor="#fefaf7"] ;
486 -> 488 ;
489 [label="X[5] <= 20632.0\nmse = 135.582\nsamples = 27\nvalue = 20.168", fillcolor="#f9e0ce"] ;
481 -> 489 ;
490 [label="mse = 0.0\nsamples = 21\nvalue = 26.891", fillcolor="#f6d5be"] ;
489 -> 490 ;
491 [label="mse = 0.0\nsamples = 6\nvalue = 0.0", fillcolor="#ffffff"] ;
489 -> 491 ;
492 [label="X[3] <= 22505.5\nmse = 50.553\nsamples = 87712\nvalue = 4.526", fillcolor="#fef8f4"] ;
480 -> 492 ;
493 [label="X[6] <= 19667.0\nmse = 64.795\nsamples = 26392\nvalue = 5.214", fillcolor="#fdf7f2"] ;
492 -> 493 ;
494 [label="X[7] <= 18676.0\nmse = 485.735\nsamples = 31\nvalue = 36.397", fillcolor="#f3c7a7"] ;
493 -> 494 ;
495 [label="mse = 0.0\nsamples = 21\nvalue = 49.742", fillcolor="#efb286"] ;
494 -> 495 ;
496 [label="mse = 0.0\nsamples = 10\nvalue = 0.0", fillcolor="#ffffff"] ;
494 -> 496 ;
497 [label="X[4] <= 19351.0\nmse = 63.433\nsamples = 26361\nvalue = 5.184", fillcolor="#fdf7f2"] ;
493 -> 497 ;
498 [label="mse = 56.16\nsamples = 23546\nvalue = 4.921", fillcolor="#fdf7f3"] ;
497 -> 498 ;
499 [label="mse = 118.814\nsamples = 2815\nvalue = 7.378", fillcolor="#fdf4ed"] ;
497 -> 499 ;
500 [label="X[2] <= 23806.5\nmse = 44.105\nsamples = 61320\nvalue = 4.228", fillcolor="#fef8f5"] ;
492 -> 500 ;
501 [label="X[2] <= 23800.0\nmse = 45.378\nsamples = 25182\nvalue = 4.678", fillcolor="#fef8f4"] ;
500 -> 501 ;
502 [label="mse = 40.363\nsamples = 24924\nvalue = 4.582", fillcolor="#fef8f4"] ;
501 -> 502 ;
503 [label="mse = 440.398\nsamples = 258\nvalue = 13.913", fillcolor="#fbe9dd"] ;
501 -> 503 ;
504 [label="X[0] <= 27220.0\nmse = 42.973\nsamples = 36138\nvalue = 3.913", fillcolor="#fef9f5"] ;
500 -> 504 ;
505 [label="mse = 27.968\nsamples = 18185\nvalue = 3.285", fillcolor="#fefaf7"] ;
504 -> 505 ;
506 [label="mse = 57.241\nsamples = 17953\nvalue = 4.544", fillcolor="#fef8f4"] ;
504 -> 506 ;
507 [label="X[0] <= 27307.5\nmse = 96.919\nsamples = 20786\nvalue = 6.319", fillcolor="#fdf5f0"] ;
479 -> 507 ;
508 [label="X[2] <= 20266.0\nmse = 60.759\nsamples = 11516\nvalue = 4.569", fillcolor="#fef8f4"] ;
507 -> 508 ;
509 [label="X[5] <= 22211.5\nmse = 56.205\nsamples = 28\nvalue = 31.213", fillcolor="#f5cfb3"] ;
508 -> 509 ;
510 [label="mse = 0.0\nsamples = 27\nvalue = 33.013", fillcolor="#f4ccaf"] ;
509 -> 510 ;
511 [label="mse = 0.0\nsamples = 1\nvalue = 0.0", fillcolor="#ffffff"] ;
509 -> 511 ;
512 [label="X[3] <= 22846.5\nmse = 58.593\nsamples = 11488\nvalue = 4.487", fillcolor="#fef8f4"] ;
508 -> 512 ;
513 [label="X[0] <= 26160.0\nmse = 119.018\nsamples = 1990\nvalue = 6.443", fillcolor="#fdf5ef"] ;
512 -> 513 ;
514 [label="mse = 11.703\nsamples = 466\nvalue = 2.35", fillcolor="#fefbf9"] ;
513 -> 514 ;
515 [label="mse = 144.339\nsamples = 1524\nvalue = 7.654", fillcolor="#fdf3ec"] ;
513 -> 515 ;
516 [label="X[4] <= 20559.5\nmse = 44.924\nsamples = 9498\nvalue = 4.076", fillcolor="#fef9f5"] ;
512 -> 516 ;
517 [label="mse = 26.106\nsamples = 5730\nvalue = 3.38", fillcolor="#fefaf7"] ;
516 -> 517 ;
518 [label="mse = 71.287\nsamples = 3768\nvalue = 5.119", fillcolor="#fdf7f3"] ;
516 -> 518 ;
519 [label="X[7] <= 20850.0\nmse = 133.053\nsamples = 9270\nvalue = 8.475", fillcolor="#fcf2ea"] ;
507 -> 519 ;
520 [label="X[3] <= 22372.0\nmse = 94.973\nsamples = 3988\nvalue = 5.774", fillcolor="#fdf6f1"] ;
519 -> 520 ;
521 [label="X[3] <= 22335.5\nmse = 157.891\nsamples = 364\nvalue = 11.685", fillcolor="#fbede3"] ;
520 -> 521 ;
522 [label="mse = 99.458\nsamples = 298\nvalue = 7.616", fillcolor="#fdf3ec"] ;
521 -> 522 ;
523 [label="mse = 29.625\nsamples = 66\nvalue = 29.269", fillcolor="#f6d2b8"] ;
521 -> 523 ;
524 [label="X[1] <= 27733.0\nmse = 84.459\nsamples = 3624\nvalue = 5.162", fillcolor="#fdf7f2"] ;
520 -> 524 ;
525 [label="mse = 104.804\nsamples = 2534\nvalue = 6.122", fillcolor="#fdf6f0"] ;
524 -> 525 ;
526 [label="mse = 28.244\nsamples = 1090\nvalue = 2.863", fillcolor="#fefbf8"] ;
524 -> 526 ;
527 [label="X[3] <= 22941.5\nmse = 151.674\nsamples = 5282\nvalue = 10.45", fillcolor="#fcefe6"] ;
519 -> 527 ;
528 [label="X[3] <= 22883.5\nmse = 302.509\nsamples = 1178\nvalue = 17.111", fillcolor="#fae5d5"] ;
527 -> 528 ;
529 [label="mse = 223.775\nsamples = 909\nvalue = 14.168", fillcolor="#fae9dd"] ;
528 -> 529 ;
530 [label="mse = 440.885\nsamples = 269\nvalue = 27.191", fillcolor="#f6d5bd"] ;
528 -> 530 ;
531 [label="X[5] <= 23913.0\nmse = 93.255\nsamples = 4104\nvalue = 8.577", fillcolor="#fcf2ea"] ;
527 -> 531 ;
532 [label="mse = 84.956\nsamples = 3806\nvalue = 8.004", fillcolor="#fcf3ec"] ;
531 -> 532 ;
533 [label="mse = 141.59\nsamples = 298\nvalue = 15.851", fillcolor="#fae6d8"] ;
531 -> 533 ;
534 [label="X[7] <= 20577.5\nmse = 40.034\nsamples = 144329\nvalue = 3.802", fillcolor="#fef9f6"] ;
478 -> 534 ;
535 [label="X[2] <= 24720.0\nmse = 34.066\nsamples = 41396\nvalue = 2.947", fillcolor="#fefaf8"] ;
534 -> 535 ;
536 [label="X[5] <= 22608.0\nmse = 49.409\nsamples = 20079\nvalue = 3.622", fillcolor="#fef9f6"] ;
535 -> 536 ;
537 [label="X[4] <= 21381.5\nmse = 44.052\nsamples = 11310\nvalue = 3.085", fillcolor="#fefaf8"] ;
536 -> 537 ;
538 [label="X[2] <= 24684.5\nmse = 43.434\nsamples = 11279\nvalue = 3.052", fillcolor="#fefaf8"] ;
537 -> 538 ;
539 [label="mse = 41.217\nsamples = 10921\nvalue = 2.936", fillcolor="#fefaf8"] ;
538 -> 539 ;
540 [label="mse = 97.596\nsamples = 358\nvalue = 6.52", fillcolor="#fdf5ef"] ;
538 -> 540 ;
541 [label="X[5] <= 21457.0\nmse = 121.248\nsamples = 31\nvalue = 15.63", fillcolor="#fae7d9"] ;
537 -> 541 ;
542 [label="mse = 0.515\nsamples = 13\nvalue = 1.293", fillcolor="#fffdfc"] ;
541 -> 542 ;
543 [label="mse = 7.181\nsamples = 18\nvalue = 23.755", fillcolor="#f7dac5"] ;
541 -> 543 ;
544 [label="X[2] <= 22412.0\nmse = 55.473\nsamples = 8769\nvalue = 4.315", fillcolor="#fef8f5"] ;
536 -> 544 ;
545 [label="X[7] <= 20205.5\nmse = 385.837\nsamples = 216\nvalue = 13.807", fillcolor="#fbeadd"] ;
544 -> 545 ;
546 [label="mse = 485.277\nsamples = 112\nvalue = 24.562", fillcolor="#f7d9c3"] ;
545 -> 546 ;
547 [label="mse = 3.376\nsamples = 104\nvalue = 1.842", fillcolor="#fefcfb"] ;
545 -> 547 ;
548 [label="X[6] <= 21508.0\nmse = 44.922\nsamples = 8553\nvalue = 4.078", fillcolor="#fef9f5"] ;
544 -> 548 ;
549 [label="mse = 140.533\nsamples = 837\nvalue = 6.394", fillcolor="#fdf5ef"] ;
548 -> 549 ;
550 [label="mse = 33.601\nsamples = 7716\nvalue = 3.819", fillcolor="#fef9f6"] ;
548 -> 550 ;
551 [label="X[3] <= 23942.5\nmse = 18.705\nsamples = 21317\nvalue = 2.308", fillcolor="#fefbf9"] ;
535 -> 551 ;
552 [label="X[7] <= 19376.0\nmse = 23.402\nsamples = 13275\nvalue = 2.671", fillcolor="#fefbf9"] ;
551 -> 552 ;
553 [label="X[2] <= 26185.0\nmse = 17.42\nsamples = 3838\nvalue = 1.81", fillcolor="#fefcfb"] ;
552 -> 553 ;
554 [label="mse = 25.001\nsamples = 2426\nvalue = 2.284", fillcolor="#fefbf9"] ;
553 -> 554 ;
555 [label="mse = 3.294\nsamples = 1412\nvalue = 0.992", fillcolor="#fffdfd"] ;
553 -> 555 ;
556 [label="X[3] <= 23938.5\nmse = 25.438\nsamples = 9437\nvalue = 3.027", fillcolor="#fefaf8"] ;
552 -> 556 ;
557 [label="mse = 23.445\nsamples = 9335\nvalue = 2.954", fillcolor="#fefaf8"] ;
556 -> 557 ;
558 [label="mse = 159.568\nsamples = 102\nvalue = 9.507", fillcolor="#fcf0e8"] ;
556 -> 558 ;
559 [label="X[6] <= 22823.0\nmse = 10.417\nsamples = 8042\nvalue = 1.713", fillcolor="#fefcfb"] ;
551 -> 559 ;
560 [label="X[5] <= 19454.0\nmse = 10.111\nsamples = 7964\nvalue = 1.649", fillcolor="#fefcfb"] ;
559 -> 560 ;
561 [label="mse = 8.402\nsamples = 26\nvalue = 9.326", fillcolor="#fcf1e8"] ;
560 -> 561 ;
562 [label="mse = 9.932\nsamples = 7938\nvalue = 1.625", fillcolor="#fefcfb"] ;
560 -> 562 ;
563 [label="X[3] <= 24165.0\nmse = 1.43\nsamples = 78\nvalue = 7.897", fillcolor="#fcf3ec"] ;
559 -> 563 ;
564 [label="mse = 0.272\nsamples = 64\nvalue = 7.36", fillcolor="#fdf4ed"] ;
563 -> 564 ;
565 [label="mse = -0.0\nsamples = 14\nvalue = 10.151", fillcolor="#fcefe6"] ;
563 -> 565 ;
566 [label="X[0] <= 27403.5\nmse = 42.019\nsamples = 102933\nvalue = 4.145", fillcolor="#fef9f5"] ;
534 -> 566 ;
567 [label="X[2] <= 23915.5\nmse = 33.31\nsamples = 72755\nvalue = 3.762", fillcolor="#fef9f6"] ;
566 -> 567 ;
568 [label="X[2] <= 23904.5\nmse = 42.635\nsamples = 14893\nvalue = 4.68", fillcolor="#fef8f4"] ;
567 -> 568 ;
569 [label="X[0] <= 25907.0\nmse = 38.074\nsamples = 14664\nvalue = 4.495", fillcolor="#fef8f4"] ;
568 -> 569 ;
570 [label="mse = 238.808\nsamples = 184\nvalue = 15.545", fillcolor="#fae7d9"] ;
569 -> 570 ;
571 [label="mse = 33.784\nsamples = 14480\nvalue = 4.348", fillcolor="#fef8f4"] ;
569 -> 571 ;
572 [label="X[1] <= 26413.0\nmse = 190.95\nsamples = 229\nvalue = 16.902", fillcolor="#fae5d6"] ;
568 -> 572 ;
573 [label="mse = 10.14\nsamples = 161\nvalue = 9.451", fillcolor="#fcf0e8"] ;
572 -> 573 ;
574 [label="mse = 172.602\nsamples = 68\nvalue = 34.743", fillcolor="#f4c9ab"] ;
572 -> 574 ;
575 [label="X[0] <= 26909.5\nmse = 30.637\nsamples = 57862\nvalue = 3.526", fillcolor="#fefaf6"] ;
567 -> 575 ;
576 [label="X[1] <= 25787.5\nmse = 21.993\nsamples = 37412\nvalue = 3.181", fillcolor="#fefaf7"] ;
575 -> 576 ;
577 [label="mse = 27.357\nsamples = 4576\nvalue = 4.489", fillcolor="#fef8f4"] ;
576 -> 577 ;
578 [label="mse = 20.981\nsamples = 32836\nvalue = 3.0", fillcolor="#fefaf8"] ;
576 -> 578 ;
579 [label="X[0] <= 26913.5\nmse = 45.795\nsamples = 20450\nvalue = 4.154", fillcolor="#fef9f5"] ;
575 -> 579 ;
580 [label="mse = 174.602\nsamples = 122\nvalue = 19.365", fillcolor="#f9e1d0"] ;
579 -> 580 ;
581 [label="mse = 43.653\nsamples = 20328\nvalue = 4.063", fillcolor="#fef9f5"] ;
579 -> 581 ;
582 [label="X[4] <= 21603.5\nmse = 61.826\nsamples = 30178\nvalue = 5.068", fillcolor="#fdf7f3"] ;
566 -> 582 ;
583 [label="X[1] <= 27806.5\nmse = 49.94\nsamples = 24683\nvalue = 4.452", fillcolor="#fef8f4"] ;
582 -> 583 ;
584 [label="X[4] <= 20880.5\nmse = 54.211\nsamples = 20295\nvalue = 4.812", fillcolor="#fdf8f3"] ;
583 -> 584 ;
585 [label="mse = 37.157\nsamples = 13310\nvalue = 4.217", fillcolor="#fef8f5"] ;
584 -> 585 ;
586 [label="mse = 84.496\nsamples = 6985\nvalue = 5.936", fillcolor="#fdf6f1"] ;
584 -> 586 ;
587 [label="X[3] <= 23740.5\nmse = 26.744\nsamples = 4388\nvalue = 2.782", fillcolor="#fefbf8"] ;
583 -> 587 ;
588 [label="mse = 42.844\nsamples = 1196\nvalue = 4.364", fillcolor="#fef8f4"] ;
587 -> 588 ;
589 [label="mse = 19.577\nsamples = 3192\nvalue = 2.201", fillcolor="#fefcfa"] ;
587 -> 589 ;
590 [label="X[1] <= 26829.5\nmse = 106.273\nsamples = 5495\nvalue = 7.866", fillcolor="#fcf3ec"] ;
582 -> 590 ;
591 [label="X[1] <= 26818.5\nmse = 1367.785\nsamples = 52\nvalue = 32.071", fillcolor="#f5cdb1"] ;
590 -> 591 ;
592 [label="mse = 1.092\nsamples = 11\nvalue = 2.693", fillcolor="#fefbf8"] ;
591 -> 592 ;
593 [label="mse = 1435.583\nsamples = 41\nvalue = 43.025", fillcolor="#f1bc96"] ;
591 -> 593 ;
594 [label="X[6] <= 22285.0\nmse = 88.676\nsamples = 5443\nvalue = 7.636", fillcolor="#fdf3ec"] ;
590 -> 594 ;
595 [label="mse = 56.437\nsamples = 1641\nvalue = 5.022", fillcolor="#fdf7f3"] ;
594 -> 595 ;
596 [label="mse = 98.531\nsamples = 3802\nvalue = 8.786", fillcolor="#fcf1ea"] ;
594 -> 596 ;
597 [label="X[3] <= 25180.5\nmse = 20.779\nsamples = 375273\nvalue = 2.398", fillcolor="#fefbf9"] ;
359 -> 597 ;
598 [label="X[0] <= 26646.5\nmse = 22.603\nsamples = 297918\nvalue = 2.605", fillcolor="#fefbf9"] ;
597 -> 598 ;
599 [label="X[2] <= 24978.5\nmse = 17.43\nsamples = 154091\nvalue = 2.312", fillcolor="#fefbf9"] ;
598 -> 599 ;
600 [label="X[1] <= 22300.0\nmse = 20.637\nsamples = 72483\nvalue = 2.625", fillcolor="#fefbf9"] ;
599 -> 600 ;
601 [label="X[2] <= 24976.0\nmse = 14.521\nsamples = 12563\nvalue = 1.761", fillcolor="#fefcfb"] ;
600 -> 601 ;
602 [label="X[3] <= 25158.5\nmse = 14.295\nsamples = 12498\nvalue = 1.725", fillcolor="#fefcfb"] ;
601 -> 602 ;
603 [label="X[7] <= 20994.0\nmse = 12.759\nsamples = 12441\nvalue = 1.695", fillcolor="#fefcfb"] ;
602 -> 603 ;
604 [label="mse = 2.432\nsamples = 1885\nvalue = 0.626", fillcolor="#fffefd"] ;
603 -> 604 ;
605 [label="mse = 14.318\nsamples = 10556\nvalue = 1.88", fillcolor="#fefcfa"] ;
603 -> 605 ;
606 [label="X[3] <= 25164.0\nmse = 319.527\nsamples = 57\nvalue = 8.668", fillcolor="#fcf2ea"] ;
602 -> 606 ;
607 [label="mse = 0.0\nsamples = 9\nvalue = 52.654", fillcolor="#eeae7f"] ;
606 -> 607 ;
608 [label="mse = 1.715\nsamples = 48\nvalue = 1.437", fillcolor="#fffdfc"] ;
606 -> 608 ;
609 [label="X[3] <= 24348.0\nmse = 9.305\nsamples = 65\nvalue = 8.693", fillcolor="#fcf2ea"] ;
601 -> 609 ;
610 [label="mse = 0.0\nsamples = 20\nvalue = 13.685", fillcolor="#fbeade"] ;
609 -> 610 ;
611 [label="X[7] <= 23114.0\nmse = 0.002\nsamples = 45\nvalue = 6.829", fillcolor="#fdf4ee"] ;
609 -> 611 ;
612 [label="mse = 0.0\nsamples = 21\nvalue = 6.876", fillcolor="#fdf4ee"] ;
611 -> 612 ;
613 [label="mse = -0.0\nsamples = 24\nvalue = 6.787", fillcolor="#fdf5ef"] ;
611 -> 613 ;
614 [label="X[1] <= 22305.5\nmse = 21.727\nsamples = 59920\nvalue = 2.805", fillcolor="#fefbf8"] ;
600 -> 614 ;
615 [label="X[4] <= 21968.0\nmse = 97.061\nsamples = 15\nvalue = 20.716", fillcolor="#f8dfcd"] ;
614 -> 615 ;
616 [label="X[5] <= 23441.5\nmse = 22.229\nsamples = 11\nvalue = 26.135", fillcolor="#f7d7bf"] ;
615 -> 616 ;
617 [label="mse = 0.001\nsamples = 8\nvalue = 29.699", fillcolor="#f6d1b7"] ;
616 -> 617 ;
618 [label="mse = 0.0\nsamples = 3\nvalue = 19.898", fillcolor="#f9e0cf"] ;
616 -> 618 ;
619 [label="mse = 0.0\nsamples = 4\nvalue = 5.813", fillcolor="#fdf6f1"] ;
615 -> 619 ;
620 [label="X[7] <= 23306.5\nmse = 21.601\nsamples = 59905\nvalue = 2.799", fillcolor="#fefbf8"] ;
614 -> 620 ;
621 [label="X[0] <= 26272.0\nmse = 27.024\nsamples = 42685\nvalue = 2.989", fillcolor="#fefaf8"] ;
620 -> 621 ;
622 [label="mse = 21.643\nsamples = 32832\nvalue = 2.749", fillcolor="#fefbf8"] ;
621 -> 622 ;
623 [label="mse = 44.136\nsamples = 9853\nvalue = 3.792", fillcolor="#fef9f6"] ;
621 -> 623 ;
624 [label="X[6] <= 24555.5\nmse = 7.731\nsamples = 17220\nvalue = 2.325", fillcolor="#fefbf9"] ;
620 -> 624 ;
625 [label="mse = 4.761\nsamples = 9099\nvalue = 1.819", fillcolor="#fefcfb"] ;
624 -> 625 ;
626 [label="mse = 10.436\nsamples = 8121\nvalue = 2.888", fillcolor="#fefbf8"] ;
624 -> 626 ;
627 [label="X[6] <= 22467.5\nmse = 14.429\nsamples = 81608\nvalue = 2.035", fillcolor="#fefcfa"] ;
599 -> 627 ;
628 [label="X[1] <= 22465.5\nmse = 9.187\nsamples = 6576\nvalue = 1.257", fillcolor="#fffdfc"] ;
627 -> 628 ;
629 [label="X[5] <= 22265.0\nmse = 3.039\nsamples = 3061\nvalue = 0.681", fillcolor="#fffefd"] ;
628 -> 629 ;
630 [label="X[1] <= 22372.0\nmse = 0.628\nsamples = 962\nvalue = 0.332", fillcolor="#fffefe"] ;
629 -> 630 ;
631 [label="mse = 0.362\nsamples = 938\nvalue = 0.308", fillcolor="#fffffe"] ;
630 -> 631 ;
632 [label="mse = 10.533\nsamples = 24\nvalue = 1.297", fillcolor="#fffdfc"] ;
630 -> 632 ;
633 [label="X[5] <= 22414.5\nmse = 4.081\nsamples = 2099\nvalue = 0.844", fillcolor="#fffefd"] ;
629 -> 633 ;
634 [label="mse = 16.641\nsamples = 255\nvalue = 1.699", fillcolor="#fefcfb"] ;
633 -> 634 ;
635 [label="mse = 2.226\nsamples = 1844\nvalue = 0.726", fillcolor="#fffefd"] ;
633 -> 635 ;
636 [label="X[7] <= 20190.0\nmse = 13.977\nsamples = 3515\nvalue = 1.755", fillcolor="#fefcfb"] ;
628 -> 636 ;
637 [label="X[7] <= 20184.5\nmse = 33.781\nsamples = 742\nvalue = 3.133", fillcolor="#fefaf7"] ;
636 -> 637 ;
638 [label="mse = 22.289\nsamples = 729\nvalue = 2.735", fillcolor="#fefbf8"] ;
637 -> 638 ;
639 [label="mse = 0.0\nsamples = 13\nvalue = 32.731", fillcolor="#f5ccaf"] ;
637 -> 639 ;
640 [label="X[7] <= 21786.5\nmse = 7.912\nsamples = 2773\nvalue = 1.38", fillcolor="#fffdfc"] ;
636 -> 640 ;
641 [label="mse = 4.619\nsamples = 2600\nvalue = 1.143", fillcolor="#fffdfc"] ;
640 -> 641 ;
642 [label="mse = 43.586\nsamples = 173\nvalue = 4.889", fillcolor="#fdf7f3"] ;
640 -> 642 ;
643 [label="X[6] <= 22468.5\nmse = 14.834\nsamples = 75032\nvalue = 2.104", fillcolor="#fefcfa"] ;
627 -> 643 ;
644 [label="mse = 0.0\nsamples = 26\nvalue = 56.552", fillcolor="#eda876"] ;
643 -> 644 ;
645 [label="X[1] <= 18032.5\nmse = 13.889\nsamples = 75006\nvalue = 2.087", fillcolor="#fefcfa"] ;
643 -> 645 ;
646 [label="X[3] <= 24427.5\nmse = 81.788\nsamples = 134\nvalue = 8.039", fillcolor="#fcf3eb"] ;
645 -> 646 ;
647 [label="mse = 3.955\nsamples = 66\nvalue = 2.119", fillcolor="#fefcfa"] ;
646 -> 647 ;
648 [label="mse = 86.794\nsamples = 68\nvalue = 14.492", fillcolor="#fae9dc"] ;
646 -> 648 ;
649 [label="X[1] <= 26162.5\nmse = 13.707\nsamples = 74872\nvalue = 2.076", fillcolor="#fefcfa"] ;
645 -> 649 ;
650 [label="mse = 15.388\nsamples = 61263\nvalue = 2.19", fillcolor="#fefcfa"] ;
649 -> 650 ;
651 [label="mse = 5.807\nsamples = 13609\nvalue = 1.563", fillcolor="#fffdfb"] ;
649 -> 651 ;
652 [label="X[7] <= 21840.5\nmse = 27.96\nsamples = 143827\nvalue = 2.918", fillcolor="#fefaf8"] ;
598 -> 652 ;
653 [label="X[2] <= 24721.5\nmse = 24.559\nsamples = 53479\nvalue = 2.27", fillcolor="#fefbf9"] ;
652 -> 653 ;
654 [label="X[3] <= 24831.5\nmse = 46.004\nsamples = 14684\nvalue = 3.311", fillcolor="#fefaf7"] ;
653 -> 654 ;
655 [label="X[2] <= 24680.5\nmse = 54.497\nsamples = 11047\nvalue = 3.689", fillcolor="#fef9f6"] ;
654 -> 655 ;
656 [label="X[3] <= 24593.5\nmse = 50.008\nsamples = 10544\nvalue = 3.508", fillcolor="#fefaf6"] ;
655 -> 656 ;
657 [label="mse = 30.699\nsamples = 6919\nvalue = 3.08", fillcolor="#fefaf8"] ;
656 -> 657 ;
658 [label="mse = 85.722\nsamples = 3625\nvalue = 4.323", fillcolor="#fef8f4"] ;
656 -> 658 ;
659 [label="X[4] <= 20200.5\nmse = 133.942\nsamples = 503\nvalue = 7.48", fillcolor="#fdf3ed"] ;
655 -> 659 ;
660 [label="mse = 0.566\nsamples = 152\nvalue = 0.854", fillcolor="#fffefd"] ;
659 -> 660 ;
661 [label="mse = 165.088\nsamples = 351\nvalue = 10.432", fillcolor="#fcefe6"] ;
659 -> 661 ;
662 [label="X[0] <= 28238.5\nmse = 18.206\nsamples = 3637\nvalue = 2.153", fillcolor="#fefcfa"] ;
654 -> 662 ;
663 [label="X[2] <= 23195.5\nmse = 16.16\nsamples = 3592\nvalue = 2.042", fillcolor="#fefcfa"] ;
662 -> 663 ;
664 [label="mse = 37.641\nsamples = 741\nvalue = 3.797", fillcolor="#fef9f6"] ;
663 -> 664 ;
665 [label="mse = 9.544\nsamples = 2851\nvalue = 1.584", fillcolor="#fefdfb"] ;
663 -> 665 ;
666 [label="X[4] <= 21277.5\nmse = 101.805\nsamples = 45\nvalue = 11.535", fillcolor="#fbede3"] ;
662 -> 666 ;
667 [label="mse = 0.477\nsamples = 22\nvalue = 0.674", fillcolor="#fffefd"] ;
666 -> 667 ;
668 [label="mse = 0.0\nsamples = 23\nvalue = 20.888", fillcolor="#f8dfcc"] ;
666 -> 668 ;
669 [label="X[6] <= 22213.5\nmse = 15.865\nsamples = 38795\nvalue = 1.876", fillcolor="#fefcfa"] ;
653 -> 669 ;
670 [label="X[3] <= 24646.0\nmse = 13.074\nsamples = 20631\nvalue = 1.48", fillcolor="#fffdfb"] ;
669 -> 670 ;
671 [label="X[7] <= 21543.0\nmse = 16.0\nsamples = 8632\nvalue = 1.841", fillcolor="#fefcfb"] ;
670 -> 671 ;
672 [label="mse = 14.546\nsamples = 8248\nvalue = 1.72", fillcolor="#fefcfb"] ;
671 -> 672 ;
673 [label="mse = 39.18\nsamples = 384\nvalue = 4.291", fillcolor="#fef8f5"] ;
671 -> 673 ;
674 [label="X[2] <= 25449.5\nmse = 10.83\nsamples = 11999\nvalue = 1.223", fillcolor="#fffdfc"] ;
670 -> 674 ;
675 [label="mse = 17.454\nsamples = 2718\nvalue = 1.714", fillcolor="#fefcfb"] ;
674 -> 675 ;
676 [label="mse = 8.825\nsamples = 9281\nvalue = 1.081", fillcolor="#fffdfc"] ;
674 -> 676 ;
677 [label="X[6] <= 22214.5\nmse = 18.631\nsamples = 18164\nvalue = 2.32", fillcolor="#fefbf9"] ;
669 -> 677 ;
678 [label="mse = 0.0\nsamples = 7\nvalue = 72.132", fillcolor="#e88f50"] ;
677 -> 678 ;
679 [label="X[5] <= 22661.5\nmse = 17.285\nsamples = 18157\nvalue = 2.301", fillcolor="#fefbf9"] ;
677 -> 679 ;
680 [label="mse = 55.473\nsamples = 594\nvalue = 5.492", fillcolor="#fdf7f2"] ;
679 -> 680 ;
681 [label="mse = 15.64\nsamples = 17563\nvalue = 2.193", fillcolor="#fefcfa"] ;
679 -> 681 ;
682 [label="X[3] <= 24703.5\nmse = 29.58\nsamples = 90348\nvalue = 3.303", fillcolor="#fefaf7"] ;
652 -> 682 ;
683 [label="X[0] <= 27311.5\nmse = 38.557\nsamples = 38342\nvalue = 3.857", fillcolor="#fef9f6"] ;
682 -> 683 ;
684 [label="X[5] <= 22659.0\nmse = 24.242\nsamples = 20717\nvalue = 3.18", fillcolor="#fefaf7"] ;
683 -> 684 ;
685 [label="X[4] <= 22447.5\nmse = 632.2\nsamples = 18\nvalue = 39.269", fillcolor="#f2c2a0"] ;
684 -> 685 ;
686 [label="mse = 6.806\nsamples = 5\nvalue = 1.849", fillcolor="#fefcfb"] ;
685 -> 686 ;
687 [label="mse = 0.0\nsamples = 13\nvalue = 56.107", fillcolor="#eda877"] ;
685 -> 687 ;
688 [label="X[2] <= 24392.5\nmse = 22.549\nsamples = 20699\nvalue = 3.148", fillcolor="#fefaf7"] ;
684 -> 688 ;
689 [label="mse = 44.593\nsamples = 3712\nvalue = 4.203", fillcolor="#fef8f5"] ;
688 -> 689 ;
690 [label="mse = 17.466\nsamples = 16987\nvalue = 2.919", fillcolor="#fefaf8"] ;
688 -> 690 ;
691 [label="X[1] <= 26644.0\nmse = 54.262\nsamples = 17625\nvalue = 4.657", fillcolor="#fef8f4"] ;
683 -> 691 ;
692 [label="X[3] <= 24606.0\nmse = 477.552\nsamples = 19\nvalue = 55.706", fillcolor="#eda978"] ;
691 -> 692 ;
693 [label="mse = 0.0\nsamples = 9\nvalue = 29.85", fillcolor="#f5d1b6"] ;
692 -> 693 ;
694 [label="mse = -0.0\nsamples = 10\nvalue = 74.176", fillcolor="#e78c4b"] ;
692 -> 694 ;
695 [label="X[7] <= 21841.5\nmse = 51.641\nsamples = 17606\nvalue = 4.613", fillcolor="#fef8f4"] ;
691 -> 695 ;
696 [label="mse = 16.84\nsamples = 51\nvalue = 24.354", fillcolor="#f7d9c4"] ;
695 -> 696 ;
697 [label="mse = 50.702\nsamples = 17555\nvalue = 4.561", fillcolor="#fef8f4"] ;
695 -> 697 ;
698 [label="X[0] <= 26648.5\nmse = 22.557\nsamples = 52006\nvalue = 2.894", fillcolor="#fefbf8"] ;
682 -> 698 ;
699 [label="X[7] <= 23014.5\nmse = 30.345\nsamples = 118\nvalue = 16.115", fillcolor="#fae6d8"] ;
698 -> 699 ;
700 [label="X[3] <= 24830.0\nmse = 11.815\nsamples = 108\nvalue = 17.478", fillcolor="#f9e4d5"] ;
699 -> 700 ;
701 [label="mse = 0.0\nsamples = 28\nvalue = 22.062", fillcolor="#f8ddc9"] ;
700 -> 701 ;
702 [label="mse = 5.204\nsamples = 80\nvalue = 15.721", fillcolor="#fae7d9"] ;
700 -> 702 ;
703 [label="X[1] <= 26381.5\nmse = 16.004\nsamples = 10\nvalue = 2.806", fillcolor="#fefbf8"] ;
699 -> 703 ;
704 [label="mse = 0.0\nsamples = 4\nvalue = 9.0", fillcolor="#fcf1e9"] ;
703 -> 704 ;
705 [label="mse = 0.025\nsamples = 6\nvalue = 0.225", fillcolor="#fffffe"] ;
703 -> 705 ;
706 [label="X[4] <= 22153.5\nmse = 22.148\nsamples = 51888\nvalue = 2.865", fillcolor="#fefbf8"] ;
698 -> 706 ;
707 [label="X[1] <= 26239.0\nmse = 12.119\nsamples = 29711\nvalue = 2.37", fillcolor="#fefbf9"] ;
706 -> 707 ;
708 [label="mse = 25.691\nsamples = 190\nvalue = 6.687", fillcolor="#fdf5ef"] ;
707 -> 708 ;
709 [label="mse = 11.917\nsamples = 29521\nvalue = 2.343", fillcolor="#fefbf9"] ;
707 -> 709 ;
710 [label="X[0] <= 28496.5\nmse = 34.881\nsamples = 22177\nvalue = 3.53", fillcolor="#fefaf6"] ;
706 -> 710 ;
711 [label="mse = 32.203\nsamples = 21738\nvalue = 3.42", fillcolor="#fefaf7"] ;
710 -> 711 ;
712 [label="mse = 135.402\nsamples = 439\nvalue = 8.903", fillcolor="#fcf1e9"] ;
710 -> 712 ;
713 [label="X[2] <= 25834.5\nmse = 12.988\nsamples = 77355\nvalue = 1.604", fillcolor="#fefdfb"] ;
597 -> 713 ;
714 [label="X[4] <= 22557.5\nmse = 16.526\nsamples = 37653\nvalue = 1.98", fillcolor="#fefcfa"] ;
713 -> 714 ;
715 [label="X[5] <= 23411.0\nmse = 15.728\nsamples = 37618\nvalue = 1.955", fillcolor="#fefcfa"] ;
714 -> 715 ;
716 [label="X[3] <= 25447.5\nmse = 14.058\nsamples = 14497\nvalue = 1.438", fillcolor="#fffdfc"] ;
715 -> 716 ;
717 [label="X[0] <= 28411.0\nmse = 16.034\nsamples = 6945\nvalue = 1.795", fillcolor="#fefcfb"] ;
716 -> 717 ;
718 [label="X[3] <= 25446.5\nmse = 15.222\nsamples = 6882\nvalue = 1.715", fillcolor="#fefcfb"] ;
717 -> 718 ;
719 [label="mse = 14.817\nsamples = 6870\nvalue = 1.688", fillcolor="#fefcfb"] ;
718 -> 719 ;
720 [label="mse = 0.0\nsamples = 12\nvalue = 17.825", fillcolor="#f9e3d4"] ;
718 -> 720 ;
721 [label="X[2] <= 24845.0\nmse = 31.517\nsamples = 63\nvalue = 9.993", fillcolor="#fcf0e7"] ;
717 -> 721 ;
722 [label="mse = 3.22\nsamples = 38\nvalue = 14.398", fillcolor="#fae9dc"] ;
721 -> 722 ;
723 [label="mse = -0.0\nsamples = 25\nvalue = 3.28", fillcolor="#fefaf7"] ;
721 -> 723 ;
724 [label="X[2] <= 25761.5\nmse = 12.01\nsamples = 7552\nvalue = 1.109", fillcolor="#fffdfc"] ;
716 -> 724 ;
725 [label="X[1] <= 27434.5\nmse = 11.522\nsamples = 7202\nvalue = 1.035", fillcolor="#fffdfc"] ;
724 -> 725 ;
726 [label="mse = 16.665\nsamples = 4568\nvalue = 1.286", fillcolor="#fffdfc"] ;
725 -> 726 ;
727 [label="mse = 2.146\nsamples = 2634\nvalue = 0.593", fillcolor="#fffefe"] ;
725 -> 727 ;
728 [label="X[0] <= 26388.0\nmse = 19.805\nsamples = 350\nvalue = 2.678", fillcolor="#fefbf8"] ;
724 -> 728 ;
729 [label="mse = 22.072\nsamples = 29\nvalue = 14.289", fillcolor="#fae9dc"] ;
728 -> 729 ;
730 [label="mse = 7.528\nsamples = 321\nvalue = 1.717", fillcolor="#fefcfb"] ;
728 -> 730 ;
731 [label="X[1] <= 27455.0\nmse = 16.5\nsamples = 23121\nvalue = 2.279", fillcolor="#fefbf9"] ;
715 -> 731 ;
732 [label="X[1] <= 27453.5\nmse = 18.001\nsamples = 20437\nvalue = 2.449", fillcolor="#fefbf9"] ;
731 -> 732 ;
733 [label="X[1] <= 25996.5\nmse = 17.543\nsamples = 20417\nvalue = 2.428", fillcolor="#fefbf9"] ;
732 -> 733 ;
734 [label="mse = 6.666\nsamples = 7630\nvalue = 1.707", fillcolor="#fefcfb"] ;
733 -> 734 ;
735 [label="mse = 23.537\nsamples = 12787\nvalue = 2.858", fillcolor="#fefbf8"] ;
733 -> 735 ;
736 [label="mse = -0.0\nsamples = 20\nvalue = 24.702", fillcolor="#f7d9c3"] ;
732 -> 736 ;
737 [label="X[0] <= 27888.0\nmse = 3.379\nsamples = 2684\nvalue = 1.003", fillcolor="#fffdfd"] ;
731 -> 737 ;
738 [label="X[1] <= 27673.0\nmse = 0.516\nsamples = 980\nvalue = 0.493", fillcolor="#fffefe"] ;
737 -> 738 ;
739 [label="mse = 0.427\nsamples = 956\nvalue = 0.444", fillcolor="#fffefe"] ;
738 -> 739 ;
740 [label="mse = 0.0\nsamples = 24\nvalue = 2.511", fillcolor="#fefbf9"] ;
738 -> 740 ;
741 [label="X[1] <= 27533.0\nmse = 4.82\nsamples = 1704\nvalue = 1.302", fillcolor="#fffdfc"] ;
737 -> 741 ;
742 [label="mse = 8.411\nsamples = 217\nvalue = 2.97", fillcolor="#fefaf8"] ;
741 -> 742 ;
743 [label="mse = 3.934\nsamples = 1487\nvalue = 1.083", fillcolor="#fffdfc"] ;
741 -> 743 ;
744 [label="X[6] <= 23168.0\nmse = 226.843\nsamples = 35\nvalue = 26.087", fillcolor="#f7d7c0"] ;
714 -> 744 ;
745 [label="mse = 0.0\nsamples = 26\nvalue = 34.783", fillcolor="#f4c9aa"] ;
744 -> 745 ;
746 [label="mse = 0.0\nsamples = 9\nvalue = 0.0", fillcolor="#ffffff"] ;
744 -> 746 ;
747 [label="X[3] <= 25451.5\nmse = 9.386\nsamples = 39702\nvalue = 1.248", fillcolor="#fffdfc"] ;
713 -> 747 ;
748 [label="X[4] <= 21329.0\nmse = 11.514\nsamples = 17992\nvalue = 1.556", fillcolor="#fffdfb"] ;
747 -> 748 ;
749 [label="X[6] <= 21483.5\nmse = 2.549\nsamples = 2206\nvalue = 0.736", fillcolor="#fffefd"] ;
748 -> 749 ;
750 [label="X[6] <= 21374.5\nmse = 4.481\nsamples = 936\nvalue = 1.117", fillcolor="#fffdfc"] ;
749 -> 750 ;
751 [label="X[6] <= 21189.5\nmse = 1.739\nsamples = 853\nvalue = 0.798", fillcolor="#fffefd"] ;
750 -> 751 ;
752 [label="mse = 1.332\nsamples = 764\nvalue = 0.647", fillcolor="#fffefd"] ;
751 -> 752 ;
753 [label="mse = 3.357\nsamples = 89\nvalue = 2.106", fillcolor="#fefcfa"] ;
751 -> 753 ;
754 [label="X[4] <= 21191.5\nmse = 20.753\nsamples = 83\nvalue = 4.307", fillcolor="#fef8f5"] ;
750 -> 754 ;
755 [label="mse = 2.115\nsamples = 57\nvalue = 1.472", fillcolor="#fffdfb"] ;
754 -> 755 ;
756 [label="mse = 5.531\nsamples = 26\nvalue = 10.503", fillcolor="#fcefe5"] ;
754 -> 756 ;
757 [label="X[1] <= 26014.0\nmse = 0.919\nsamples = 1270\nvalue = 0.452", fillcolor="#fffefe"] ;
749 -> 757 ;
758 [label="X[5] <= 23908.0\nmse = 4.856\nsamples = 52\nvalue = 2.712", fillcolor="#fefbf8"] ;
757 -> 758 ;
759 [label="mse = 0.122\nsamples = 22\nvalue = 0.232", fillcolor="#fffffe"] ;
758 -> 759 ;
760 [label="mse = 1.107\nsamples = 30\nvalue = 4.384", fillcolor="#fef8f4"] ;
758 -> 760 ;
761 [label="X[5] <= 23822.0\nmse = 0.554\nsamples = 1218\nvalue = 0.363", fillcolor="#fffefe"] ;
757 -> 761 ;
762 [label="mse = 0.333\nsamples = 1053\nvalue = 0.284", fillcolor="#fffffe"] ;
761 -> 762 ;
763 [label="mse = 1.678\nsamples = 165\nvalue = 0.878", fillcolor="#fffefd"] ;
761 -> 763 ;
764 [label="X[4] <= 21359.0\nmse = 12.672\nsamples = 15786\nvalue = 1.672", fillcolor="#fefcfb"] ;
748 -> 764 ;
765 [label="X[4] <= 21357.5\nmse = 130.889\nsamples = 137\nvalue = 6.383", fillcolor="#fdf5ef"] ;
764 -> 765 ;
766 [label="X[4] <= 21333.0\nmse = 3.205\nsamples = 113\nvalue = 1.346", fillcolor="#fffdfc"] ;
765 -> 766 ;
767 [label="mse = 0.0\nsamples = 15\nvalue = 5.343", fillcolor="#fdf7f2"] ;
766 -> 767 ;
768 [label="mse = 0.56\nsamples = 98\nvalue = 0.663", fillcolor="#fffefd"] ;
766 -> 768 ;
769 [label="mse = -0.0\nsamples = 24\nvalue = 31.835", fillcolor="#f5ceb2"] ;
765 -> 769 ;
770 [label="X[2] <= 28414.5\nmse = 11.367\nsamples = 15649\nvalue = 1.628", fillcolor="#fefcfb"] ;
764 -> 770 ;
771 [label="X[4] <= 22544.5\nmse = 10.306\nsamples = 15397\nvalue = 1.588", fillcolor="#fefdfb"] ;
770 -> 771 ;
772 [label="mse = 9.585\nsamples = 15107\nvalue = 1.542", fillcolor="#fffdfb"] ;
771 -> 772 ;
773 [label="mse = 41.696\nsamples = 290\nvalue = 3.913", fillcolor="#fef9f5"] ;
771 -> 773 ;
774 [label="X[0] <= 28084.5\nmse = 71.545\nsamples = 252\nvalue = 4.187", fillcolor="#fef9f5"] ;
770 -> 774 ;
775 [label="mse = 0.0\nsamples = 7\nvalue = 43.267", fillcolor="#f1bc96"] ;
774 -> 775 ;
776 [label="mse = 14.755\nsamples = 245\nvalue = 2.72", fillcolor="#fefbf8"] ;
774 -> 776 ;
777 [label="X[4] <= 22545.5\nmse = 7.488\nsamples = 21710\nvalue = 0.994", fillcolor="#fffdfd"] ;
747 -> 777 ;
778 [label="X[1] <= 28346.0\nmse = 7.213\nsamples = 21302\nvalue = 0.958", fillcolor="#fffefd"] ;
777 -> 778 ;
779 [label="X[4] <= 21789.5\nmse = 7.844\nsamples = 19184\nvalue = 1.032", fillcolor="#fffdfc"] ;
778 -> 779 ;
780 [label="X[3] <= 26478.0\nmse = 4.129\nsamples = 4299\nvalue = 0.675", fillcolor="#fffefd"] ;
779 -> 780 ;
781 [label="mse = 2.206\nsamples = 4239\nvalue = 0.624", fillcolor="#fffefd"] ;
780 -> 781 ;
782 [label="mse = 136.655\nsamples = 60\nvalue = 4.652", fillcolor="#fef8f4"] ;
780 -> 782 ;
783 [label="X[4] <= 21790.5\nmse = 8.861\nsamples = 14885\nvalue = 1.134", fillcolor="#fffdfc"] ;
779 -> 783 ;
784 [label="mse = 38.955\nsamples = 30\nvalue = 12.326", fillcolor="#fbece1"] ;
783 -> 784 ;
785 [label="mse = 8.54\nsamples = 14855\nvalue = 1.111", fillcolor="#fffdfc"] ;
783 -> 785 ;
786 [label="X[3] <= 27128.5\nmse = 0.997\nsamples = 2118\nvalue = 0.293", fillcolor="#fffffe"] ;
778 -> 786 ;
787 [label="X[7] <= 20072.5\nmse = 0.943\nsamples = 2113\nvalue = 0.279", fillcolor="#fffffe"] ;
786 -> 787 ;
788 [label="mse = 4.054\nsamples = 291\nvalue = 0.793", fillcolor="#fffefd"] ;
787 -> 788 ;
789 [label="mse = 0.394\nsamples = 1822\nvalue = 0.196", fillcolor="#ffffff"] ;
787 -> 789 ;
790 [label="mse = 0.0\nsamples = 5\nvalue = 4.456", fillcolor="#fef8f4"] ;
786 -> 790 ;
791 [label="X[7] <= 23698.0\nmse = 18.335\nsamples = 408\nvalue = 2.926", fillcolor="#fefaf8"] ;
777 -> 791 ;
792 [label="X[0] <= 28358.0\nmse = 7.876\nsamples = 395\nvalue = 2.335", fillcolor="#fefbf9"] ;
791 -> 792 ;
793 [label="X[6] <= 24262.0\nmse = 3.295\nsamples = 330\nvalue = 1.528", fillcolor="#fffdfb"] ;
792 -> 793 ;
794 [label="mse = 4.0\nsamples = 193\nvalue = 2.318", fillcolor="#fefbf9"] ;
793 -> 794 ;
795 [label="mse = 0.328\nsamples = 137\nvalue = 0.452", fillcolor="#fffefe"] ;
793 -> 795 ;
796 [label="X[0] <= 28495.5\nmse = 12.332\nsamples = 65\nvalue = 5.977", fillcolor="#fdf6f0"] ;
792 -> 796 ;
797 [label="mse = 1.789\nsamples = 37\nvalue = 8.726", fillcolor="#fcf2ea"] ;
796 -> 797 ;
798 [label="mse = 0.869\nsamples = 28\nvalue = 2.005", fillcolor="#fefcfa"] ;
796 -> 798 ;
799 [label="X[5] <= 23688.0\nmse = 79.836\nsamples = 13\nvalue = 14.872", fillcolor="#fae8db"] ;
791 -> 799 ;
800 [label="mse = 0.0\nsamples = 4\nvalue = 0.055", fillcolor="#ffffff"] ;
799 -> 800 ;
801 [label="mse = 0.0\nsamples = 9\nvalue = 20.26", fillcolor="#f9e0ce"] ;
799 -> 801 ;
802 [label="X[4] <= 25061.5\nmse = 8.444\nsamples = 6072882\nvalue = 0.991", fillcolor="#fffdfd"] ;
0 -> 802 [labeldistance=2.5, labelangle=-45, headlabel="False"] ;
803 [label="X[0] <= 26858.5\nmse = 13.078\nsamples = 1541650\nvalue = 1.55", fillcolor="#fffdfb"] ;
802 -> 803 ;
804 [label="X[3] <= 24435.5\nmse = 8.934\nsamples = 978644\nvalue = 1.281", fillcolor="#fffdfc"] ;
803 -> 804 ;
805 [label="X[7] <= 24044.5\nmse = 3.567\nsamples = 142205\nvalue = 0.548", fillcolor="#fffefe"] ;
804 -> 805 ;
806 [label="X[0] <= 22822.5\nmse = 14.445\nsamples = 24679\nvalue = 1.45", fillcolor="#fffdfb"] ;
805 -> 806 ;
807 [label="X[6] <= 24573.0\nmse = 6.364\nsamples = 17012\nvalue = 1.023", fillcolor="#fffdfd"] ;
806 -> 807 ;
808 [label="X[5] <= 23160.5\nmse = 5.626\nsamples = 15736\nvalue = 0.936", fillcolor="#fffefd"] ;
807 -> 808 ;
809 [label="X[6] <= 23274.0\nmse = 11.333\nsamples = 3216\nvalue = 1.335", fillcolor="#fffdfc"] ;
808 -> 809 ;
810 [label="X[4] <= 23319.0\nmse = 8.719\nsamples = 3010\nvalue = 1.113", fillcolor="#fffdfc"] ;
809 -> 810 ;
811 [label="mse = 14.189\nsamples = 1653\nvalue = 1.552", fillcolor="#fffdfb"] ;
810 -> 811 ;
812 [label="mse = 1.33\nsamples = 1357\nvalue = 0.563", fillcolor="#fffefe"] ;
810 -> 812 ;
813 [label="X[6] <= 23280.0\nmse = 37.799\nsamples = 206\nvalue = 4.503", fillcolor="#fef8f4"] ;
809 -> 813 ;
814 [label="mse = 0.0\nsamples = 5\nvalue = 28.941", fillcolor="#f6d2b9"] ;
813 -> 814 ;
815 [label="mse = 21.85\nsamples = 201\nvalue = 3.826", fillcolor="#fef9f6"] ;
813 -> 815 ;
816 [label="X[1] <= 17253.5\nmse = 4.089\nsamples = 12520\nvalue = 0.832", fillcolor="#fffefd"] ;
808 -> 816 ;
817 [label="X[1] <= 17252.0\nmse = 7.083\nsamples = 1711\nvalue = 1.327", fillcolor="#fffdfc"] ;
816 -> 817 ;
818 [label="mse = 3.175\nsamples = 1660\nvalue = 0.994", fillcolor="#fffdfd"] ;
817 -> 818 ;
819 [label="mse = 23.072\nsamples = 51\nvalue = 11.111", fillcolor="#fbeee4"] ;
817 -> 819 ;
820 [label="X[0] <= 20025.0\nmse = 3.577\nsamples = 10809\nvalue = 0.755", fillcolor="#fffefd"] ;
816 -> 820 ;
821 [label="mse = 0.873\nsamples = 2260\nvalue = 0.327", fillcolor="#fffefe"] ;
820 -> 821 ;
822 [label="mse = 4.235\nsamples = 8549\nvalue = 0.869", fillcolor="#fffefd"] ;
820 -> 822 ;
823 [label="X[5] <= 23848.0\nmse = 14.332\nsamples = 1276\nvalue = 2.112", fillcolor="#fefcfa"] ;
807 -> 823 ;
824 [label="X[5] <= 23832.5\nmse = 54.316\nsamples = 26\nvalue = 12.371", fillcolor="#fbece1"] ;
823 -> 824 ;
825 [label="X[1] <= 21305.5\nmse = 10.825\nsamples = 9\nvalue = 2.881", fillcolor="#fefbf8"] ;
824 -> 825 ;
826 [label="mse = 0.002\nsamples = 5\nvalue = 0.032", fillcolor="#ffffff"] ;
825 -> 826 ;
827 [label="mse = 0.0\nsamples = 4\nvalue = 6.68", fillcolor="#fdf5ef"] ;
825 -> 827 ;
828 [label="mse = -0.0\nsamples = 17\nvalue = 17.685", fillcolor="#f9e4d4"] ;
824 -> 828 ;
829 [label="X[2] <= 25242.5\nmse = 11.352\nsamples = 1250\nvalue = 1.905", fillcolor="#fefcfa"] ;
823 -> 829 ;
830 [label="X[4] <= 24209.0\nmse = 8.643\nsamples = 1182\nvalue = 1.609", fillcolor="#fefdfb"] ;
829 -> 830 ;
831 [label="mse = 3.273\nsamples = 1080\nvalue = 1.234", fillcolor="#fffdfc"] ;
830 -> 831 ;
832 [label="mse = 47.004\nsamples = 102\nvalue = 5.375", fillcolor="#fdf7f2"] ;
830 -> 832 ;
833 [label="X[6] <= 24704.0\nmse = 30.394\nsamples = 68\nvalue = 7.049", fillcolor="#fdf4ee"] ;
829 -> 833 ;
834 [label="mse = 0.373\nsamples = 43\nvalue = 11.357", fillcolor="#fbede3"] ;
833 -> 834 ;
835 [label="mse = 0.003\nsamples = 25\nvalue = 0.048", fillcolor="#ffffff"] ;
833 -> 835 ;
836 [label="X[0] <= 22999.5\nmse = 31.054\nsamples = 7667\nvalue = 2.395", fillcolor="#fefbf9"] ;
806 -> 836 ;
837 [label="X[0] <= 22995.5\nmse = 96.421\nsamples = 420\nvalue = 6.886", fillcolor="#fdf4ee"] ;
836 -> 837 ;
838 [label="X[2] <= 25372.5\nmse = 51.966\nsamples = 397\nvalue = 5.389", fillcolor="#fdf7f2"] ;
837 -> 838 ;
839 [label="X[5] <= 23807.5\nmse = 5.138\nsamples = 245\nvalue = 1.898", fillcolor="#fefcfa"] ;
838 -> 839 ;
840 [label="mse = 1.274\nsamples = 153\nvalue = 0.688", fillcolor="#fffefd"] ;
839 -> 840 ;
841 [label="mse = 4.926\nsamples = 92\nvalue = 3.984", fillcolor="#fef9f5"] ;
839 -> 841 ;
842 [label="X[0] <= 22927.5\nmse = 75.619\nsamples = 152\nvalue = 11.333", fillcolor="#fbede3"] ;
838 -> 842 ;
843 [label="mse = 33.32\nsamples = 93\nvalue = 17.26", fillcolor="#f9e4d5"] ;
842 -> 843 ;
844 [label="mse = 10.413\nsamples = 59\nvalue = 2.631", fillcolor="#fefbf9"] ;
842 -> 844 ;
845 [label="mse = 0.0\nsamples = 23\nvalue = 38.17", fillcolor="#f3c4a2"] ;
837 -> 845 ;
846 [label="X[7] <= 23524.5\nmse = 26.038\nsamples = 7247\nvalue = 2.136", fillcolor="#fefcfa"] ;
836 -> 846 ;
847 [label="X[6] <= 23216.5\nmse = 42.629\nsamples = 3636\nvalue = 3.034", fillcolor="#fefaf8"] ;
846 -> 847 ;
848 [label="X[4] <= 22804.0\nmse = 9.067\nsamples = 1418\nvalue = 1.299", fillcolor="#fffdfc"] ;
847 -> 848 ;
849 [label="mse = 18.636\nsamples = 496\nvalue = 2.412", fillcolor="#fefbf9"] ;
848 -> 849 ;
850 [label="mse = 3.014\nsamples = 922\nvalue = 0.711", fillcolor="#fffefd"] ;
848 -> 850 ;
851 [label="X[3] <= 23975.0\nmse = 60.554\nsamples = 2218\nvalue = 4.119", fillcolor="#fef9f5"] ;
847 -> 851 ;
852 [label="mse = 135.786\nsamples = 541\nvalue = 7.112", fillcolor="#fdf4ee"] ;
851 -> 852 ;
853 [label="mse = 33.343\nsamples = 1677\nvalue = 3.183", fillcolor="#fefaf7"] ;
851 -> 853 ;
854 [label="X[2] <= 27495.5\nmse = 7.575\nsamples = 3611\nvalue = 1.225", fillcolor="#fffdfc"] ;
846 -> 854 ;
855 [label="X[0] <= 26840.0\nmse = 5.197\nsamples = 3591\nvalue = 1.135", fillcolor="#fffdfc"] ;
854 -> 855 ;
856 [label="mse = 4.785\nsamples = 3587\nvalue = 1.114", fillcolor="#fffdfc"] ;
855 -> 856 ;
857 [label="mse = -0.0\nsamples = 4\nvalue = 20.852", fillcolor="#f8dfcc"] ;
855 -> 857 ;
858 [label="mse = 176.991\nsamples = 20\nvalue = 16.501", fillcolor="#fae5d7"] ;
854 -> 858 ;
859 [label="X[7] <= 24612.5\nmse = 1.097\nsamples = 117526\nvalue = 0.361", fillcolor="#fffefe"] ;
805 -> 859 ;
860 [label="X[0] <= 26495.0\nmse = 2.294\nsamples = 30642\nvalue = 0.567", fillcolor="#fffefe"] ;
859 -> 860 ;
861 [label="X[2] <= 27220.5\nmse = 1.872\nsamples = 30572\nvalue = 0.551", fillcolor="#fffefe"] ;
860 -> 861 ;
862 [label="X[2] <= 24642.5\nmse = 1.845\nsamples = 30568\nvalue = 0.549", fillcolor="#fffefe"] ;
861 -> 862 ;
863 [label="X[5] <= 24091.5\nmse = 1.304\nsamples = 25753\nvalue = 0.482", fillcolor="#fffefe"] ;
862 -> 863 ;
864 [label="mse = 1.464\nsamples = 20722\nvalue = 0.546", fillcolor="#fffefe"] ;
863 -> 864 ;
865 [label="mse = 0.56\nsamples = 5031\nvalue = 0.215", fillcolor="#fffffe"] ;
863 -> 865 ;
866 [label="X[1] <= 17326.0\nmse = 4.585\nsamples = 4815\nvalue = 0.907", fillcolor="#fffefd"] ;
862 -> 866 ;
867 [label="mse = 167.586\nsamples = 33\nvalue = 12.438", fillcolor="#fbece1"] ;
866 -> 867 ;
868 [label="mse = 2.606\nsamples = 4782\nvalue = 0.83", fillcolor="#fffefd"] ;
866 -> 868 ;
869 [label="mse = 0.0\nsamples = 4\nvalue = 14.276", fillcolor="#fae9dc"] ;
861 -> 869 ;
870 [label="X[0] <= 26510.5\nmse = 128.679\nsamples = 70\nvalue = 7.485", fillcolor="#fdf3ed"] ;
860 -> 870 ;
871 [label="mse = 0.0\nsamples = 14\nvalue = 29.246", fillcolor="#f6d2b8"] ;
870 -> 871 ;
872 [label="X[4] <= 22925.5\nmse = 6.491\nsamples = 56\nvalue = 1.808", fillcolor="#fefcfb"] ;
870 -> 872 ;
873 [label="X[1] <= 26533.5\nmse = 6.49\nsamples = 28\nvalue = 3.61", fillcolor="#fef9f6"] ;
872 -> 873 ;
874 [label="mse = 3.101\nsamples = 22\nvalue = 4.827", fillcolor="#fdf8f3"] ;
873 -> 874 ;
875 [label="mse = 0.002\nsamples = 6\nvalue = 0.161", fillcolor="#ffffff"] ;
873 -> 875 ;
876 [label="X[5] <= 24409.5\nmse = 0.0\nsamples = 28\nvalue = 0.007", fillcolor="#ffffff"] ;
872 -> 876 ;
877 [label="mse = 0.0\nsamples = 23\nvalue = 0.0", fillcolor="#ffffff"] ;
876 -> 877 ;
878 [label="mse = 0.0\nsamples = 5\nvalue = 0.03", fillcolor="#ffffff"] ;
876 -> 878 ;
879 [label="X[7] <= 25645.5\nmse = 0.659\nsamples = 86884\nvalue = 0.288", fillcolor="#fffffe"] ;
859 -> 879 ;
880 [label="X[0] <= 22809.5\nmse = 0.775\nsamples = 69651\nvalue = 0.332", fillcolor="#fffefe"] ;
879 -> 880 ;
881 [label="X[0] <= 18616.0\nmse = 1.203\nsamples = 29405\nvalue = 0.442", fillcolor="#fffefe"] ;
880 -> 881 ;
882 [label="X[1] <= 16116.0\nmse = 0.174\nsamples = 14069\nvalue = 0.209", fillcolor="#fffffe"] ;
881 -> 882 ;
883 [label="mse = 0.018\nsamples = 3021\nvalue = 0.049", fillcolor="#ffffff"] ;
882 -> 883 ;
884 [label="mse = 0.208\nsamples = 11048\nvalue = 0.254", fillcolor="#fffffe"] ;
882 -> 884 ;
885 [label="X[5] <= 24695.0\nmse = 2.054\nsamples = 15336\nvalue = 0.657", fillcolor="#fffefd"] ;
881 -> 885 ;
886 [label="mse = 1.683\nsamples = 14820\nvalue = 0.608", fillcolor="#fffefe"] ;
885 -> 886 ;
887 [label="mse = 10.676\nsamples = 516\nvalue = 2.049", fillcolor="#fefcfa"] ;
885 -> 887 ;
888 [label="X[1] <= 25235.5\nmse = 0.448\nsamples = 40246\nvalue = 0.251", fillcolor="#fffffe"] ;
880 -> 888 ;
889 [label="X[4] <= 23936.5\nmse = 0.327\nsamples = 29300\nvalue = 0.194", fillcolor="#ffffff"] ;
888 -> 889 ;
890 [label="mse = 0.138\nsamples = 16898\nvalue = 0.133", fillcolor="#ffffff"] ;
889 -> 890 ;
891 [label="mse = 0.573\nsamples = 12402\nvalue = 0.276", fillcolor="#fffffe"] ;
889 -> 891 ;
892 [label="X[4] <= 25020.0\nmse = 0.737\nsamples = 10946\nvalue = 0.406", fillcolor="#fffefe"] ;
888 -> 892 ;
893 [label="mse = 0.575\nsamples = 10881\nvalue = 0.391", fillcolor="#fffefe"] ;
892 -> 893 ;
894 [label="mse = 21.47\nsamples = 65\nvalue = 2.817", fillcolor="#fefbf8"] ;
892 -> 894 ;
895 [label="X[7] <= 25981.5\nmse = 0.151\nsamples = 17233\nvalue = 0.113", fillcolor="#ffffff"] ;
879 -> 895 ;
896 [label="X[4] <= 24907.5\nmse = 0.213\nsamples = 8672\nvalue = 0.193", fillcolor="#ffffff"] ;
895 -> 896 ;
897 [label="X[1] <= 22324.5\nmse = 0.125\nsamples = 7025\nvalue = 0.146", fillcolor="#ffffff"] ;
896 -> 897 ;
898 [label="mse = 0.181\nsamples = 3135\nvalue = 0.223", fillcolor="#fffffe"] ;
897 -> 898 ;
899 [label="mse = 0.071\nsamples = 3890\nvalue = 0.084", fillcolor="#ffffff"] ;
897 -> 899 ;
900 [label="X[6] <= 25403.5\nmse = 0.537\nsamples = 1647\nvalue = 0.389", fillcolor="#fffefe"] ;
896 -> 900 ;
901 [label="mse = 0.225\nsamples = 1509\nvalue = 0.273", fillcolor="#fffffe"] ;
900 -> 901 ;
902 [label="mse = 2.188\nsamples = 138\nvalue = 1.543", fillcolor="#fffdfb"] ;
900 -> 902 ;
903 [label="X[1] <= 15139.5\nmse = 0.074\nsamples = 8561\nvalue = 0.032", fillcolor="#ffffff"] ;
895 -> 903 ;
904 [label="X[1] <= 15134.5\nmse = 2.281\nsamples = 200\nvalue = 0.545", fillcolor="#fffefe"] ;
903 -> 904 ;
905 [label="mse = 0.326\nsamples = 181\nvalue = 0.134", fillcolor="#ffffff"] ;
904 -> 905 ;
906 [label="mse = 4.453\nsamples = 19\nvalue = 4.311", fillcolor="#fef8f5"] ;
904 -> 906 ;
907 [label="X[0] <= 26380.0\nmse = 0.013\nsamples = 8361\nvalue = 0.019", fillcolor="#ffffff"] ;
903 -> 907 ;
908 [label="mse = 0.011\nsamples = 8309\nvalue = 0.016", fillcolor="#ffffff"] ;
907 -> 908 ;
909 [label="mse = 0.099\nsamples = 52\nvalue = 0.5", fillcolor="#fffefe"] ;
907 -> 909 ;
910 [label="X[4] <= 23729.5\nmse = 9.738\nsamples = 836439\nvalue = 1.405", fillcolor="#fffdfc"] ;
804 -> 910 ;
911 [label="X[2] <= 23611.5\nmse = 13.733\nsamples = 270639\nvalue = 1.822", fillcolor="#fefcfb"] ;
910 -> 911 ;
912 [label="X[0] <= 25821.5\nmse = 55.519\nsamples = 6565\nvalue = 3.072", fillcolor="#fefaf8"] ;
911 -> 912 ;
913 [label="X[6] <= 22471.5\nmse = 15.476\nsamples = 5224\nvalue = 2.214", fillcolor="#fefcfa"] ;
912 -> 913 ;
914 [label="X[6] <= 20979.0\nmse = 2.224\nsamples = 690\nvalue = 0.592", fillcolor="#fffefe"] ;
913 -> 914 ;
915 [label="mse = 0.0\nsamples = 9\nvalue = 7.369", fillcolor="#fdf4ed"] ;
914 -> 915 ;
916 [label="X[2] <= 23342.0\nmse = 1.57\nsamples = 681\nvalue = 0.492", fillcolor="#fffefe"] ;
914 -> 916 ;
917 [label="mse = 1.34\nsamples = 659\nvalue = 0.411", fillcolor="#fffefe"] ;
916 -> 917 ;
918 [label="mse = 2.545\nsamples = 22\nvalue = 2.842", fillcolor="#fefbf8"] ;
916 -> 918 ;
919 [label="X[6] <= 22502.0\nmse = 17.042\nsamples = 4534\nvalue = 2.463", fillcolor="#fefbf9"] ;
913 -> 919 ;
920 [label="X[4] <= 23094.0\nmse = 23.341\nsamples = 32\nvalue = 9.548", fillcolor="#fcf0e8"] ;
919 -> 920 ;
921 [label="mse = 0.501\nsamples = 8\nvalue = 1.734", fillcolor="#fefcfb"] ;
920 -> 921 ;
922 [label="mse = 0.134\nsamples = 24\nvalue = 12.505", fillcolor="#fbece1"] ;
920 -> 922 ;
923 [label="X[3] <= 24580.5\nmse = 16.636\nsamples = 4502\nvalue = 2.413", fillcolor="#fefbf9"] ;
919 -> 923 ;
924 [label="mse = 2.99\nsamples = 452\nvalue = 1.024", fillcolor="#fffdfd"] ;
923 -> 924 ;
925 [label="mse = 17.926\nsamples = 4050\nvalue = 2.568", fillcolor="#fefbf9"] ;
923 -> 925 ;
926 [label="X[1] <= 25634.0\nmse = 199.391\nsamples = 1341\nvalue = 6.46", fillcolor="#fdf5ef"] ;
912 -> 926 ;
927 [label="X[3] <= 24994.0\nmse = 629.672\nsamples = 293\nvalue = 15.839", fillcolor="#fae6d8"] ;
926 -> 927 ;
928 [label="X[0] <= 26122.0\nmse = 879.003\nsamples = 81\nvalue = 46.43", fillcolor="#f0b78e"] ;
927 -> 928 ;
929 [label="mse = 62.405\nsamples = 56\nvalue = 66.06", fillcolor="#ea995e"] ;
928 -> 929 ;
930 [label="mse = 4.465\nsamples = 25\nvalue = 3.898", fillcolor="#fef9f6"] ;
928 -> 930 ;
931 [label="X[4] <= 23412.0\nmse = 40.049\nsamples = 212\nvalue = 4.148", fillcolor="#fef9f5"] ;
927 -> 931 ;
932 [label="mse = 3.244\nsamples = 139\nvalue = 1.003", fillcolor="#fffdfd"] ;
931 -> 932 ;
933 [label="mse = 56.589\nsamples = 73\nvalue = 9.758", fillcolor="#fcf0e7"] ;
931 -> 933 ;
934 [label="X[5] <= 23898.0\nmse = 37.132\nsamples = 1048\nvalue = 3.665", fillcolor="#fef9f6"] ;
926 -> 934 ;
935 [label="X[3] <= 25473.5\nmse = 25.535\nsamples = 834\nvalue = 2.557", fillcolor="#fefbf9"] ;
934 -> 935 ;
936 [label="mse = 32.631\nsamples = 601\nvalue = 3.459", fillcolor="#fefaf7"] ;
935 -> 936 ;
937 [label="mse = 0.419\nsamples = 233\nvalue = 0.282", fillcolor="#fffffe"] ;
935 -> 937 ;
938 [label="X[2] <= 22576.0\nmse = 58.674\nsamples = 214\nvalue = 7.773", fillcolor="#fdf3ec"] ;
934 -> 938 ;
939 [label="mse = 0.0\nsamples = 8\nvalue = 37.441", fillcolor="#f3c5a4"] ;
938 -> 939 ;
940 [label="mse = 30.489\nsamples = 206\nvalue = 6.79", fillcolor="#fdf4ee"] ;
938 -> 940 ;
941 [label="X[3] <= 25655.5\nmse = 12.653\nsamples = 264074\nvalue = 1.791", fillcolor="#fefcfb"] ;
911 -> 941 ;
942 [label="X[0] <= 21881.0\nmse = 12.644\nsamples = 232758\nvalue = 1.853", fillcolor="#fefcfa"] ;
941 -> 942 ;
943 [label="X[1] <= 17314.5\nmse = 7.356\nsamples = 20599\nvalue = 1.27", fillcolor="#fffdfc"] ;
942 -> 943 ;
944 [label="X[6] <= 24749.5\nmse = 18.374\nsamples = 158\nvalue = 5.06", fillcolor="#fdf7f3"] ;
943 -> 944 ;
945 [label="mse = 1.854\nsamples = 95\nvalue = 1.931", fillcolor="#fefcfa"] ;
944 -> 945 ;
946 [label="mse = 6.972\nsamples = 63\nvalue = 9.68", fillcolor="#fcf0e7"] ;
944 -> 946 ;
947 [label="X[3] <= 24438.5\nmse = 7.151\nsamples = 20441\nvalue = 1.24", fillcolor="#fffdfc"] ;
943 -> 947 ;
948 [label="mse = 15.706\nsamples = 82\nvalue = 5.688", fillcolor="#fdf6f1"] ;
947 -> 948 ;
949 [label="mse = 7.045\nsamples = 20359\nvalue = 1.223", fillcolor="#fffdfc"] ;
947 -> 949 ;
950 [label="X[2] <= 25204.5\nmse = 13.124\nsamples = 212159\nvalue = 1.909", fillcolor="#fefcfa"] ;
942 -> 950 ;
951 [label="X[7] <= 24056.5\nmse = 18.997\nsamples = 73446\nvalue = 2.146", fillcolor="#fefcfa"] ;
950 -> 951 ;
952 [label="mse = 26.685\nsamples = 44497\nvalue = 2.456", fillcolor="#fefbf9"] ;
951 -> 952 ;
953 [label="mse = 6.798\nsamples = 28949\nvalue = 1.67", fillcolor="#fefcfb"] ;
951 -> 953 ;
954 [label="X[0] <= 21884.0\nmse = 9.967\nsamples = 138713\nvalue = 1.784", fillcolor="#fefcfb"] ;
950 -> 954 ;
955 [label="mse = 76.047\nsamples = 72\nvalue = 13.321", fillcolor="#fbeadf"] ;
954 -> 955 ;
956 [label="mse = 9.863\nsamples = 138641\nvalue = 1.778", fillcolor="#fefcfb"] ;
954 -> 956 ;
957 [label="X[4] <= 23728.5\nmse = 12.483\nsamples = 31316\nvalue = 1.332", fillcolor="#fffdfc"] ;
941 -> 957 ;
958 [label="X[1] <= 26373.0\nmse = 11.615\nsamples = 31229\nvalue = 1.307", fillcolor="#fffdfc"] ;
957 -> 958 ;
959 [label="X[0] <= 26454.5\nmse = 14.08\nsamples = 24059\nvalue = 1.46", fillcolor="#fffdfb"] ;
958 -> 959 ;
960 [label="mse = 10.839\nsamples = 20425\nvalue = 1.338", fillcolor="#fffdfc"] ;
959 -> 960 ;
961 [label="mse = 31.639\nsamples = 3634\nvalue = 2.139", fillcolor="#fefcfa"] ;
959 -> 961 ;
962 [label="X[2] <= 24993.5\nmse = 3.083\nsamples = 7170\nvalue = 0.798", fillcolor="#fffefd"] ;
958 -> 962 ;
963 [label="mse = 12.251\nsamples = 344\nvalue = 2.495", fillcolor="#fefbf9"] ;
962 -> 963 ;
964 [label="mse = 2.476\nsamples = 6826\nvalue = 0.713", fillcolor="#fffefd"] ;
962 -> 964 ;
965 [label="X[7] <= 23560.0\nmse = 241.163\nsamples = 87\nvalue = 10.576", fillcolor="#fcefe5"] ;
957 -> 965 ;
966 [label="X[6] <= 24127.5\nmse = 263.321\nsamples = 24\nvalue = 32.484", fillcolor="#f5cdb0"] ;
965 -> 966 ;
967 [label="mse = 0.001\nsamples = 4\nvalue = 0.03", fillcolor="#ffffff"] ;
966 -> 967 ;
968 [label="mse = 0.0\nsamples = 20\nvalue = 40.598", fillcolor="#f2c09c"] ;
966 -> 968 ;
969 [label="X[0] <= 24038.0\nmse = 9.527\nsamples = 63\nvalue = 2.984", fillcolor="#fefaf8"] ;
965 -> 969 ;
970 [label="mse = 0.0\nsamples = 12\nvalue = 8.402", fillcolor="#fcf2eb"] ;
969 -> 970 ;
971 [label="mse = 1.13\nsamples = 51\nvalue = 1.387", fillcolor="#fffdfc"] ;
969 -> 971 ;
972 [label="X[3] <= 25070.5\nmse = 7.707\nsamples = 565800\nvalue = 1.206", fillcolor="#fffdfc"] ;
910 -> 972 ;
973 [label="X[2] <= 27399.5\nmse = 5.924\nsamples = 72312\nvalue = 0.791", fillcolor="#fffefd"] ;
972 -> 973 ;
974 [label="X[7] <= 24697.5\nmse = 5.387\nsamples = 72192\nvalue = 0.766", fillcolor="#fffefd"] ;
973 -> 974 ;
975 [label="X[0] <= 25952.0\nmse = 11.255\nsamples = 29704\nvalue = 1.204", fillcolor="#fffdfc"] ;
974 -> 975 ;
976 [label="X[5] <= 25009.5\nmse = 8.87\nsamples = 27833\nvalue = 1.088", fillcolor="#fffdfc"] ;
975 -> 976 ;
977 [label="mse = 8.727\nsamples = 27813\nvalue = 1.081", fillcolor="#fffdfc"] ;
976 -> 977 ;
978 [label="mse = 87.141\nsamples = 20\nvalue = 12.867", fillcolor="#fbebe0"] ;
976 -> 978 ;
979 [label="X[2] <= 23252.0\nmse = 44.417\nsamples = 1871\nvalue = 2.981", fillcolor="#fefaf8"] ;
975 -> 979 ;
980 [label="mse = 577.919\nsamples = 50\nvalue = 23.738", fillcolor="#f7dac5"] ;
979 -> 980 ;
981 [label="mse = 17.725\nsamples = 1821\nvalue = 2.413", fillcolor="#fefbf9"] ;
979 -> 981 ;
982 [label="X[1] <= 23664.0\nmse = 1.061\nsamples = 42488\nvalue = 0.46", fillcolor="#fffefe"] ;
974 -> 982 ;
983 [label="X[1] <= 19224.0\nmse = 2.126\nsamples = 10474\nvalue = 0.785", fillcolor="#fffefd"] ;
982 -> 983 ;
984 [label="mse = 0.987\nsamples = 3608\nvalue = 0.331", fillcolor="#fffefe"] ;
983 -> 984 ;
985 [label="mse = 2.561\nsamples = 6866\nvalue = 1.024", fillcolor="#fffdfd"] ;
983 -> 985 ;
986 [label="X[1] <= 25729.5\nmse = 0.669\nsamples = 32014\nvalue = 0.354", fillcolor="#fffefe"] ;
982 -> 986 ;
987 [label="mse = 0.387\nsamples = 24123\nvalue = 0.253", fillcolor="#fffffe"] ;
986 -> 987 ;
988 [label="mse = 1.415\nsamples = 7891\nvalue = 0.669", fillcolor="#fffefd"] ;
986 -> 988 ;
